<?xml version="1.0"?>
<opencv_storage>
<cascade type_id="opencv-haar-classifier">
  <size>
    24 24</size>
  <stages>
    <_>
      <!-- stage 0 -->
      <trees>
        <_>
          <!-- tree 0 -->
          <_>
            <!-- root node -->
            <feature>
              <rects>
                <_>
                  11 11 2 2 -1.</_>
                <_>
                  12 11 1 2 2.</_></rects>
              <tilted>0</tilted></feature>
            <threshold>-3.4608950372785330e-003</threshold>
            <left_val>7.1538239717483521e-001</left_val>
            <right_val>-7.8874617815017700e-001</right_val></_></_>
        <_>
          <!-- tree 1 -->
          <_>
            <!-- root node -->
            <feature>
              <rects>
                <_>
                  13 9 6 6 -1.</_>
                <_>
                  13 9 3 6 2.</_></rects>
              <tilted>0</tilted></feature>
            <threshold>4.7808052040636539e-003</threshold>
            <left_val>-5.1563942432403564e-001</left_val>
            <right_val>2.5679659843444824e-001</right_val></_></_>
        <_>
          <!-- tree 2 -->
          <_>
            <!-- root node -->
            <feature>
              <rects>
                <_>
                  5 9 6 6 -1.</_>
                <_>
                  8 9 3 6 2.</_></rects>
              <tilted>0</tilted></feature>
            <threshold>6.5307090990245342e-003</threshold>
            <left_val>-9.4679552316665649e-001</left_val>
            <right_val>4.5617011189460754e-001</right_val></_></_></trees>
      <stage_threshold>-8.4821552038192749e-001</stage_threshold>
      <parent>-1</parent>
      <next>-1</next></_>
    <_>
      <!-- stage 1 -->
      <trees>
        <_>
          <!-- tree 0 -->
          <_>
            <!-- root node -->
            <feature>
              <rects>
                <_>
                  11 12 2 1 -1.</_>
                <_>
                  12 12 1 1 2.</_></rects>
              <tilted>0</tilted></feature>
            <threshold>-2.9320719186216593e-003</threshold>
            <left_val>6.2381541728973389e-001</left_val>
            <right_val>-7.2864300012588501e-001</right_val></_></_>
        <_>
          <!-- tree 1 -->
          <_>
            <!-- root node -->
            <feature>
              <rects>
                <_>
                  12 0 12 21 -1.</_>
                <_>
                  12 7 12 7 3.</_></rects>
              <tilted>0</tilted></feature>
            <threshold>6.5219968557357788e-002</threshold>
            <left_val>-3.9850041270256042e-001</left_val>
            <right_val>2.2351509332656860e-001</right_val></_></_>
        <_>
          <!-- tree 2 -->
          <_>
            <!-- root node -->
            <feature>
              <rects>
                <_>
                  10 10 1 4 -1.</_>
                <_>
                  10 12 1 2 2.</_></rects>
              <tilted>0</tilted></feature>
            <threshold>-1.5874700329732150e-004</threshold>
            <left_val>3.5564020276069641e-001</left_val>
            <right_val>-7.3985368013381958e-001</right_val></_></_>
        <_>
          <!-- tree 3 -->
          <_>
            <!-- root node -->
            <feature>
              <rects>
                <_>
                  7 11 10 5 -1.</_>
                <_>
                  7 11 5 5 2.</_></rects>
              <tilted>0</tilted></feature>
            <threshold>-1.3004239648580551e-002</threshold>
            <left_val>-9.5512688159942627e-001</left_val>
            <right_val>1.9481199979782104e-001</right_val></_></_>
        <_>
          <!-- tree 4 -->
          <_>
            <!-- root node -->
            <feature>
              <rects>
                <_>
                  5 13 10 3 -1.</_>
                <_>
                  10 13 5 3 2.</_></rects>
              <tilted>0</tilted></feature>
            <threshold>-1.3709879713132977e-003</threshold>
            <left_val>-9.1650247573852539e-001</left_val>
            <right_val>2.5144430994987488e-001</right_val></_></_>
        <_>
          <!-- tree 5 -->
          <_>
            <!-- root node -->
            <feature>
              <rects>
                <_>
                  12 12 1 2 -1.</_>
                <_>
                  12 13 1 1 2.</_></rects>
              <tilted>0</tilted></feature>
            <threshold>9.9024246446788311e-004</threshold>
            <left_val>-2.9679518938064575e-001</left_val>
            <right_val>3.7310388684272766e-001</right_val></_></_>
        <_>
          <!-- tree 6 -->
          <_>
            <!-- root node -->
            <feature>
              <rects>
                <_>
                  11 12 1 2 -1.</_>
                <_>
                  11 13 1 1 2.</_></rects>
              <tilted>0</tilted></feature>
            <threshold>-9.0901507064700127e-005</threshold>
            <left_val>3.2599300146102905e-001</left_val>
            <right_val>-7.6712220907211304e-001</right_val></_></_></trees>
      <stage_threshold>-1.4459880590438843e+000</stage_threshold>
      <parent>0</parent>
      <next>-1</next></_>
    <_>
      <!-- stage 2 -->
      <trees>
        <_>
          <!-- tree 0 -->
          <_>
            <!-- root node -->
            <feature>
              <rects>
                <_>
                  0 0 12 24 -1.</_>
                <_>
                  0 8 12 8 3.</_></rects>
              <tilted>0</tilted></feature>
            <threshold>2.4018789827823639e-001</threshold>
            <left_val>-7.1034461259841919e-001</left_val>
            <right_val>5.9893381595611572e-001</right_val></_></_>
        <_>
          <!-- tree 1 -->
          <_>
            <!-- root node -->
            <feature>
              <rects>
                <_>
                  11 7 2 9 -1.</_>
                <_>
                  11 10 2 3 3.</_></rects>
              <tilted>0</tilted></feature>
            <threshold>-7.6797408983111382e-003</threshold>
            <left_val>5.3272211551666260e-001</left_val>
            <right_val>-4.3342068791389465e-001</right_val></_></_>
        <_>
          <!-- tree 2 -->
          <_>
            <!-- root node -->
            <feature>
              <rects>
                <_>
                  3 12 18 2 -1.</_>
                <_>
                  9 12 6 2 3.</_></rects>
              <tilted>0</tilted></feature>
            <threshold>1.9156700000166893e-003</threshold>
            <left_val>-8.1673461198806763e-001</left_val>
            <right_val>2.0381729304790497e-001</right_val></_></_>
        <_>
          <!-- tree 3 -->
          <_>
            <!-- root node -->
            <feature>
              <rects>
                <_>
                  13 10 1 6 -1.</_>
                <_>
                  13 13 1 3 2.</_></rects>
              <tilted>0</tilted></feature>
            <threshold>-5.0908629782497883e-003</threshold>
            <left_val>-6.1724400520324707e-001</left_val>
            <right_val>5.4486468434333801e-002</right_val></_></_>
        <_>
          <!-- tree 4 -->
          <_>
            <!-- root node -->
            <feature>
              <rects>
                <_>
                  10 10 1 6 -1.</_>
                <_>
                  10 13 1 3 2.</_></rects>
              <tilted>0</tilted></feature>
            <threshold>-7.6186363003216684e-005</threshold>
            <left_val>1.7813189327716827e-001</left_val>
            <right_val>-8.7728917598724365e-001</right_val></_></_>
        <_>
          <!-- tree 5 -->
          <_>
            <!-- root node -->
            <feature>
              <rects>
                <_>
                  7 12 10 4 -1.</_>
                <_>
                  7 12 5 4 2.</_></rects>
              <tilted>0</tilted></feature>
            <threshold>-1.1851820163428783e-002</threshold>
            <left_val>-8.7776529788970947e-001</left_val>
            <right_val>1.4178720116615295e-001</right_val></_></_>
        <_>
          <!-- tree 6 -->
          <_>
            <!-- root node -->
            <feature>
              <rects>
                <_>
                  1 9 6 3 -1.</_>
                <_>
                  4 9 3 3 2.</_></rects>
              <tilted>0</tilted></feature>
            <threshold>-3.8258518907241523e-004</threshold>
            <left_val>2.3490050435066223e-001</left_val>
            <right_val>-5.0845390558242798e-001</right_val></_></_>
        <_>
          <!-- tree 7 -->
          <_>
            <!-- root node -->
            <feature>
              <rects>
                <_>
                  11 12 3 1 -1.</_>
                <_>
                  12 12 1 1 3.</_></rects>
              <tilted>0</tilted></feature>
            <threshold>-5.0429520197212696e-003</threshold>
            <left_val>6.4615237712860107e-001</left_val>
            <right_val>-2.2356680035591125e-001</right_val></_></_>
        <_>
          <!-- tree 8 -->
          <_>
            <!-- root node -->
            <feature>
              <rects>
                <_>
                  11 8 1 6 -1.</_>
                <_>
                  11 11 1 3 2.</_></rects>
              <tilted>0</tilted></feature>
            <threshold>-4.8896588850766420e-004</threshold>
            <left_val>2.6888650655746460e-001</left_val>
            <right_val>-4.4629970192909241e-001</right_val></_></_></trees>
      <stage_threshold>-1.7438629865646362e+000</stage_threshold>
      <parent>1</parent>
      <next>-1</next></_>
    <_>
      <!-- stage 3 -->
      <trees>
        <_>
          <!-- tree 0 -->
          <_>
            <!-- root node -->
            <feature>
              <rects>
                <_>
                  0 0 24 24 -1.</_>
                <_>
                  0 8 24 8 3.</_></rects>
              <tilted>0</tilted></feature>
            <threshold>3.9023160934448242e-001</threshold>
            <left_val>-6.9727867841720581e-001</left_val>
            <right_val>3.8081571459770203e-001</right_val></_></_>
        <_>
          <!-- tree 1 -->
          <_>
            <!-- root node -->
            <feature>
              <rects>
                <_>
                  11 11 2 6 -1.</_>
                <_>
                  12 11 1 3 2.</_>
                <_>
                  11 14 1 3 2.</_></rects>
              <tilted>0</tilted></feature>
            <threshold>-3.1687719747424126e-003</threshold>
            <left_val>3.8755840063095093e-001</left_val>
            <right_val>-5.2100747823715210e-001</right_val></_></_>
        <_>
          <!-- tree 2 -->
          <_>
            <!-- root node -->
            <feature>
              <rects>
                <_>
                  7 12 10 3 -1.</_>
                <_>
                  12 12 5 3 2.</_></rects>
              <tilted>0</tilted></feature>
            <threshold>-1.6322139650583267e-002</threshold>
            <left_val>-8.9470869302749634e-001</left_val>
            <right_val>1.4039039611816406e-001</right_val></_></_>
        <_>
          <!-- tree 3 -->
          <_>
            <!-- root node -->
            <feature>
              <rects>
                <_>
                  9 10 9 7 -1.</_>
                <_>
                  12 10 3 7 3.</_></rects>
              <tilted>0</tilted></feature>
            <threshold>2.3097960278391838e-002</threshold>
            <left_val>9.6635177731513977e-002</left_val>
            <right_val>-6.2286847829818726e-001</right_val></_></_>
        <_>
          <!-- tree 4 -->
          <_>
            <!-- root node -->
            <feature>
              <rects>
                <_>
                  3 12 15 4 -1.</_>
                <_>
                  8 12 5 4 3.</_></rects>
              <tilted>0</tilted></feature>
            <threshold>2.0858470816165209e-003</threshold>
            <left_val>-8.4825462102890015e-001</left_val>
            <right_val>1.3492649793624878e-001</right_val></_></_>
        <_>
          <!-- tree 5 -->
          <_>
            <!-- root node -->
            <feature>
              <rects>
                <_>
                  6 10 18 4 -1.</_>
                <_>
                  6 10 9 4 2.</_></rects>
              <tilted>0</tilted></feature>
            <threshold>-8.3399694412946701e-003</threshold>
            <left_val>-5.4027980566024780e-001</left_val>
            <right_val>8.2085967063903809e-002</right_val></_></_>
        <_>
          <!-- tree 6 -->
          <_>
            <!-- root node -->
            <feature>
              <rects>
                <_>
                  11 8 1 4 -1.</_>
                <_>
                  11 10 1 2 2.</_></rects>
              <tilted>0</tilted></feature>
            <threshold>-1.2293670442886651e-004</threshold>
            <left_val>3.0733031034469604e-001</left_val>
            <right_val>-4.8485410213470459e-001</right_val></_></_>
        <_>
          <!-- tree 7 -->
          <_>
            <!-- root node -->
            <feature>
              <rects>
                <_>
                  18 11 6 4 -1.</_>
                <_>
                  18 11 3 4 2.</_></rects>
              <tilted>0</tilted></feature>
            <threshold>1.9523650407791138e-002</threshold>
            <left_val>3.4666929394006729e-002</left_val>
            <right_val>-5.5532747507095337e-001</right_val></_></_>
        <_>
          <!-- tree 8 -->
          <_>
            <!-- root node -->
            <feature>
              <rects>
                <_>
                  0 11 6 4 -1.</_>
                <_>
                  3 11 3 4 2.</_></rects>
              <tilted>0</tilted></feature>
            <threshold>-2.2065879311412573e-003</threshold>
            <left_val>3.1220981478691101e-001</left_val>
            <right_val>-3.9847931265830994e-001</right_val></_></_>
        <_>
          <!-- tree 9 -->
          <_>
            <!-- root node -->
            <feature>
              <rects>
                <_>
                  11 12 6 4 -1.</_>
                <_>
                  14 12 3 2 2.</_>
                <_>
                  11 14 3 2 2.</_></rects>
              <tilted>0</tilted></feature>
            <threshold>2.0406160037964582e-003</threshold>
            <left_val>-2.3023860156536102e-001</left_val>
            <right_val>2.4444940686225891e-001</right_val></_></_>
        <_>
          <!-- tree 10 -->
          <_>
            <!-- root node -->
            <feature>
              <rects>
                <_>
                  8 11 4 6 -1.</_>
                <_>
                  8 14 4 3 2.</_></rects>
              <tilted>0</tilted></feature>
            <threshold>-2.6475870981812477e-003</threshold>
            <left_val>1.8943729996681213e-001</left_val>
            <right_val>-6.7014187574386597e-001</right_val></_></_>
        <_>
          <!-- tree 11 -->
          <_>
            <!-- root node -->
            <feature>
              <rects>
                <_>
                  12 12 2 1 -1.</_>
                <_>
                  12 12 1 1 2.</_></rects>
              <tilted>0</tilted></feature>
            <threshold>-2.6131418999284506e-003</threshold>
            <left_val>6.2819331884384155e-001</left_val>
            <right_val>-1.7960579693317413e-001</right_val></_></_>
        <_>
          <!-- tree 12 -->
          <_>
            <!-- root node -->
            <feature>
              <rects>
                <_>
                  3 7 9 9 -1.</_>
                <_>
                  6 7 3 9 3.</_></rects>
              <tilted>0</tilted></feature>
            <threshold>1.5477229841053486e-002</threshold>
            <left_val>1.5732780098915100e-001</left_val>
            <right_val>-7.9894512891769409e-001</right_val></_></_>
        <_>
          <!-- tree 13 -->
          <_>
            <!-- root node -->
            <feature>
              <rects>
                <_>
                  12 12 4 2 -1.</_>
                <_>
                  12 12 2 2 2.</_></rects>
              <tilted>0</tilted></feature>
            <threshold>-1.5214090235531330e-003</threshold>
            <left_val>2.2816009819507599e-001</left_val>
            <right_val>-1.7572380602359772e-001</right_val></_></_>
        <_>
          <!-- tree 14 -->
          <_>
            <!-- root node -->
            <feature>
              <rects>
                <_>
                  8 12 4 2 -1.</_>
                <_>
                  10 12 2 2 2.</_></rects>
              <tilted>0</tilted></feature>
            <threshold>4.2602759785950184e-003</threshold>
            <left_val>1.5164139866828918e-001</left_val>
            <right_val>-8.9459288120269775e-001</right_val></_></_></trees>
      <stage_threshold>-1.7674709558486938e+000</stage_threshold>
      <parent>2</parent>
      <next>-1</next></_>
    <_>
      <!-- stage 4 -->
      <trees>
        <_>
          <!-- tree 0 -->
          <_>
            <!-- root node -->
            <feature>
              <rects>
                <_>
                  11 11 2 2 -1.</_>
                <_>
                  12 11 1 2 2.</_></rects>
              <tilted>0</tilted></feature>
            <threshold>-5.9001338668167591e-003</threshold>
            <left_val>4.8241919279098511e-001</left_val>
            <right_val>-6.6515481472015381e-001</right_val></_></_>
        <_>
          <!-- tree 1 -->
          <_>
            <!-- root node -->
            <feature>
              <rects>
                <_>
                  6 9 12 12 -1.</_>
                <_>
                  6 13 12 4 3.</_></rects>
              <tilted>0</tilted></feature>
            <threshold>5.2894160151481628e-002</threshold>
            <left_val>-3.8562661409378052e-001</left_val>
            <right_val>5.5401462316513062e-001</right_val></_></_>
        <_>
          <!-- tree 2 -->
          <_>
            <!-- root node -->
            <feature>
              <rects>
                <_>
                  10 12 2 1 -1.</_>
                <_>
                  11 12 1 1 2.</_></rects>
              <tilted>0</tilted></feature>
            <threshold>-5.3367932559922338e-004</threshold>
            <left_val>-8.1037950515747070e-001</left_val>
            <right_val>1.5587030351161957e-001</right_val></_></_>
        <_>
          <!-- tree 3 -->
          <_>
            <!-- root node -->
            <feature>
              <rects>
                <_>
                  11 3 4 6 -1.</_>
                <_>
                  11 6 4 3 2.</_></rects>
              <tilted>0</tilted></feature>
            <threshold>1.2505549937486649e-002</threshold>
            <left_val>-1.6966779530048370e-001</left_val>
            <right_val>3.2467320561408997e-001</right_val></_></_>
        <_>
          <!-- tree 4 -->
          <_>
            <!-- root node -->
            <feature>
              <rects>
                <_>
                  5 4 14 6 -1.</_>
                <_>
                  5 4 7 3 2.</_>
                <_>
                  12 7 7 3 2.</_></rects>
              <tilted>0</tilted></feature>
            <threshold>-3.9069499820470810e-002</threshold>
            <left_val>8.1686699390411377e-001</left_val>
            <right_val>-1.6677330434322357e-001</right_val></_></_>
        <_>
          <!-- tree 5 -->
          <_>
            <!-- root node -->
            <feature>
              <rects>
                <_>
                  21 8 2 6 -1.</_>
                <_>
                  22 8 1 3 2.</_>
                <_>
                  21 11 1 3 2.</_></rects>
              <tilted>0</tilted></feature>
            <threshold>-7.1630501188337803e-003</threshold>
            <left_val>5.1301008462905884e-001</left_val>
            <right_val>-2.6210889220237732e-002</right_val></_></_>
        <_>
          <!-- tree 6 -->
          <_>
            <!-- root node -->
            <feature>
              <rects>
                <_>
                  1 8 2 6 -1.</_>
                <_>
                  1 8 1 3 2.</_>
                <_>
                  2 11 1 3 2.</_></rects>
              <tilted>0</tilted></feature>
            <threshold>-3.8659730926156044e-003</threshold>
            <left_val>5.9861111640930176e-001</left_val>
            <right_val>-2.0684139430522919e-001</right_val></_></_>
        <_>
          <!-- tree 7 -->
          <_>
            <!-- root node -->
            <feature>
              <rects>
                <_>
                  21 13 3 3 -1.</_>
                <_>
                  22 13 1 3 3.</_></rects>
              <tilted>0</tilted></feature>
            <threshold>-2.0790460985153913e-003</threshold>
            <left_val>3.6039179563522339e-001</left_val>
            <right_val>-1.4309179782867432e-001</right_val></_></_>
        <_>
          <!-- tree 8 -->
          <_>
            <!-- root node -->
            <feature>
              <rects>
                <_>
                  0 13 3 3 -1.</_>
                <_>
                  1 13 1 3 3.</_></rects>
              <tilted>0</tilted></feature>
            <threshold>-3.7954489234834909e-003</threshold>
            <left_val>5.6025618314743042e-001</left_val>
            <right_val>-2.3034060001373291e-001</right_val></_></_>
        <_>
          <!-- tree 9 -->
          <_>
            <!-- root node -->
            <feature>
              <rects>
                <_>
                  13 10 2 6 -1.</_>
                <_>
                  13 13 2 3 2.</_></rects>
              <tilted>0</tilted></feature>
            <threshold>-1.2497790157794952e-002</threshold>
            <left_val>-9.0023982524871826e-001</left_val>
            <right_val>6.6682472825050354e-002</right_val></_></_>
        <_>
          <!-- tree 10 -->
          <_>
            <!-- root node -->
            <feature>
              <rects>
                <_>
                  9 10 2 6 -1.</_>
                <_>
                  9 13 2 3 2.</_></rects>
              <tilted>0</tilted></feature>
            <threshold>4.5908079482614994e-004</threshold>
            <left_val>1.3710829615592957e-001</left_val>
            <right_val>-9.4149988889694214e-001</right_val></_></_>
        <_>
          <!-- tree 11 -->
          <_>
            <!-- root node -->
            <feature>
              <rects>
                <_>
                  15 10 2 2 -1.</_>
                <_>
                  16 10 1 1 2.</_>
                <_>
                  15 11 1 1 2.</_></rects>
              <tilted>0</tilted></feature>
            <threshold>-1.5094740083441138e-003</threshold>
            <left_val>3.5017728805541992e-001</left_val>
            <right_val>-1.1160600185394287e-001</right_val></_></_>
        <_>
          <!-- tree 12 -->
          <_>
            <!-- root node -->
            <feature>
              <rects>
                <_>
                  7 10 2 2 -1.</_>
                <_>
                  7 10 1 1 2.</_>
                <_>
                  8 11 1 1 2.</_></rects>
              <tilted>0</tilted></feature>
            <threshold>-6.3791440334171057e-004</threshold>
            <left_val>4.2971810698509216e-001</left_val>
            <right_val>-2.5625249743461609e-001</right_val></_></_></trees>
      <stage_threshold>-1.4984209537506104e+000</stage_threshold>
      <parent>3</parent>
      <next>-1</next></_>
    <_>
      <!-- stage 5 -->
      <trees>
        <_>
          <!-- tree 0 -->
          <_>
            <!-- root node -->
            <feature>
              <rects>
                <_>
                  9 11 6 2 -1.</_>
                <_>
                  11 11 2 2 3.</_></rects>
              <tilted>0</tilted></feature>
            <threshold>-6.1501380987465382e-003</threshold>
            <left_val>2.3292900621891022e-001</left_val>
            <right_val>-7.0662111043930054e-001</right_val></_></_>
        <_>
          <!-- tree 1 -->
          <_>
            <!-- root node -->
            <feature>
              <rects>
                <_>
                  11 2 4 8 -1.</_>
                <_>
                  11 6 4 4 2.</_></rects>
              <tilted>0</tilted></feature>
            <threshold>2.9832700267434120e-002</threshold>
            <left_val>-2.6578891277313232e-001</left_val>
            <right_val>3.6081480979919434e-001</right_val></_></_>
        <_>
          <!-- tree 2 -->
          <_>
            <!-- root node -->
            <feature>
              <rects>
                <_>
                  4 14 10 2 -1.</_>
                <_>
                  9 14 5 2 2.</_></rects>
              <tilted>0</tilted></feature>
            <threshold>1.6579009825363755e-003</threshold>
            <left_val>-7.3977351188659668e-001</left_val>
            <right_val>1.9798390567302704e-001</right_val></_></_>
        <_>
          <!-- tree 3 -->
          <_>
            <!-- root node -->
            <feature>
              <rects>
                <_>
                  6 10 18 4 -1.</_>
                <_>
                  6 10 9 4 2.</_></rects>
              <tilted>0</tilted></feature>
            <threshold>-2.1369710564613342e-002</threshold>
            <left_val>-7.1320927143096924e-001</left_val>
            <right_val>1.1260560154914856e-001</right_val></_></_>
        <_>
          <!-- tree 4 -->
          <_>
            <!-- root node -->
            <feature>
              <rects>
                <_>
                  11 12 1 2 -1.</_>
                <_>
                  11 13 1 1 2.</_></rects>
              <tilted>0</tilted></feature>
            <threshold>-1.1729980178643018e-004</threshold>
            <left_val>1.8736930191516876e-001</left_val>
            <right_val>-6.3148307800292969e-001</right_val></_></_>
        <_>
          <!-- tree 5 -->
          <_>
            <!-- root node -->
            <feature>
              <rects>
                <_>
                  21 0 3 24 -1.</_>
                <_>
                  21 8 3 8 3.</_></rects>
              <tilted>0</tilted></feature>
            <threshold>1.2797930277884007e-002</threshold>
            <left_val>-3.0956360697746277e-001</left_val>
            <right_val>1.7758899927139282e-001</right_val></_></_>
        <_>
          <!-- tree 6 -->
          <_>
            <!-- root node -->
            <feature>
              <rects>
                <_>
                  0 11 21 2 -1.</_>
                <_>
                  7 11 7 2 3.</_></rects>
              <tilted>0</tilted></feature>
            <threshold>3.3276800066232681e-002</threshold>
            <left_val>2.4548919498920441e-001</left_val>
            <right_val>-5.3178328275680542e-001</right_val></_></_>
        <_>
          <!-- tree 7 -->
          <_>
            <!-- root node -->
            <feature>
              <rects>
                <_>
                  12 11 6 3 -1.</_>
                <_>
                  12 11 3 3 2.</_></rects>
              <tilted>0</tilted></feature>
            <threshold>-1.2914700433611870e-002</threshold>
            <left_val>-8.6508458852767944e-001</left_val>
            <right_val>3.1651791185140610e-002</right_val></_></_>
        <_>
          <!-- tree 8 -->
          <_>
            <!-- root node -->
            <feature>
              <rects>
                <_>
                  6 11 6 3 -1.</_>
                <_>
                  9 11 3 3 2.</_></rects>
              <tilted>0</tilted></feature>
            <threshold>3.1164418905973434e-003</threshold>
            <left_val>-6.6838532686233521e-001</left_val>
            <right_val>1.5536490082740784e-001</right_val></_></_>
        <_>
          <!-- tree 9 -->
          <_>
            <!-- root node -->
            <feature>
              <rects>
                <_>
                  13 9 1 6 -1.</_>
                <_>
                  13 11 1 2 3.</_></rects>
              <tilted>0</tilted></feature>
            <threshold>-1.5025279717519879e-003</threshold>
            <left_val>1.4575299620628357e-001</left_val>
            <right_val>-1.4692069590091705e-001</right_val></_></_>
        <_>
          <!-- tree 10 -->
          <_>
            <!-- root node -->
            <feature>
              <rects>
                <_>
                  10 9 1 4 -1.</_>
                <_>
                  10 11 1 2 2.</_></rects>
              <tilted>0</tilted></feature>
            <threshold>-9.0975081548094749e-005</threshold>
            <left_val>2.3717020452022552e-001</left_val>
            <right_val>-5.0437027215957642e-001</right_val></_></_>
        <_>
          <!-- tree 11 -->
          <_>
            <!-- root node -->
            <feature>
              <rects>
                <_>
                  7 8 12 12 -1.</_>
                <_>
                  7 12 12 4 3.</_></rects>
              <tilted>0</tilted></feature>
            <threshold>5.4328780621290207e-002</threshold>
            <left_val>-2.5430250167846680e-001</left_val>
            <right_val>3.7368020415306091e-001</right_val></_></_>
        <_>
          <!-- tree 12 -->
          <_>
            <!-- root node -->
            <feature>
              <rects>
                <_>
                  10 10 1 6 -1.</_>
                <_>
                  10 12 1 2 3.</_></rects>
              <tilted>0</tilted></feature>
            <threshold>-2.4028520565479994e-003</threshold>
            <left_val>-7.6310437917709351e-001</left_val>
            <right_val>1.3073800504207611e-001</right_val></_></_>
        <_>
          <!-- tree 13 -->
          <_>
            <!-- root node -->
            <feature>
              <rects>
                <_>
                  8 5 8 2 -1.</_>
                <_>
                  12 5 4 1 2.</_>
                <_>
                  8 6 4 1 2.</_></rects>
              <tilted>0</tilted></feature>
            <threshold>6.9033307954668999e-003</threshold>
            <left_val>-1.6703049838542938e-001</left_val>
            <right_val>6.7797982692718506e-001</right_val></_></_>
        <_>
          <!-- tree 14 -->
          <_>
            <!-- root node -->
            <feature>
              <rects>
                <_>
                  10 10 1 4 -1.</_>
                <_>
                  10 12 1 2 2.</_></rects>
              <tilted>0</tilted></feature>
            <threshold>2.8157370979897678e-004</threshold>
            <left_val>1.2632720172405243e-001</left_val>
            <right_val>-8.2889521121978760e-001</right_val></_></_>
        <_>
          <!-- tree 15 -->
          <_>
            <!-- root node -->
            <feature>
              <rects>
                <_>
                  21 10 2 6 -1.</_>
                <_>
                  22 10 1 3 2.</_>
                <_>
                  21 13 1 3 2.</_></rects>
              <tilted>0</tilted></feature>
            <threshold>-2.2334160748869181e-003</threshold>
            <left_val>2.4098689854145050e-001</left_val>
            <right_val>-1.3096550107002258e-001</right_val></_></_>
        <_>
          <!-- tree 16 -->
          <_>
            <!-- root node -->
            <feature>
              <rects>
                <_>
                  3 5 12 12 -1.</_>
                <_>
                  9 5 6 12 2.</_></rects>
              <tilted>0</tilted></feature>
            <threshold>1.2108530104160309e-001</threshold>
            <left_val>1.3712449371814728e-001</left_val>
            <right_val>-7.9417330026626587e-001</right_val></_></_></trees>
      <stage_threshold>-1.6823649406433105e+000</stage_threshold>
      <parent>4</parent>
      <next>-1</next></_>
    <_>
      <!-- stage 6 -->
      <trees>
        <_>
          <!-- tree 0 -->
          <_>
            <!-- root node -->
            <feature>
              <rects>
                <_>
                  11 12 2 1 -1.</_>
                <_>
                  12 12 1 1 2.</_></rects>
              <tilted>0</tilted></feature>
            <threshold>-3.2716710120439529e-003</threshold>
            <left_val>2.9105100035667419e-001</left_val>
            <right_val>-6.7930400371551514e-001</right_val></_></_>
        <_>
          <!-- tree 1 -->
          <_>
            <!-- root node -->
            <feature>
              <rects>
                <_>
                  11 3 3 6 -1.</_>
                <_>
                  11 6 3 3 2.</_></rects>
              <tilted>0</tilted></feature>
            <threshold>5.2725770510733128e-003</threshold>
            <left_val>-3.9650669693946838e-001</left_val>
            <right_val>2.0882950723171234e-001</right_val></_></_>
        <_>
          <!-- tree 2 -->
          <_>
            <!-- root node -->
            <feature>
              <rects>
                <_>
                  0 0 3 24 -1.</_>
                <_>
                  0 8 3 8 3.</_></rects>
              <tilted>0</tilted></feature>
            <threshold>5.3892221301794052e-002</threshold>
            <left_val>-2.8196561336517334e-001</left_val>
            <right_val>3.8872420787811279e-001</right_val></_></_>
        <_>
          <!-- tree 3 -->
          <_>
            <!-- root node -->
            <feature>
              <rects>
                <_>
                  12 12 2 2 -1.</_>
                <_>
                  12 12 1 2 2.</_></rects>
              <tilted>0</tilted></feature>
            <threshold>-6.8191339960321784e-004</threshold>
            <left_val>2.0456530153751373e-001</left_val>
            <right_val>-1.7394089698791504e-001</right_val></_></_>
        <_>
          <!-- tree 4 -->
          <_>
            <!-- root node -->
            <feature>
              <rects>
                <_>
                  10 12 2 2 -1.</_>
                <_>
                  11 12 1 2 2.</_></rects>
              <tilted>0</tilted></feature>
            <threshold>1.3263489818200469e-003</threshold>
            <left_val>1.2584030628204346e-001</left_val>
            <right_val>-8.5007107257843018e-001</right_val></_></_>
        <_>
          <!-- tree 5 -->
          <_>
            <!-- root node -->
            <feature>
              <rects>
                <_>
                  13 8 1 6 -1.</_>
                <_>
                  13 11 1 3 2.</_></rects>
              <tilted>0</tilted></feature>
            <threshold>5.3334911353886127e-003</threshold>
            <left_val>-7.1592010557651520e-002</left_val>
            <right_val>3.7677100300788879e-001</right_val></_></_>
        <_>
          <!-- tree 6 -->
          <_>
            <!-- root node -->
            <feature>
              <rects>
                <_>
                  10 8 1 6 -1.</_>
                <_>
                  10 11 1 3 2.</_></rects>
              <tilted>0</tilted></feature>
            <threshold>-5.1241659093648195e-004</threshold>
            <left_val>2.2831140458583832e-001</left_val>
            <right_val>-4.7505781054496765e-001</right_val></_></_>
        <_>
          <!-- tree 7 -->
          <_>
            <!-- root node -->
            <feature>
              <rects>
                <_>
                  12 9 2 6 -1.</_>
                <_>
                  12 12 2 3 2.</_></rects>
              <tilted>0</tilted></feature>
            <threshold>1.1114269727841020e-003</threshold>
            <left_val>-1.4309459924697876e-001</left_val>
            <right_val>2.3894870281219482e-001</right_val></_></_>
        <_>
          <!-- tree 8 -->
          <_>
            <!-- root node -->
            <feature>
              <rects>
                <_>
                  6 12 10 3 -1.</_>
                <_>
                  11 12 5 3 2.</_></rects>
              <tilted>0</tilted></feature>
            <threshold>-9.1294264420866966e-003</threshold>
            <left_val>-8.6768478155136108e-001</left_val>
            <right_val>1.0241200029850006e-001</right_val></_></_>
        <_>
          <!-- tree 9 -->
          <_>
            <!-- root node -->
            <feature>
              <rects>
                <_>
                  8 11 12 4 -1.</_>
                <_>
                  12 11 4 4 3.</_></rects>
              <tilted>0</tilted></feature>
            <threshold>-2.2844649851322174e-002</threshold>
            <left_val>-7.6073682308197021e-001</left_val>
            <right_val>3.5849779844284058e-002</right_val></_></_>
        <_>
          <!-- tree 10 -->
          <_>
            <!-- root node -->
            <feature>
              <rects>
                <_>
                  4 11 12 4 -1.</_>
                <_>
                  8 11 4 4 3.</_></rects>
              <tilted>0</tilted></feature>
            <threshold>7.9792095348238945e-003</threshold>
            <left_val>-7.6141571998596191e-001</left_val>
            <right_val>1.6106230020523071e-001</right_val></_></_>
        <_>
          <!-- tree 11 -->
          <_>
            <!-- root node -->
            <feature>
              <rects>
                <_>
                  12 15 4 2 -1.</_>
                <_>
                  14 15 2 1 2.</_>
                <_>
                  12 16 2 1 2.</_></rects>
              <tilted>0</tilted></feature>
            <threshold>1.0649289470165968e-003</threshold>
            <left_val>-1.5231069922447205e-001</left_val>
            <right_val>2.4146880209445953e-001</right_val></_></_>
        <_>
          <!-- tree 12 -->
          <_>
            <!-- root node -->
            <feature>
              <rects>
                <_>
                  8 15 4 2 -1.</_>
                <_>
                  8 15 2 1 2.</_>
                <_>
                  10 16 2 1 2.</_></rects>
              <tilted>0</tilted></feature>
            <threshold>-1.4678590232506394e-003</threshold>
            <left_val>4.2872551083564758e-001</left_val>
            <right_val>-2.2210299968719482e-001</right_val></_></_>
        <_>
          <!-- tree 13 -->
          <_>
            <!-- root node -->
            <feature>
              <rects>
                <_>
                  12 12 1 4 -1.</_>
                <_>
                  12 14 1 2 2.</_></rects>
              <tilted>0</tilted></feature>
            <threshold>8.4489060100167990e-004</threshold>
            <left_val>-1.0999380052089691e-001</left_val>
            <right_val>1.3759499788284302e-001</right_val></_></_>
        <_>
          <!-- tree 14 -->
          <_>
            <!-- root node -->
            <feature>
              <rects>
                <_>
                  11 12 1 4 -1.</_>
                <_>
                  11 14 1 2 2.</_></rects>
              <tilted>0</tilted></feature>
            <threshold>3.4183249226771295e-004</threshold>
            <left_val>1.4480949938297272e-001</left_val>
            <right_val>-7.2693437337875366e-001</right_val></_></_>
        <_>
          <!-- tree 15 -->
          <_>
            <!-- root node -->
            <feature>
              <rects>
                <_>
                  6 10 15 3 -1.</_>
                <_>
                  6 11 15 1 3.</_></rects>
              <tilted>0</tilted></feature>
            <threshold>-3.0887180473655462e-003</threshold>
            <left_val>2.5125899910926819e-001</left_val>
            <right_val>-2.3185840249061584e-001</right_val></_></_>
        <_>
          <!-- tree 16 -->
          <_>
            <!-- root node -->
            <feature>
              <rects>
                <_>
                  8 11 4 2 -1.</_>
                <_>
                  10 11 2 2 2.</_></rects>
              <tilted>0</tilted></feature>
            <threshold>4.7935550101101398e-003</threshold>
            <left_val>1.3236279785633087e-001</left_val>
            <right_val>-8.0876767635345459e-001</right_val></_></_>
        <_>
          <!-- tree 17 -->
          <_>
            <!-- root node -->
            <feature>
              <rects>
                <_>
                  21 10 2 3 -1.</_>
                <_>
                  21 10 1 3 2.</_></rects>
              <tilted>0</tilted></feature>
            <threshold>1.9443240016698837e-003</threshold>
            <left_val>-1.2834709882736206e-001</left_val>
            <right_val>2.1353679895401001e-001</right_val></_></_>
        <_>
          <!-- tree 18 -->
          <_>
            <!-- root node -->
            <feature>
              <rects>
                <_>
                  1 10 2 3 -1.</_>
                <_>
                  2 10 1 3 2.</_></rects>
              <tilted>0</tilted></feature>
            <threshold>-1.2162430211901665e-003</threshold>
            <left_val>3.8678869605064392e-001</left_val>
            <right_val>-2.4065279960632324e-001</right_val></_></_>
        <_>
          <!-- tree 19 -->
          <_>
            <!-- root node -->
            <feature>
              <rects>
                <_>
                  7 11 10 5 -1.</_>
                <_>
                  7 11 5 5 2.</_></rects>
              <tilted>0</tilted></feature>
            <threshold>-1.0386950336396694e-002</threshold>
            <left_val>-8.1580919027328491e-001</left_val>
            <right_val>1.2020090222358704e-001</right_val></_></_>
        <_>
          <!-- tree 20 -->
          <_>
            <!-- root node -->
            <feature>
              <rects>
                <_>
                  10 9 1 6 -1.</_>
                <_>
                  10 11 1 2 3.</_></rects>
              <tilted>0</tilted></feature>
            <threshold>-2.5743748992681503e-003</threshold>
            <left_val>-9.4542968273162842e-001</left_val>
            <right_val>7.3817126452922821e-002</right_val></_></_></trees>
      <stage_threshold>-1.7135889530181885e+000</stage_threshold>
      <parent>5</parent>
      <next>-1</next></_>
    <_>
      <!-- stage 7 -->
      <trees>
        <_>
          <!-- tree 0 -->
          <_>
            <!-- root node -->
            <feature>
              <rects>
                <_>
                  11 7 2 9 -1.</_>
                <_>
                  11 10 2 3 3.</_></rects>
              <tilted>0</tilted></feature>
            <threshold>-1.0855119675397873e-002</threshold>
            <left_val>4.2240178585052490e-001</left_val>
            <right_val>-6.6048258543014526e-001</right_val></_></_>
        <_>
          <!-- tree 1 -->
          <_>
            <!-- root node -->
            <feature>
              <rects>
                <_>
                  11 12 2 1 -1.</_>
                <_>
                  11 12 1 1 2.</_></rects>
              <tilted>0</tilted></feature>
            <threshold>1.3704260345548391e-003</threshold>
            <left_val>-4.6860858798027039e-001</left_val>
            <right_val>2.4975620210170746e-001</right_val></_></_>
        <_>
          <!-- tree 2 -->
          <_>
            <!-- root node -->
            <feature>
              <rects>
                <_>
                  5 8 6 4 -1.</_>
                <_>
                  8 8 3 4 2.</_></rects>
              <tilted>0</tilted></feature>
            <threshold>7.3198898462578654e-004</threshold>
            <left_val>-8.1190162897109985e-001</left_val>
            <right_val>1.1060380190610886e-001</right_val></_></_>
        <_>
          <!-- tree 3 -->
          <_>
            <!-- root node -->
            <feature>
              <rects>
                <_>
                  0 0 24 24 -1.</_>
                <_>
                  0 8 24 8 3.</_></rects>
              <tilted>0</tilted></feature>
            <threshold>5.3132021427154541e-001</threshold>
            <left_val>-1.8964399397373199e-001</left_val>
            <right_val>5.6139391660690308e-001</right_val></_></_>
        <_>
          <!-- tree 4 -->
          <_>
            <!-- root node -->
            <feature>
              <rects>
                <_>
                  11 12 1 3 -1.</_>
                <_>
                  11 13 1 1 3.</_></rects>
              <tilted>0</tilted></feature>
            <threshold>-1.5870550123509020e-004</threshold>
            <left_val>2.2688420116901398e-001</left_val>
            <right_val>-3.8593849539756775e-001</right_val></_></_>
        <_>
          <!-- tree 5 -->
          <_>
            <!-- root node -->
            <feature>
              <rects>
                <_>
                  12 12 1 2 -1.</_>
                <_>
                  12 13 1 1 2.</_></rects>
              <tilted>0</tilted></feature>
            <threshold>-8.3998707123100758e-004</threshold>
            <left_val>4.0096071362495422e-001</left_val>
            <right_val>-1.3368169963359833e-001</right_val></_></_>
        <_>
          <!-- tree 6 -->
          <_>
            <!-- root node -->
            <feature>
              <rects>
                <_>
                  11 12 1 2 -1.</_>
                <_>
                  11 13 1 1 2.</_></rects>
              <tilted>0</tilted></feature>
            <threshold>-1.4893519692122936e-003</threshold>
            <left_val>-7.1709549427032471e-001</left_val>
            <right_val>1.5059070289134979e-001</right_val></_></_>
        <_>
          <!-- tree 7 -->
          <_>
            <!-- root node -->
            <feature>
              <rects>
                <_>
                  20 8 3 2 -1.</_>
                <_>
                  21 8 1 2 3.</_></rects>
              <tilted>0</tilted></feature>
            <threshold>7.3401827830821276e-004</threshold>
            <left_val>-1.2226340174674988e-001</left_val>
            <right_val>1.0735829919576645e-001</right_val></_></_>
        <_>
          <!-- tree 8 -->
          <_>
            <!-- root node -->
            <feature>
              <rects>
                <_>
                  1 8 3 2 -1.</_>
                <_>
                  2 8 1 2 3.</_></rects>
              <tilted>0</tilted></feature>
            <threshold>2.9151400085538626e-003</threshold>
            <left_val>-1.6631139814853668e-001</left_val>
            <right_val>5.0962758064270020e-001</right_val></_></_>
        <_>
          <!-- tree 9 -->
          <_>
            <!-- root node -->
            <feature>
              <rects>
                <_>
                  12 7 2 8 -1.</_>
                <_>
                  12 11 2 4 2.</_></rects>
              <tilted>0</tilted></feature>
            <threshold>-2.4586629122495651e-002</threshold>
            <left_val>-9.2191898822784424e-001</left_val>
            <right_val>5.3335301578044891e-002</right_val></_></_>
        <_>
          <!-- tree 10 -->
          <_>
            <!-- root node -->
            <feature>
              <rects>
                <_>
                  9 10 2 5 -1.</_>
                <_>
                  10 10 1 5 2.</_></rects>
              <tilted>0</tilted></feature>
            <threshold>-2.9483349062502384e-003</threshold>
            <left_val>-9.5491588115692139e-001</left_val>
            <right_val>7.8086793422698975e-002</right_val></_></_>
        <_>
          <!-- tree 11 -->
          <_>
            <!-- root node -->
            <feature>
              <rects>
                <_>
                  13 12 4 3 -1.</_>
                <_>
                  13 13 4 1 3.</_></rects>
              <tilted>0</tilted></feature>
            <threshold>-1.8457189435139298e-003</threshold>
            <left_val>2.0969179272651672e-001</left_val>
            <right_val>-1.4423449337482452e-001</right_val></_></_>
        <_>
          <!-- tree 12 -->
          <_>
            <!-- root node -->
            <feature>
              <rects>
                <_>
                  7 12 9 5 -1.</_>
                <_>
                  10 12 3 5 3.</_></rects>
              <tilted>0</tilted></feature>
            <threshold>2.6939980685710907e-002</threshold>
            <left_val>1.1544580012559891e-001</left_val>
            <right_val>-8.1469249725341797e-001</right_val></_></_>
        <_>
          <!-- tree 13 -->
          <_>
            <!-- root node -->
            <feature>
              <rects>
                <_>
                  10 11 4 4 -1.</_>
                <_>
                  12 11 2 2 2.</_>
                <_>
                  10 13 2 2 2.</_></rects>
              <tilted>0</tilted></feature>
            <threshold>-2.4949989747256041e-003</threshold>
            <left_val>2.1086360514163971e-001</left_val>
            <right_val>-4.2124229669570923e-001</right_val></_></_>
        <_>
          <!-- tree 14 -->
          <_>
            <!-- root node -->
            <feature>
              <rects>
                <_>
                  1 12 21 2 -1.</_>
                <_>
                  8 12 7 2 3.</_></rects>
              <tilted>0</tilted></feature>
            <threshold>3.5089219454675913e-003</threshold>
            <left_val>-7.8006821870803833e-001</left_val>
            <right_val>1.0473539680242538e-001</right_val></_></_>
        <_>
          <!-- tree 15 -->
          <_>
            <!-- root node -->
            <feature>
              <rects>
                <_>
                  16 8 2 2 -1.</_>
                <_>
                  17 8 1 1 2.</_>
                <_>
                  16 9 1 1 2.</_></rects>
              <tilted>0</tilted></feature>
            <threshold>1.6492699505761266e-003</threshold>
            <left_val>-1.0557830333709717e-001</left_val>
            <right_val>3.6093771457672119e-001</right_val></_></_>
        <_>
          <!-- tree 16 -->
          <_>
            <!-- root node -->
            <feature>
              <rects>
                <_>
                  6 8 2 2 -1.</_>
                <_>
                  6 8 1 1 2.</_>
                <_>
                  7 9 1 1 2.</_></rects>
              <tilted>0</tilted></feature>
            <threshold>8.8842638069763780e-004</threshold>
            <left_val>-2.0275099575519562e-001</left_val>
            <right_val>4.3759518861770630e-001</right_val></_></_>
        <_>
          <!-- tree 17 -->
          <_>
            <!-- root node -->
            <feature>
              <rects>
                <_>
                  6 12 18 2 -1.</_>
                <_>
                  6 12 9 2 2.</_></rects>
              <tilted>0</tilted></feature>
            <threshold>4.3750189244747162e-002</threshold>
            <left_val>4.5140720903873444e-002</left_val>
            <right_val>-6.9792580604553223e-001</right_val></_></_>
        <_>
          <!-- tree 18 -->
          <_>
            <!-- root node -->
            <feature>
              <rects>
                <_>
                  0 12 18 2 -1.</_>
                <_>
                  9 12 9 2 2.</_></rects>
              <tilted>0</tilted></feature>
            <threshold>2.7519820258021355e-002</threshold>
            <left_val>1.2368310242891312e-001</left_val>
            <right_val>-6.9146591424942017e-001</right_val></_></_></trees>
      <stage_threshold>-1.6355669498443604e+000</stage_threshold>
      <parent>6</parent>
      <next>-1</next></_>
    <_>
      <!-- stage 8 -->
      <trees>
        <_>
          <!-- tree 0 -->
          <_>
            <!-- root node -->
            <feature>
              <rects>
                <_>
                  7 12 9 1 -1.</_>
                <_>
                  10 12 3 1 3.</_></rects>
              <tilted>0</tilted></feature>
            <threshold>-1.2277980567887425e-003</threshold>
            <left_val>9.5068961381912231e-002</left_val>
            <right_val>-6.9233638048171997e-001</right_val></_></_>
        <_>
          <!-- tree 1 -->
          <_>
            <!-- root node -->
            <feature>
              <rects>
                <_>
                  5 8 14 8 -1.</_>
                <_>
                  5 8 7 8 2.</_></rects>
              <tilted>0</tilted></feature>
            <threshold>3.1290479004383087e-002</threshold>
            <left_val>-3.9742910861968994e-001</left_val>
            <right_val>3.1897118687629700e-001</right_val></_></_>
        <_>
          <!-- tree 2 -->
          <_>
            <!-- root node -->
            <feature>
              <rects>
                <_>
                  8 12 4 1 -1.</_>
                <_>
                  10 12 2 1 2.</_></rects>
              <tilted>0</tilted></feature>
            <threshold>-6.9875607732683420e-004</threshold>
            <left_val>-7.9586321115493774e-001</left_val>
            <right_val>1.3397100567817688e-001</right_val></_></_>
        <_>
          <!-- tree 3 -->
          <_>
            <!-- root node -->
            <feature>
              <rects>
                <_>
                  12 7 1 9 -1.</_>
                <_>
                  12 10 1 3 3.</_></rects>
              <tilted>0</tilted></feature>
            <threshold>-1.0485580191016197e-002</threshold>
            <left_val>3.7093371152877808e-001</left_val>
            <right_val>-1.5291769802570343e-001</right_val></_></_>
        <_>
          <!-- tree 4 -->
          <_>
            <!-- root node -->
            <feature>
              <rects>
                <_>
                  6 6 6 12 -1.</_>
                <_>
                  9 6 3 12 2.</_></rects>
              <tilted>0</tilted></feature>
            <threshold>1.7121059820055962e-002</threshold>
            <left_val>-5.2580159902572632e-001</left_val>
            <right_val>2.0407299697399139e-001</right_val></_></_>
        <_>
          <!-- tree 5 -->
          <_>
            <!-- root node -->
            <feature>
              <rects>
                <_>
                  9 12 9 2 -1.</_>
                <_>
                  12 12 3 2 3.</_></rects>
              <tilted>0</tilted></feature>
            <threshold>-1.7519220709800720e-002</threshold>
            <left_val>-7.9440718889236450e-001</left_val>
            <right_val>6.9830857217311859e-002</right_val></_></_>
        <_>
          <!-- tree 6 -->
          <_>
            <!-- root node -->
            <feature>
              <rects>
                <_>
                  10 7 2 8 -1.</_>
                <_>
                  10 11 2 4 2.</_></rects>
              <tilted>0</tilted></feature>
            <threshold>-1.2643559835851192e-002</threshold>
            <left_val>-9.2640191316604614e-001</left_val>
            <right_val>8.3658456802368164e-002</right_val></_></_>
        <_>
          <!-- tree 7 -->
          <_>
            <!-- root node -->
            <feature>
              <rects>
                <_>
                  13 8 1 6 -1.</_>
                <_>
                  13 11 1 3 2.</_></rects>
              <tilted>0</tilted></feature>
            <threshold>-1.1661240132525563e-003</threshold>
            <left_val>1.1857610195875168e-001</left_val>
            <right_val>-1.4527000486850739e-001</right_val></_></_>
        <_>
          <!-- tree 8 -->
          <_>
            <!-- root node -->
            <feature>
              <rects>
                <_>
                  10 8 1 6 -1.</_>
                <_>
                  10 11 1 3 2.</_></rects>
              <tilted>0</tilted></feature>
            <threshold>-4.6181431389413774e-004</threshold>
            <left_val>2.1598279476165771e-001</left_val>
            <right_val>-4.7056800127029419e-001</right_val></_></_>
        <_>
          <!-- tree 9 -->
          <_>
            <!-- root node -->
            <feature>
              <rects>
                <_>
                  1 0 23 10 -1.</_>
                <_>
                  1 5 23 5 2.</_></rects>
              <tilted>0</tilted></feature>
            <threshold>6.1304718255996704e-002</threshold>
            <left_val>-3.3815890550613403e-001</left_val>
            <right_val>2.6442280411720276e-001</right_val></_></_>
        <_>
          <!-- tree 10 -->
          <_>
            <!-- root node -->
            <feature>
              <rects>
                <_>
                  1 10 9 4 -1.</_>
                <_>
                  4 10 3 4 3.</_></rects>
              <tilted>0</tilted></feature>
            <threshold>-5.0174091011285782e-003</threshold>
            <left_val>1.6994640231132507e-001</left_val>
            <right_val>-4.9032980203628540e-001</right_val></_></_>
        <_>
          <!-- tree 11 -->
          <_>
            <!-- root node -->
            <feature>
              <rects>
                <_>
                  14 7 6 6 -1.</_>
                <_>
                  14 7 3 6 2.</_></rects>
              <tilted>0</tilted></feature>
            <threshold>1.5682499855756760e-002</threshold>
            <left_val>4.7249369323253632e-002</left_val>
            <right_val>-3.8761278986930847e-001</right_val></_></_>
        <_>
          <!-- tree 12 -->
          <_>
            <!-- root node -->
            <feature>
              <rects>
                <_>
                  4 7 6 6 -1.</_>
                <_>
                  7 7 3 6 2.</_></rects>
              <tilted>0</tilted></feature>
            <threshold>3.2246410846710205e-002</threshold>
            <left_val>1.2135560065507889e-001</left_val>
            <right_val>-7.7591037750244141e-001</right_val></_></_>
        <_>
          <!-- tree 13 -->
          <_>
            <!-- root node -->
            <feature>
              <rects>
                <_>
                  6 10 18 6 -1.</_>
                <_>
                  6 10 9 6 2.</_></rects>
              <tilted>0</tilted></feature>
            <threshold>1.2109059840440750e-001</threshold>
            <left_val>1.4819890260696411e-002</left_val>
            <right_val>-8.1933552026748657e-001</right_val></_></_>
        <_>
          <!-- tree 14 -->
          <_>
            <!-- root node -->
            <feature>
              <rects>
                <_>
                  0 10 18 6 -1.</_>
                <_>
                  9 10 9 6 2.</_></rects>
              <tilted>0</tilted></feature>
            <threshold>-2.9208900406956673e-002</threshold>
            <left_val>-9.2445272207260132e-001</left_val>
            <right_val>8.4474407136440277e-002</right_val></_></_>
        <_>
          <!-- tree 15 -->
          <_>
            <!-- root node -->
            <feature>
              <rects>
                <_>
                  5 10 16 4 -1.</_>
                <_>
                  5 10 8 4 2.</_></rects>
              <tilted>0</tilted></feature>
            <threshold>-3.5906070843338966e-003</threshold>
            <left_val>-4.2394629120826721e-001</left_val>
            <right_val>1.2472060322761536e-001</right_val></_></_>
        <_>
          <!-- tree 16 -->
          <_>
            <!-- root node -->
            <feature>
              <rects>
                <_>
                  7 12 9 3 -1.</_>
                <_>
                  10 12 3 3 3.</_></rects>
              <tilted>0</tilted></feature>
            <threshold>1.9032020121812820e-002</threshold>
            <left_val>8.3808511495590210e-002</left_val>
            <right_val>-8.9257311820983887e-001</right_val></_></_>
        <_>
          <!-- tree 17 -->
          <_>
            <!-- root node -->
            <feature>
              <rects>
                <_>
                  18 13 6 2 -1.</_>
                <_>
                  21 13 3 1 2.</_>
                <_>
                  18 14 3 1 2.</_></rects>
              <tilted>0</tilted></feature>
            <threshold>-1.5499260043725371e-003</threshold>
            <left_val>2.0247060060501099e-001</left_val>
            <right_val>-1.3761129975318909e-001</right_val></_></_>
        <_>
          <!-- tree 18 -->
          <_>
            <!-- root node -->
            <feature>
              <rects>
                <_>
                  9 11 3 4 -1.</_>
                <_>
                  9 13 3 2 2.</_></rects>
              <tilted>0</tilted></feature>
            <threshold>-7.9013835638761520e-003</threshold>
            <left_val>-7.0617568492889404e-001</left_val>
            <right_val>1.0306470096111298e-001</right_val></_></_>
        <_>
          <!-- tree 19 -->
          <_>
            <!-- root node -->
            <feature>
              <rects>
                <_>
                  13 9 5 6 -1.</_>
                <_>
                  13 12 5 3 2.</_></rects>
              <tilted>0</tilted></feature>
            <threshold>-3.2188929617404938e-002</threshold>
            <left_val>5.2574330568313599e-001</left_val>
            <right_val>-2.9400480911135674e-002</right_val></_></_></trees>
      <stage_threshold>-1.5302289724349976e+000</stage_threshold>
      <parent>7</parent>
      <next>-1</next></_>
    <_>
      <!-- stage 9 -->
      <trees>
        <_>
          <!-- tree 0 -->
          <_>
            <!-- root node -->
            <feature>
              <rects>
                <_>
                  10 9 4 5 -1.</_>
                <_>
                  12 9 2 5 2.</_></rects>
              <tilted>0</tilted></feature>
            <threshold>-1.2354100123047829e-002</threshold>
            <left_val>1.2739759683609009e-001</left_val>
            <right_val>-7.1808147430419922e-001</right_val></_></_>
        <_>
          <!-- tree 1 -->
          <_>
            <!-- root node -->
            <feature>
              <rects>
                <_>
                  14 12 6 8 -1.</_>
                <_>
                  14 16 6 4 2.</_></rects>
              <tilted>0</tilted></feature>
            <threshold>-1.6494939103722572e-002</threshold>
            <left_val>7.2732977569103241e-002</left_val>
            <right_val>-2.5727701187133789e-001</right_val></_></_>
        <_>
          <!-- tree 2 -->
          <_>
            <!-- root node -->
            <feature>
              <rects>
                <_>
                  4 10 10 8 -1.</_>
                <_>
                  4 10 5 4 2.</_>
                <_>
                  9 14 5 4 2.</_></rects>
              <tilted>0</tilted></feature>
            <threshold>1.9095940515398979e-003</threshold>
            <left_val>-3.4620100259780884e-001</left_val>
            <right_val>2.7781328558921814e-001</right_val></_></_>
        <_>
          <!-- tree 3 -->
          <_>
            <!-- root node -->
            <feature>
              <rects>
                <_>
                  13 10 1 4 -1.</_>
                <_>
                  13 12 1 2 2.</_></rects>
              <tilted>0</tilted></feature>
            <threshold>1.0623589623719454e-003</threshold>
            <left_val>-1.1069879680871964e-001</left_val>
            <right_val>1.3242240250110626e-001</right_val></_></_>
        <_>
          <!-- tree 4 -->
          <_>
            <!-- root node -->
            <feature>
              <rects>
                <_>
                  6 12 6 1 -1.</_>
                <_>
                  9 12 3 1 2.</_></rects>
              <tilted>0</tilted></feature>
            <threshold>1.6148880604305305e-005</threshold>
            <left_val>-7.8640097379684448e-001</left_val>
            <right_val>1.4869229495525360e-001</right_val></_></_>
        <_>
          <!-- tree 5 -->
          <_>
            <!-- root node -->
            <feature>
              <rects>
                <_>
                  12 9 7 6 -1.</_>
                <_>
                  12 12 7 3 2.</_></rects>
              <tilted>0</tilted></feature>
            <threshold>6.7798299714922905e-003</threshold>
            <left_val>-2.3151600360870361e-001</left_val>
            <right_val>1.4435769617557526e-001</right_val></_></_>
        <_>
          <!-- tree 6 -->
          <_>
            <!-- root node -->
            <feature>
              <rects>
                <_>
                  10 13 2 1 -1.</_>
                <_>
                  11 13 1 1 2.</_></rects>
              <tilted>0</tilted></feature>
            <threshold>6.2842410989105701e-004</threshold>
            <left_val>1.3618710637092590e-001</left_val>
            <right_val>-8.2215601205825806e-001</right_val></_></_>
        <_>
          <!-- tree 7 -->
          <_>
            <!-- root node -->
            <feature>
              <rects>
                <_>
                  15 9 1 3 -1.</_>
                <_>
                  15 10 1 1 3.</_></rects>
              <tilted>0</tilted></feature>
            <threshold>-1.2536869617179036e-003</threshold>
            <left_val>2.9441219568252563e-001</left_val>
            <right_val>-1.8507060408592224e-001</right_val></_></_>
        <_>
          <!-- tree 8 -->
          <_>
            <!-- root node -->
            <feature>
              <rects>
                <_>
                  6 9 2 2 -1.</_>
                <_>
                  6 9 1 1 2.</_>
                <_>
                  7 10 1 1 2.</_></rects>
              <tilted>0</tilted></feature>
            <threshold>1.0115270270034671e-003</threshold>
            <left_val>-1.7128120362758636e-001</left_val>
            <right_val>4.7632259130477905e-001</right_val></_></_>
        <_>
          <!-- tree 9 -->
          <_>
            <!-- root node -->
            <feature>
              <rects>
                <_>
                  12 12 1 4 -1.</_>
                <_>
                  12 14 1 2 2.</_></rects>
              <tilted>0</tilted></feature>
            <threshold>2.0188500639051199e-003</threshold>
            <left_val>-1.1094219982624054e-001</left_val>
            <right_val>1.4678239822387695e-001</right_val></_></_>
        <_>
          <!-- tree 10 -->
          <_>
            <!-- root node -->
            <feature>
              <rects>
                <_>
                  11 12 1 4 -1.</_>
                <_>
                  11 14 1 2 2.</_></rects>
              <tilted>0</tilted></feature>
            <threshold>4.0087039815261960e-004</threshold>
            <left_val>1.1371950060129166e-001</left_val>
            <right_val>-8.0120217800140381e-001</right_val></_></_>
        <_>
          <!-- tree 11 -->
          <_>
            <!-- root node -->
            <feature>
              <rects>
                <_>
                  8 14 9 3 -1.</_>
                <_>
                  11 14 3 3 3.</_></rects>
              <tilted>0</tilted></feature>
            <threshold>-9.0430360287427902e-003</threshold>
            <left_val>-5.7754570245742798e-001</left_val>
            <right_val>5.8483880013227463e-002</right_val></_></_>
        <_>
          <!-- tree 12 -->
          <_>
            <!-- root node -->
            <feature>
              <rects>
                <_>
                  11 11 2 2 -1.</_>
                <_>
                  12 11 1 2 2.</_></rects>
              <tilted>0</tilted></feature>
            <threshold>1.4975339872762561e-003</threshold>
            <left_val>-1.0322409868240356e-001</left_val>
            <right_val>8.6113142967224121e-001</right_val></_></_>
        <_>
          <!-- tree 13 -->
          <_>
            <!-- root node -->
            <feature>
              <rects>
                <_>
                  13 10 1 4 -1.</_>
                <_>
                  13 12 1 2 2.</_></rects>
              <tilted>0</tilted></feature>
            <threshold>8.3475001156330109e-003</threshold>
            <left_val>5.6926120072603226e-002</left_val>
            <right_val>-7.3047691583633423e-001</right_val></_></_>
        <_>
          <!-- tree 14 -->
          <_>
            <!-- root node -->
            <feature>
              <rects>
                <_>
                  6 7 3 3 -1.</_>
                <_>
                  6 8 3 1 3.</_></rects>
              <tilted>0</tilted></feature>
            <threshold>-4.4557168148458004e-003</threshold>
            <left_val>5.4048687219619751e-001</left_val>
            <right_val>-1.5335319936275482e-001</right_val></_></_>
        <_>
          <!-- tree 15 -->
          <_>
            <!-- root node -->
            <feature>
              <rects>
                <_>
                  12 9 1 2 -1.</_>
                <_>
                  12 10 1 1 2.</_></rects>
              <tilted>0</tilted></feature>
            <threshold>-3.9258389733731747e-003</threshold>
            <left_val>6.0386347770690918e-001</left_val>
            <right_val>-2.7861449867486954e-002</right_val></_></_>
        <_>
          <!-- tree 16 -->
          <_>
            <!-- root node -->
            <feature>
              <rects>
                <_>
                  11 7 1 9 -1.</_>
                <_>
                  11 10 1 3 3.</_></rects>
              <tilted>0</tilted></feature>
            <threshold>3.8326850626617670e-003</threshold>
            <left_val>1.7789399623870850e-001</left_val>
            <right_val>-4.4876280426979065e-001</right_val></_></_>
        <_>
          <!-- tree 17 -->
          <_>
            <!-- root node -->
            <feature>
              <rects>
                <_>
                  9 2 7 15 -1.</_>
                <_>
                  9 7 7 5 3.</_></rects>
              <tilted>0</tilted></feature>
            <threshold>6.2291170470416546e-003</threshold>
            <left_val>-4.7915700078010559e-001</left_val>
            <right_val>1.5729349851608276e-001</right_val></_></_>
        <_>
          <!-- tree 18 -->
          <_>
            <!-- root node -->
            <feature>
              <rects>
                <_>
                  4 5 14 4 -1.</_>
                <_>
                  4 5 7 2 2.</_>
                <_>
                  11 7 7 2 2.</_></rects>
              <tilted>0</tilted></feature>
            <threshold>-3.3632110804319382e-002</threshold>
            <left_val>7.1461492776870728e-001</left_val>
            <right_val>-1.1860830336809158e-001</right_val></_></_>
        <_>
          <!-- tree 19 -->
          <_>
            <!-- root node -->
            <feature>
              <rects>
                <_>
                  17 12 6 6 -1.</_>
                <_>
                  19 12 2 6 3.</_></rects>
              <tilted>0</tilted></feature>
            <threshold>1.2061200104653835e-002</threshold>
            <left_val>-4.1507508605718613e-002</left_val>
            <right_val>2.5478181242942810e-001</right_val></_></_>
        <_>
          <!-- tree 20 -->
          <_>
            <!-- root node -->
            <feature>
              <rects>
                <_>
                  1 12 6 6 -1.</_>
                <_>
                  3 12 2 6 3.</_></rects>
              <tilted>0</tilted></feature>
            <threshold>-1.5499029541388154e-003</threshold>
            <left_val>2.7773371338844299e-001</left_val>
            <right_val>-3.0674239993095398e-001</right_val></_></_>
        <_>
          <!-- tree 21 -->
          <_>
            <!-- root node -->
            <feature>
              <rects>
                <_>
                  13 8 1 4 -1.</_>
                <_>
                  13 10 1 2 2.</_></rects>
              <tilted>0</tilted></feature>
            <threshold>1.5270600561052561e-003</threshold>
            <left_val>-1.2060649693012238e-001</left_val>
            <right_val>3.3787950873374939e-001</right_val></_></_>
        <_>
          <!-- tree 22 -->
          <_>
            <!-- root node -->
            <feature>
              <rects>
                <_>
                  9 8 4 2 -1.</_>
                <_>
                  11 8 2 2 2.</_></rects>
              <tilted>0</tilted></feature>
            <threshold>2.3033989127725363e-003</threshold>
            <left_val>-1.8441070616245270e-001</left_val>
            <right_val>4.4437658786773682e-001</right_val></_></_>
        <_>
          <!-- tree 23 -->
          <_>
            <!-- root node -->
            <feature>
              <rects>
                <_>
                  8 12 15 2 -1.</_>
                <_>
                  13 12 5 2 3.</_></rects>
              <tilted>0</tilted></feature>
            <threshold>-1.6751509159803391e-002</threshold>
            <left_val>-5.7029408216476440e-001</left_val>
            <right_val>7.7434778213500977e-002</right_val></_></_>
        <_>
          <!-- tree 24 -->
          <_>
            <!-- root node -->
            <feature>
              <rects>
                <_>
                  2 14 16 1 -1.</_>
                <_>
                  10 14 8 1 2.</_></rects>
              <tilted>0</tilted></feature>
            <threshold>9.9806515499949455e-003</threshold>
            <left_val>1.5365280210971832e-001</left_val>
            <right_val>-4.7095599770545959e-001</right_val></_></_></trees>
      <stage_threshold>-1.5859420299530029e+000</stage_threshold>
      <parent>8</parent>
      <next>-1</next></_>
    <_>
      <!-- stage 10 -->
      <trees>
        <_>
          <!-- tree 0 -->
          <_>
            <!-- root node -->
            <feature>
              <rects>
                <_>
                  10 12 3 1 -1.</_>
                <_>
                  11 12 1 1 3.</_></rects>
              <tilted>0</tilted></feature>
            <threshold>2.9116549994796515e-003</threshold>
            <left_val>-7.2144997119903564e-001</left_val>
            <right_val>1.1149899661540985e-001</right_val></_></_>
        <_>
          <!-- tree 1 -->
          <_>
            <!-- root node -->
            <feature>
              <rects>
                <_>
                  6 13 12 8 -1.</_>
                <_>
                  6 17 12 4 2.</_></rects>
              <tilted>0</tilted></feature>
            <threshold>-5.9540580958127975e-002</threshold>
            <left_val>3.1034100055694580e-001</left_val>
            <right_val>-3.9820489287376404e-001</right_val></_></_>
        <_>
          <!-- tree 2 -->
          <_>
            <!-- root node -->
            <feature>
              <rects>
                <_>
                  3 6 9 9 -1.</_>
                <_>
                  6 6 3 9 3.</_></rects>
              <tilted>0</tilted></feature>
            <threshold>1.0056500323116779e-002</threshold>
            <left_val>1.3273939490318298e-001</left_val>
            <right_val>-6.4586371183395386e-001</right_val></_></_>
        <_>
          <!-- tree 3 -->
          <_>
            <!-- root node -->
            <feature>
              <rects>
                <_>
                  7 8 10 10 -1.</_>
                <_>
                  12 8 5 5 2.</_>
                <_>
                  7 13 5 5 2.</_></rects>
              <tilted>0</tilted></feature>
            <threshold>-1.7330339178442955e-002</threshold>
            <left_val>2.8818219900131226e-001</left_val>
            <right_val>-3.3461570739746094e-001</right_val></_></_>
        <_>
          <!-- tree 4 -->
          <_>
            <!-- root node -->
            <feature>
              <rects>
                <_>
                  0 1 2 14 -1.</_>
                <_>
                  0 8 2 7 2.</_></rects>
              <tilted>0</tilted></feature>
            <threshold>1.8710190430283546e-002</threshold>
            <left_val>-2.3932729661464691e-001</left_val>
            <right_val>3.4226611256599426e-001</right_val></_></_>
        <_>
          <!-- tree 5 -->
          <_>
            <!-- root node -->
            <feature>
              <rects>
                <_>
                  12 12 2 2 -1.</_>
                <_>
                  12 12 1 2 2.</_></rects>
              <tilted>0</tilted></feature>
            <threshold>2.4080539587885141e-003</threshold>
            <left_val>-4.5138441026210785e-002</left_val>
            <right_val>3.6151328682899475e-001</right_val></_></_>
        <_>
          <!-- tree 6 -->
          <_>
            <!-- root node -->
            <feature>
              <rects>
                <_>
                  10 12 2 2 -1.</_>
                <_>
                  11 12 1 2 2.</_></rects>
              <tilted>0</tilted></feature>
            <threshold>1.3849999522790313e-003</threshold>
            <left_val>9.4721056520938873e-002</left_val>
            <right_val>-8.8733828067779541e-001</right_val></_></_>
        <_>
          <!-- tree 7 -->
          <_>
            <!-- root node -->
            <feature>
              <rects>
                <_>
                  12 7 1 6 -1.</_>
                <_>
                  12 10 1 3 2.</_></rects>
              <tilted>0</tilted></feature>
            <threshold>-1.0154670104384422e-002</threshold>
            <left_val>3.6215010285377502e-001</left_val>
            <right_val>-6.9845587015151978e-002</right_val></_></_>
        <_>
          <!-- tree 8 -->
          <_>
            <!-- root node -->
            <feature>
              <rects>
                <_>
                  7 13 6 2 -1.</_>
                <_>
                  9 13 2 2 3.</_></rects>
              <tilted>0</tilted></feature>
            <threshold>8.1034041941165924e-003</threshold>
            <left_val>1.0173880308866501e-001</left_val>
            <right_val>-6.8448930978775024e-001</right_val></_></_>
        <_>
          <!-- tree 9 -->
          <_>
            <!-- root node -->
            <feature>
              <rects>
                <_>
                  10 16 5 2 -1.</_>
                <_>
                  10 17 5 1 2.</_></rects>
              <tilted>0</tilted></feature>
            <threshold>1.5518450527451932e-004</threshold>
            <left_val>-2.0808120071887970e-001</left_val>
            <right_val>3.3498850464820862e-001</right_val></_></_>
        <_>
          <!-- tree 10 -->
          <_>
            <!-- root node -->
            <feature>
              <rects>
                <_>
                  11 7 1 6 -1.</_>
                <_>
                  11 10 1 3 2.</_></rects>
              <tilted>0</tilted></feature>
            <threshold>-1.9619970407802612e-004</threshold>
            <left_val>2.3603700101375580e-001</left_val>
            <right_val>-3.6098611354827881e-001</right_val></_></_>
        <_>
          <!-- tree 11 -->
          <_>
            <!-- root node -->
            <feature>
              <rects>
                <_>
                  14 12 4 3 -1.</_>
                <_>
                  14 13 4 1 3.</_></rects>
              <tilted>0</tilted></feature>
            <threshold>-1.5393319772556424e-003</threshold>
            <left_val>1.8074730038642883e-001</left_val>
            <right_val>-1.4638270437717438e-001</right_val></_></_>
        <_>
          <!-- tree 12 -->
          <_>
            <!-- root node -->
            <feature>
              <rects>
                <_>
                  5 3 12 4 -1.</_>
                <_>
                  9 3 4 4 3.</_></rects>
              <tilted>0</tilted></feature>
            <threshold>2.1105090156197548e-002</threshold>
            <left_val>1.7662709951400757e-001</left_val>
            <right_val>-4.5224758982658386e-001</right_val></_></_>
        <_>
          <!-- tree 13 -->
          <_>
            <!-- root node -->
            <feature>
              <rects>
                <_>
                  13 10 5 6 -1.</_>
                <_>
                  13 13 5 3 2.</_></rects>
              <tilted>0</tilted></feature>
            <threshold>-4.9782032147049904e-003</threshold>
            <left_val>-2.0049330592155457e-001</left_val>
            <right_val>6.1606589704751968e-002</right_val></_></_>
        <_>
          <!-- tree 14 -->
          <_>
            <!-- root node -->
            <feature>
              <rects>
                <_>
                  6 11 10 6 -1.</_>
                <_>
                  6 14 10 3 2.</_></rects>
              <tilted>0</tilted></feature>
            <threshold>3.2400460913777351e-003</threshold>
            <left_val>1.3169559836387634e-001</left_val>
            <right_val>-6.3807660341262817e-001</right_val></_></_>
        <_>
          <!-- tree 15 -->
          <_>
            <!-- root node -->
            <feature>
              <rects>
                <_>
                  12 12 4 2 -1.</_>
                <_>
                  14 12 2 1 2.</_>
                <_>
                  12 13 2 1 2.</_></rects>
              <tilted>0</tilted></feature>
            <threshold>1.6509819542989135e-003</threshold>
            <left_val>-1.2081559747457504e-001</left_val>
            <right_val>1.4716510474681854e-001</right_val></_></_>
        <_>
          <!-- tree 16 -->
          <_>
            <!-- root node -->
            <feature>
              <rects>
                <_>
                  8 12 4 2 -1.</_>
                <_>
                  8 12 2 1 2.</_>
                <_>
                  10 13 2 1 2.</_></rects>
              <tilted>0</tilted></feature>
            <threshold>-5.2959221648052335e-004</threshold>
            <left_val>2.7205240726470947e-001</left_val>
            <right_val>-2.6460680365562439e-001</right_val></_></_>
        <_>
          <!-- tree 17 -->
          <_>
            <!-- root node -->
            <feature>
              <rects>
                <_>
                  9 13 9 4 -1.</_>
                <_>
                  12 13 3 4 3.</_></rects>
              <tilted>0</tilted></feature>
            <threshold>2.7587760239839554e-002</threshold>
            <left_val>4.4513791799545288e-002</left_val>
            <right_val>-6.5026432275772095e-001</right_val></_></_>
        <_>
          <!-- tree 18 -->
          <_>
            <!-- root node -->
            <feature>
              <rects>
                <_>
                  10 9 1 6 -1.</_>
                <_>
                  10 11 1 2 3.</_></rects>
              <tilted>0</tilted></feature>
            <threshold>3.3697430044412613e-003</threshold>
            <left_val>9.4232797622680664e-002</left_val>
            <right_val>-7.3575681447982788e-001</right_val></_></_>
        <_>
          <!-- tree 19 -->
          <_>
            <!-- root node -->
            <feature>
              <rects>
                <_>
                  12 8 7 6 -1.</_>
                <_>
                  12 11 7 3 2.</_></rects>
              <tilted>0</tilted></feature>
            <threshold>2.0765280351042747e-002</threshold>
            <left_val>-8.2971133291721344e-002</left_val>
            <right_val>2.5708520412445068e-001</right_val></_></_>
        <_>
          <!-- tree 20 -->
          <_>
            <!-- root node -->
            <feature>
              <rects>
                <_>
                  5 8 7 6 -1.</_>
                <_>
                  5 11 7 3 2.</_></rects>
              <tilted>0</tilted></feature>
            <threshold>-1.7692379653453827e-002</threshold>
            <left_val>-6.5690267086029053e-001</left_val>
            <right_val>1.0978530347347260e-001</right_val></_></_>
        <_>
          <!-- tree 21 -->
          <_>
            <!-- root node -->
            <feature>
              <rects>
                <_>
                  15 10 1 2 -1.</_>
                <_>
                  15 11 1 1 2.</_></rects>
              <tilted>0</tilted></feature>
            <threshold>-3.9362520328722894e-004</threshold>
            <left_val>2.1813459694385529e-001</left_val>
            <right_val>-1.1547320336103439e-001</right_val></_></_>
        <_>
          <!-- tree 22 -->
          <_>
            <!-- root node -->
            <feature>
              <rects>
                <_>
                  8 10 1 2 -1.</_>
                <_>
                  8 11 1 1 2.</_></rects>
              <tilted>0</tilted></feature>
            <threshold>-3.7091199192218482e-004</threshold>
            <left_val>3.5798808932304382e-001</left_val>
            <right_val>-2.3030400276184082e-001</right_val></_></_></trees>
      <stage_threshold>-1.5006010532379150e+000</stage_threshold>
      <parent>9</parent>
      <next>-1</next></_>
    <_>
      <!-- stage 11 -->
      <trees>
        <_>
          <!-- tree 0 -->
          <_>
            <!-- root node -->
            <feature>
              <rects>
                <_>
                  11 11 2 2 -1.</_>
                <_>
                  12 11 1 2 2.</_></rects>
              <tilted>0</tilted></feature>
            <threshold>-7.1291951462626457e-003</threshold>
            <left_val>2.3936130106449127e-001</left_val>
            <right_val>-6.0169988870620728e-001</right_val></_></_>
        <_>
          <!-- tree 1 -->
          <_>
            <!-- root node -->
            <feature>
              <rects>
                <_>
                  8 8 8 4 -1.</_>
                <_>
                  12 8 4 2 2.</_>
                <_>
                  8 10 4 2 2.</_></rects>
              <tilted>0</tilted></feature>
            <threshold>-1.2788940221071243e-002</threshold>
            <left_val>6.2809878587722778e-001</left_val>
            <right_val>-2.2130089998245239e-001</right_val></_></_>
        <_>
          <!-- tree 2 -->
          <_>
            <!-- root node -->
            <feature>
              <rects>
                <_>
                  8 10 6 6 -1.</_>
                <_>
                  8 10 3 3 2.</_>
                <_>
                  11 13 3 3 2.</_></rects>
              <tilted>0</tilted></feature>
            <threshold>4.4212150387465954e-003</threshold>
            <left_val>-3.9996311068534851e-001</left_val>
            <right_val>2.1929720044136047e-001</right_val></_></_>
        <_>
          <!-- tree 3 -->
          <_>
            <!-- root node -->
            <feature>
              <rects>
                <_>
                  14 9 9 5 -1.</_>
                <_>
                  17 9 3 5 3.</_></rects>
              <tilted>0</tilted></feature>
            <threshold>-9.1777183115482330e-003</threshold>
            <left_val>2.4385979771614075e-001</left_val>
            <right_val>-1.4318279922008514e-001</right_val></_></_>
        <_>
          <!-- tree 4 -->
          <_>
            <!-- root node -->
            <feature>
              <rects>
                <_>
                  1 9 9 5 -1.</_>
                <_>
                  4 9 3 5 3.</_></rects>
              <tilted>0</tilted></feature>
            <threshold>-5.2990987896919250e-003</threshold>
            <left_val>1.6303150355815887e-001</left_val>
            <right_val>-5.4404002428054810e-001</right_val></_></_>
        <_>
          <!-- tree 5 -->
          <_>
            <!-- root node -->
            <feature>
              <rects>
                <_>
                  15 6 8 7 -1.</_>
                <_>
                  15 6 4 7 2.</_></rects>
              <tilted>0</tilted></feature>
            <threshold>3.0503520742058754e-002</threshold>
            <left_val>7.4982136487960815e-002</left_val>
            <right_val>-4.0007218718528748e-001</right_val></_></_>
        <_>
          <!-- tree 6 -->
          <_>
            <!-- root node -->
            <feature>
              <rects>
                <_>
                  0 10 24 5 -1.</_>
                <_>
                  8 10 8 5 3.</_></rects>
              <tilted>0</tilted></feature>
            <threshold>1.1089510284364223e-002</threshold>
            <left_val>-7.1220302581787109e-001</left_val>
            <right_val>1.4291989803314209e-001</right_val></_></_>
        <_>
          <!-- tree 7 -->
          <_>
            <!-- root node -->
            <feature>
              <rects>
                <_>
                  11 7 12 6 -1.</_>
                <_>
                  15 7 4 6 3.</_></rects>
              <tilted>0</tilted></feature>
            <threshold>-1.2260279804468155e-001</threshold>
            <left_val>-7.4611628055572510e-001</left_val>
            <right_val>-3.0308179557323456e-002</right_val></_></_>
        <_>
          <!-- tree 8 -->
          <_>
            <!-- root node -->
            <feature>
              <rects>
                <_>
                  1 7 12 6 -1.</_>
                <_>
                  5 7 4 6 3.</_></rects>
              <tilted>0</tilted></feature>
            <threshold>-5.8007720857858658e-002</threshold>
            <left_val>-7.3262220621109009e-001</left_val>
            <right_val>1.1170239746570587e-001</right_val></_></_>
        <_>
          <!-- tree 9 -->
          <_>
            <!-- root node -->
            <feature>
              <rects>
                <_>
                  4 7 16 8 -1.</_>
                <_>
                  12 7 8 4 2.</_>
                <_>
                  4 11 8 4 2.</_></rects>
              <tilted>0</tilted></feature>
            <threshold>-4.3789859861135483e-002</threshold>
            <left_val>-6.2557077407836914e-001</left_val>
            <right_val>1.1469289660453796e-001</right_val></_></_>
        <_>
          <!-- tree 10 -->
          <_>
            <!-- root node -->
            <feature>
              <rects>
                <_>
                  0 0 24 12 -1.</_>
                <_>
                  0 6 24 6 2.</_></rects>
              <tilted>0</tilted></feature>
            <threshold>1.6365520656108856e-001</threshold>
            <left_val>-2.2553589940071106e-001</left_val>
            <right_val>3.5935088992118835e-001</right_val></_></_>
        <_>
          <!-- tree 11 -->
          <_>
            <!-- root node -->
            <feature>
              <rects>
                <_>
                  13 10 1 4 -1.</_>
                <_>
                  13 12 1 2 2.</_></rects>
              <tilted>0</tilted></feature>
            <threshold>-2.3456579074263573e-003</threshold>
            <left_val>2.3348119854927063e-001</left_val>
            <right_val>-3.4754969179630280e-002</right_val></_></_>
        <_>
          <!-- tree 12 -->
          <_>
            <!-- root node -->
            <feature>
              <rects>
                <_>
                  10 10 1 4 -1.</_>
                <_>
                  10 12 1 2 2.</_></rects>
              <tilted>0</tilted></feature>
            <threshold>6.5320241264998913e-004</threshold>
            <left_val>8.9260168373584747e-002</left_val>
            <right_val>-9.4621717929840088e-001</right_val></_></_>
        <_>
          <!-- tree 13 -->
          <_>
            <!-- root node -->
            <feature>
              <rects>
                <_>
                  13 9 1 4 -1.</_>
                <_>
                  13 11 1 2 2.</_></rects>
              <tilted>0</tilted></feature>
            <threshold>5.2199698984622955e-003</threshold>
            <left_val>-7.5811758637428284e-002</left_val>
            <right_val>3.4352439641952515e-001</right_val></_></_>
        <_>
          <!-- tree 14 -->
          <_>
            <!-- root node -->
            <feature>
              <rects>
                <_>
                  10 12 2 1 -1.</_>
                <_>
                  11 12 1 1 2.</_></rects>
              <tilted>0</tilted></feature>
            <threshold>-6.8149529397487640e-004</threshold>
            <left_val>-9.4675421714782715e-001</left_val>
            <right_val>7.2615511715412140e-002</right_val></_></_>
        <_>
          <!-- tree 15 -->
          <_>
            <!-- root node -->
            <feature>
              <rects>
                <_>
                  13 9 1 4 -1.</_>
                <_>
                  13 11 1 2 2.</_></rects>
              <tilted>0</tilted></feature>
            <threshold>-6.2451290432363749e-004</threshold>
            <left_val>1.1584249883890152e-001</left_val>
            <right_val>-1.3615900278091431e-001</right_val></_></_>
        <_>
          <!-- tree 16 -->
          <_>
            <!-- root node -->
            <feature>
              <rects>
                <_>
                  10 9 1 4 -1.</_>
                <_>
                  10 11 1 2 2.</_></rects>
              <tilted>0</tilted></feature>
            <threshold>-2.6989351026713848e-003</threshold>
            <left_val>-8.9035987854003906e-001</left_val>
            <right_val>1.0063140094280243e-001</right_val></_></_>
        <_>
          <!-- tree 17 -->
          <_>
            <!-- root node -->
            <feature>
              <rects>
                <_>
                  13 8 1 4 -1.</_>
                <_>
                  13 10 1 2 2.</_></rects>
              <tilted>0</tilted></feature>
            <threshold>-4.8101628199219704e-003</threshold>
            <left_val>3.4706321358680725e-001</left_val>
            <right_val>-8.8604278862476349e-002</right_val></_></_>
        <_>
          <!-- tree 18 -->
          <_>
            <!-- root node -->
            <feature>
              <rects>
                <_>
                  7 7 4 6 -1.</_>
                <_>
                  9 7 2 6 2.</_></rects>
              <tilted>0</tilted></feature>
            <threshold>4.1441870853304863e-003</threshold>
            <left_val>-4.7550949454307556e-001</left_val>
            <right_val>1.6980250179767609e-001</right_val></_></_>
        <_>
          <!-- tree 19 -->
          <_>
            <!-- root node -->
            <feature>
              <rects>
                <_>
                  20 12 2 4 -1.</_>
                <_>
                  21 12 1 2 2.</_>
                <_>
                  20 14 1 2 2.</_></rects>
              <tilted>0</tilted></feature>
            <threshold>-8.0881727626547217e-004</threshold>
            <left_val>1.9523429870605469e-001</left_val>
            <right_val>-1.3489350676536560e-001</right_val></_></_>
        <_>
          <!-- tree 20 -->
          <_>
            <!-- root node -->
            <feature>
              <rects>
                <_>
                  0 12 2 2 -1.</_>
                <_>
                  0 12 1 1 2.</_>
                <_>
                  1 13 1 1 2.</_></rects>
              <tilted>0</tilted></feature>
            <threshold>-2.9026390984654427e-003</threshold>
            <left_val>6.2433052062988281e-001</left_val>
            <right_val>-1.0938639938831329e-001</right_val></_></_>
        <_>
          <!-- tree 21 -->
          <_>
            <!-- root node -->
            <feature>
              <rects>
                <_>
                  12 16 1 3 -1.</_>
                <_>
                  12 17 1 1 3.</_></rects>
              <tilted>0</tilted></feature>
            <threshold>1.9855499267578125e-003</threshold>
            <left_val>-6.7861743271350861e-002</left_val>
            <right_val>3.1546419858932495e-001</right_val></_></_>
        <_>
          <!-- tree 22 -->
          <_>
            <!-- root node -->
            <feature>
              <rects>
                <_>
                  11 12 1 2 -1.</_>
                <_>
                  11 13 1 1 2.</_></rects>
              <tilted>0</tilted></feature>
            <threshold>-1.4604360330849886e-003</threshold>
            <left_val>-6.7241817712783813e-001</left_val>
            <right_val>1.0156460106372833e-001</right_val></_></_>
        <_>
          <!-- tree 23 -->
          <_>
            <!-- root node -->
            <feature>
              <rects>
                <_>
                  12 15 1 6 -1.</_>
                <_>
                  12 17 1 2 3.</_></rects>
              <tilted>0</tilted></feature>
            <threshold>5.9271748177707195e-003</threshold>
            <left_val>-1.1761359870433807e-001</left_val>
            <right_val>5.2124887704849243e-001</right_val></_></_></trees>
      <stage_threshold>-1.5041420459747314e+000</stage_threshold>
      <parent>10</parent>
      <next>-1</next></_>
    <_>
      <!-- stage 12 -->
      <trees>
        <_>
          <!-- tree 0 -->
          <_>
            <!-- root node -->
            <feature>
              <rects>
                <_>
                  9 12 6 1 -1.</_>
                <_>
                  11 12 2 1 3.</_></rects>
              <tilted>0</tilted></feature>
            <threshold>-2.6495479978621006e-003</threshold>
            <left_val>2.3147730156779289e-002</left_val>
            <right_val>-7.1288800239562988e-001</right_val></_></_>
        <_>
          <!-- tree 1 -->
          <_>
            <!-- root node -->
            <feature>
              <rects>
                <_>
                  7 8 10 3 -1.</_>
                <_>
                  7 8 5 3 2.</_></rects>
              <tilted>0</tilted></feature>
