<?xml version="1.0"?>
<opencv_storage>
<cascade type_id="opencv-haar-classifier">
  <size>
    24 24</size>
  <stages>
    <_>
      <!-- stage 0 -->
      <trees>
        <_>
          <!-- tree 0 -->
          <_>
            <!-- root node -->
            <feature>
              <rects>
                <_>
                  11 11 2 2 -1.</_>
                <_>
                  12 11 1 2 2.</_></rects>
              <tilted>0</tilted></feature>
            <threshold>-1.5111709944903851e-003</threshold>
            <left_val>4.8062631487846375e-001</left_val>
            <right_val>-9.4191610813140869e-001</right_val></_></_>
        <_>
          <!-- tree 1 -->
          <_>
            <!-- root node -->
            <feature>
              <rects>
                <_>
                  12 0 10 24 -1.</_>
                <_>
                  12 8 10 8 3.</_></rects>
              <tilted>0</tilted></feature>
            <threshold>1.3793450593948364e-001</threshold>
            <left_val>-6.7513591051101685e-001</left_val>
            <right_val>4.1363969445228577e-001</right_val></_></_>
        <_>
          <!-- tree 2 -->
          <_>
            <!-- root node -->
            <feature>
              <rects>
                <_>
                  6 9 12 4 -1.</_>
                <_>
                  12 9 6 4 2.</_></rects>
              <tilted>0</tilted></feature>
            <threshold>-2.4706359952688217e-002</threshold>
            <left_val>5.6418830156326294e-001</left_val>
            <right_val>-9.5101577043533325e-001</right_val></_></_></trees>
      <stage_threshold>-1.0528639554977417e+000</stage_threshold>
      <parent>-1</parent>
      <next>-1</next></_>
    <_>
      <!-- stage 1 -->
      <trees>
        <_>
          <!-- tree 0 -->
          <_>
            <!-- root node -->
            <feature>
              <rects>
                <_>
                  0 0 24 24 -1.</_>
                <_>
                  0 8 24 8 3.</_></rects>
              <tilted>0</tilted></feature>
            <threshold>4.4599029421806335e-001</threshold>
            <left_val>-8.0911707878112793e-001</left_val>
            <right_val>6.8080908060073853e-001</right_val></_></_>
        <_>
          <!-- tree 1 -->
          <_>
            <!-- root node -->
            <feature>
              <rects>
                <_>
                  11 11 3 2 -1.</_>
                <_>
                  12 11 1 2 3.</_></rects>
              <tilted>0</tilted></feature>
            <threshold>-2.0576380193233490e-003</threshold>
            <left_val>3.4117320179939270e-001</left_val>
            <right_val>-5.4513227939605713e-001</right_val></_></_>
        <_>
          <!-- tree 2 -->
          <_>
            <!-- root node -->
            <feature>
              <rects>
                <_>
                  10 11 3 2 -1.</_>
                <_>
                  11 11 1 2 3.</_></rects>
              <tilted>0</tilted></feature>
            <threshold>1.0630430188030005e-003</threshold>
            <left_val>-8.7920677661895752e-001</left_val>
            <right_val>3.9820820093154907e-001</right_val></_></_></trees>
      <stage_threshold>-9.5604121685028076e-001</stage_threshold>
      <parent>0</parent>
      <next>-1</next></_>
    <_>
      <!-- stage 2 -->
      <trees>
        <_>
          <!-- tree 0 -->
          <_>
            <!-- root node -->
            <feature>
              <rects>
                <_>
                  0 0 24 24 -1.</_>
                <_>
                  0 8 24 8 3.</_></rects>
              <tilted>0</tilted></feature>
            <threshold>6.5058928728103638e-001</threshold>
            <left_val>-6.8496882915496826e-001</left_val>
            <right_val>6.9893682003021240e-001</right_val></_></_>
        <_>
          <!-- tree 1 -->
          <_>
            <!-- root node -->
            <feature>
              <rects>
                <_>
                  11 6 10 10 -1.</_>
                <_>
                  11 6 5 10 2.</_></rects>
              <tilted>0</tilted></feature>
            <threshold>6.0600340366363525e-002</threshold>
            <left_val>3.7790250033140182e-002</left_val>
            <right_val>-6.9580221176147461e-001</right_val></_></_>
        <_>
          <!-- tree 2 -->
          <_>
            <!-- root node -->
            <feature>
              <rects>
                <_>
                  3 6 10 10 -1.</_>
                <_>
                  8 6 5 10 2.</_></rects>
              <tilted>0</tilted></feature>
            <threshold>-1.5739390626549721e-002</threshold>
            <left_val>-8.9416462182998657e-001</left_val>
            <right_val>3.4363269805908203e-001</right_val></_></_>
        <_>
          <!-- tree 3 -->
          <_>
            <!-- root node -->
            <feature>
              <rects>
                <_>
                  9 7 6 10 -1.</_>
                <_>
                  12 7 3 5 2.</_>
                <_>
                  9 12 3 5 2.</_></rects>
              <tilted>0</tilted></feature>
            <threshold>-4.3495018035173416e-003</threshold>
            <left_val>2.5984328985214233e-001</left_val>
            <right_val>-7.5438058376312256e-001</right_val></_></_>
        <_>
          <!-- tree 4 -->
          <_>
            <!-- root node -->
            <feature>
              <rects>
                <_>
                  4 11 14 5 -1.</_>
                <_>
                  11 11 7 5 2.</_></rects>
              <tilted>0</tilted></feature>
            <threshold>-1.0392690077424049e-002</threshold>
            <left_val>2.3102690279483795e-001</left_val>
            <right_val>-8.9133977890014648e-001</right_val></_></_></trees>
      <stage_threshold>-1.0504729747772217e+000</stage_threshold>
      <parent>1</parent>
      <next>-1</next></_>
    <_>
      <!-- stage 3 -->
      <trees>
        <_>
          <!-- tree 0 -->
          <_>
            <!-- root node -->
            <feature>
              <rects>
                <_>
                  7 2 8 8 -1.</_>
                <_>
                  7 6 8 4 2.</_></rects>
              <tilted>0</tilted></feature>
            <threshold>4.7736588865518570e-002</threshold>
            <left_val>-7.4388968944549561e-001</left_val>
            <right_val>3.7704521417617798e-001</right_val></_></_>
        <_>
          <!-- tree 1 -->
          <_>
            <!-- root node -->
            <feature>
              <rects>
                <_>
                  7 13 13 10 -1.</_>
                <_>
                  7 18 13 5 2.</_></rects>
              <tilted>0</tilted></feature>
            <threshold>-8.0445900559425354e-002</threshold>
            <left_val>4.2347648739814758e-001</left_val>
            <right_val>-5.1873332262039185e-001</right_val></_></_>
        <_>
          <!-- tree 2 -->
          <_>
            <!-- root node -->
            <feature>
              <rects>
                <_>
                  1 8 18 9 -1.</_>
                <_>
                  7 8 6 9 3.</_></rects>
              <tilted>0</tilted></feature>
            <threshold>4.7023881226778030e-002</threshold>
            <left_val>-8.8390767574310303e-001</left_val>
            <right_val>1.9623650610446930e-001</right_val></_></_>
        <_>
          <!-- tree 3 -->
          <_>
            <!-- root node -->
            <feature>
              <rects>
                <_>
                  7 11 15 3 -1.</_>
                <_>
                  12 11 5 3 3.</_></rects>
              <tilted>0</tilted></feature>
            <threshold>-4.2250469326972961e-002</threshold>
            <left_val>-7.0270401239395142e-001</left_val>
            <right_val>1.5097169578075409e-001</right_val></_></_>
        <_>
          <!-- tree 4 -->
          <_>
            <!-- root node -->
            <feature>
              <rects>
                <_>
                  2 11 18 2 -1.</_>
                <_>
                  8 11 6 2 3.</_></rects>
              <tilted>0</tilted></feature>
            <threshold>2.7318660169839859e-002</threshold>
            <left_val>2.4876730144023895e-001</left_val>
            <right_val>-8.3010327816009521e-001</right_val></_></_>
        <_>
          <!-- tree 5 -->
          <_>
            <!-- root node -->
            <feature>
              <rects>
                <_>
                  10 11 6 2 -1.</_>
                <_>
                  12 11 2 2 3.</_></rects>
              <tilted>0</tilted></feature>
            <threshold>-1.6048119869083166e-003</threshold>
            <left_val>9.6005506813526154e-002</left_val>
            <right_val>-6.1567080020904541e-001</right_val></_></_>
        <_>
          <!-- tree 6 -->
          <_>
            <!-- root node -->
            <feature>
              <rects>
                <_>
                  4 8 12 9 -1.</_>
                <_>
                  4 11 12 3 3.</_></rects>
              <tilted>0</tilted></feature>
            <threshold>5.7115121744573116e-003</threshold>
            <left_val>-6.6305541992187500e-001</left_val>
            <right_val>2.8833690285682678e-001</right_val></_></_>
        <_>
          <!-- tree 7 -->
          <_>
            <!-- root node -->
            <feature>
              <rects>
                <_>
                  9 11 10 2 -1.</_>
                <_>
                  9 11 5 2 2.</_></rects>
              <tilted>0</tilted></feature>
            <threshold>-2.7467179461382329e-004</threshold>
            <left_val>-7.6799261569976807e-001</left_val>
            <right_val>8.0959223210811615e-002</right_val></_></_>
        <_>
          <!-- tree 8 -->
          <_>
            <!-- root node -->
            <feature>
              <rects>
                <_>
                  5 11 10 2 -1.</_>
                <_>
                  10 11 5 2 2.</_></rects>
              <tilted>0</tilted></feature>
            <threshold>-1.5397019684314728e-002</threshold>
            <left_val>-9.3264609575271606e-001</left_val>
            <right_val>1.7879450321197510e-001</right_val></_></_></trees>
      <stage_threshold>-1.8228950500488281e+000</stage_threshold>
      <parent>2</parent>
      <next>-1</next></_>
    <_>
      <!-- stage 4 -->
      <trees>
        <_>
          <!-- tree 0 -->
          <_>
            <!-- root node -->
            <feature>
              <rects>
                <_>
                  0 0 24 21 -1.</_>
                <_>
                  0 7 24 7 3.</_></rects>
              <tilted>0</tilted></feature>
            <threshold>4.2833349108695984e-001</threshold>
            <left_val>-6.8687981367111206e-001</left_val>
            <right_val>2.7774068713188171e-001</right_val></_></_>
        <_>
          <!-- tree 1 -->
          <_>
            <!-- root node -->
            <feature>
              <rects>
                <_>
                  11 12 2 1 -1.</_>
                <_>
                  11 12 1 1 2.</_></rects>
              <tilted>0</tilted></feature>
            <threshold>5.2914849948137999e-004</threshold>
            <left_val>-8.4884250164031982e-001</left_val>
            <right_val>1.5822899341583252e-001</right_val></_></_>
        <_>
          <!-- tree 2 -->
          <_>
            <!-- root node -->
            <feature>
              <rects>
                <_>
                  5 11 12 2 -1.</_>
                <_>
                  9 11 4 2 3.</_></rects>
              <tilted>0</tilted></feature>
            <threshold>1.6097469255328178e-002</threshold>
            <left_val>1.7441439628601074e-001</left_val>
            <right_val>-8.1809657812118530e-001</right_val></_></_>
        <_>
          <!-- tree 3 -->
          <_>
            <!-- root node -->
            <feature>
              <rects>
                <_>
                  7 7 12 11 -1.</_>
                <_>
                  11 7 4 11 3.</_></rects>
              <tilted>0</tilted></feature>
            <threshold>-8.4655776619911194e-002</threshold>
            <left_val>-8.1072938442230225e-001</left_val>
            <right_val>4.5656468719244003e-002</right_val></_></_>
        <_>
          <!-- tree 4 -->
          <_>
            <!-- root node -->
            <feature>
              <rects>
                <_>
                  0 9 18 7 -1.</_>
                <_>
                  6 9 6 7 3.</_></rects>
              <tilted>0</tilted></feature>
            <threshold>4.7150719910860062e-002</threshold>
            <left_val>-8.6312162876129150e-001</left_val>
            <right_val>2.0870250463485718e-001</right_val></_></_>
        <_>
          <!-- tree 5 -->
          <_>
            <!-- root node -->
            <feature>
              <rects>
                <_>
                  7 9 12 6 -1.</_>
                <_>
                  13 9 6 3 2.</_>
                <_>
                  7 12 6 3 2.</_></rects>
              <tilted>0</tilted></feature>
            <threshold>2.5740960612893105e-002</threshold>
            <left_val>-5.1604229956865311e-003</left_val>
            <right_val>-9.9999660253524780e-001</right_val></_></_>
        <_>
          <!-- tree 6 -->
          <_>
            <!-- root node -->
            <feature>
              <rects>
                <_>
                  7 9 10 6 -1.</_>
                <_>
                  7 12 10 3 2.</_></rects>
              <tilted>0</tilted></feature>
            <threshold>-1.2197970412671566e-002</threshold>
            <left_val>-8.6507111787796021e-001</left_val>
            <right_val>1.9653439521789551e-001</right_val></_></_>
        <_>
          <!-- tree 7 -->
          <_>
            <!-- root node -->
            <feature>
              <rects>
                <_>
                  12 9 1 4 -1.</_>
                <_>
                  12 11 1 2 2.</_></rects>
              <tilted>0</tilted></feature>
            <threshold>-1.9137669587507844e-003</threshold>
            <left_val>3.4057959914207458e-001</left_val>
            <right_val>-2.3980860412120819e-001</right_val></_></_>
        <_>
          <!-- tree 8 -->
          <_>
            <!-- root node -->
            <feature>
              <rects>
                <_>
                  5 9 12 6 -1.</_>
                <_>
                  5 9 6 3 2.</_>
                <_>
                  11 12 6 3 2.</_></rects>
              <tilted>0</tilted></feature>
            <threshold>2.6890239678323269e-003</threshold>
            <left_val>-7.3342227935791016e-001</left_val>
            <right_val>2.4659919738769531e-001</right_val></_></_></trees>
      <stage_threshold>-1.4002200365066528e+000</stage_threshold>
      <parent>3</parent>
      <next>-1</next></_>
    <_>
      <!-- stage 5 -->
      <trees>
        <_>
          <!-- tree 0 -->
          <_>
            <!-- root node -->
            <feature>
              <rects>
                <_>
                  0 2 9 21 -1.</_>
                <_>
                  0 9 9 7 3.</_></rects>
              <tilted>0</tilted></feature>
            <threshold>1.7995040118694305e-001</threshold>
            <left_val>-7.2936367988586426e-001</left_val>
            <right_val>1.4386589825153351e-001</right_val></_></_>
        <_>
          <!-- tree 1 -->
          <_>
            <!-- root node -->
            <feature>
              <rects>
                <_>
                  12 9 1 4 -1.</_>
                <_>
                  12 11 1 2 2.</_></rects>
              <tilted>0</tilted></feature>
            <threshold>-2.2653860505670309e-003</threshold>
            <left_val>1.3990589976310730e-001</left_val>
            <right_val>-2.1583500504493713e-001</right_val></_></_>
        <_>
          <!-- tree 2 -->
          <_>
            <!-- root node -->
            <feature>
              <rects>
                <_>
                  10 10 3 1 -1.</_>
                <_>
                  11 10 1 1 3.</_></rects>
              <tilted>0</tilted></feature>
            <threshold>2.3722120095044374e-003</threshold>
            <left_val>-3.5287350416183472e-001</left_val>
            <right_val>5.2116978168487549e-001</right_val></_></_>
        <_>
          <!-- tree 3 -->
          <_>
            <!-- root node -->
            <feature>
              <rects>
                <_>
                  0 10 24 3 -1.</_>
                <_>
                  0 10 12 3 2.</_></rects>
              <tilted>0</tilted></feature>
            <threshold>7.5587749481201172e-002</threshold>
            <left_val>1.9950139522552490e-001</left_val>
            <right_val>-8.9108908176422119e-001</right_val></_></_>
        <_>
          <!-- tree 4 -->
          <_>
            <!-- root node -->
            <feature>
              <rects>
                <_>
                  3 9 16 6 -1.</_>
                <_>
                  11 9 8 6 2.</_></rects>
              <tilted>0</tilted></feature>
            <threshold>-3.8952760398387909e-002</threshold>
            <left_val>2.9299530386924744e-001</left_val>
            <right_val>-6.4956730604171753e-001</right_val></_></_>
        <_>
          <!-- tree 5 -->
          <_>
            <!-- root node -->
            <feature>
              <rects>
                <_>
                  13 8 2 6 -1.</_>
                <_>
                  13 11 2 3 2.</_></rects>
              <tilted>0</tilted></feature>
            <threshold>3.5781590268015862e-003</threshold>
            <left_val>-2.7961179614067078e-001</left_val>
            <right_val>1.5188920497894287e-001</right_val></_></_>
        <_>
          <!-- tree 6 -->
          <_>
            <!-- root node -->
            <feature>
              <rects>
                <_>
                  9 8 2 6 -1.</_>
                <_>
                  9 11 2 3 2.</_></rects>
              <tilted>0</tilted></feature>
            <threshold>-2.4508099886588752e-004</threshold>
            <left_val>3.2775661349296570e-001</left_val>
            <right_val>-5.1547157764434814e-001</right_val></_></_>
        <_>
          <!-- tree 7 -->
          <_>
            <!-- root node -->
            <feature>
              <rects>
                <_>
                  10 11 6 2 -1.</_>
                <_>
                  12 11 2 2 3.</_></rects>
              <tilted>0</tilted></feature>
            <threshold>-6.6031567985191941e-004</threshold>
            <left_val>1.1521109938621521e-001</left_val>
            <right_val>-5.7966417074203491e-001</right_val></_></_>
        <_>
          <!-- tree 8 -->
          <_>
            <!-- root node -->
            <feature>
              <rects>
                <_>
                  10 11 4 6 -1.</_>
                <_>
                  10 14 4 3 2.</_></rects>
              <tilted>0</tilted></feature>
            <threshold>5.9778167633339763e-004</threshold>
            <left_val>2.0835749804973602e-001</left_val>
            <right_val>-7.2311288118362427e-001</right_val></_></_>
        <_>
          <!-- tree 9 -->
          <_>
            <!-- root node -->
            <feature>
              <rects>
                <_>
                  8 15 8 6 -1.</_>
                <_>
                  8 18 8 3 2.</_></rects>
              <tilted>0</tilted></feature>
            <threshold>-2.7507459744811058e-002</threshold>
            <left_val>4.5206418633460999e-001</left_val>
            <right_val>-3.8852369785308838e-001</right_val></_></_>
        <_>
          <!-- tree 10 -->
          <_>
            <!-- root node -->
            <feature>
              <rects>
                <_>
                  7 10 10 6 -1.</_>
                <_>
                  7 13 10 3 2.</_></rects>
              <tilted>0</tilted></feature>
            <threshold>-1.4875600114464760e-002</threshold>
            <left_val>-7.2258538007736206e-001</left_val>
            <right_val>1.5644550323486328e-001</right_val></_></_></trees>
      <stage_threshold>-1.5974110364913940e+000</stage_threshold>
      <parent>4</parent>
      <next>-1</next></_>
    <_>
      <!-- stage 6 -->
      <trees>
        <_>
          <!-- tree 0 -->
          <_>
            <!-- root node -->
            <feature>
              <rects>
                <_>
                  0 1 24 10 -1.</_>
                <_>
                  0 6 24 5 2.</_></rects>
              <tilted>0</tilted></feature>
            <threshold>1.8871720135211945e-001</threshold>
            <left_val>-6.4753878116607666e-001</left_val>
            <right_val>2.1398240327835083e-001</right_val></_></_>
        <_>
          <!-- tree 1 -->
          <_>
            <!-- root node -->
            <feature>
              <rects>
                <_>
                  10 11 6 2 -1.</_>
                <_>
                  12 11 2 2 3.</_></rects>
              <tilted>0</tilted></feature>
            <threshold>-1.5957059804350138e-003</threshold>
            <left_val>6.5502926707267761e-002</left_val>
            <right_val>-6.0606491565704346e-001</right_val></_></_>
        <_>
          <!-- tree 2 -->
          <_>
            <!-- root node -->
            <feature>
              <rects>
                <_>
                  8 11 4 2 -1.</_>
                <_>
                  10 11 2 2 2.</_></rects>
              <tilted>0</tilted></feature>
            <threshold>-8.5751787992194295e-004</threshold>
            <left_val>-7.1366322040557861e-001</left_val>
            <right_val>2.0262889564037323e-001</right_val></_></_>
        <_>
          <!-- tree 3 -->
          <_>
            <!-- root node -->
            <feature>
              <rects>
                <_>
                  13 7 6 3 -1.</_>
                <_>
                  13 7 3 3 2.</_></rects>
              <tilted>0</tilted></feature>
            <threshold>-4.9534328281879425e-003</threshold>
            <left_val>3.0879190564155579e-001</left_val>
            <right_val>-2.2627699375152588e-001</right_val></_></_>
        <_>
          <!-- tree 4 -->
          <_>
            <!-- root node -->
            <feature>
              <rects>
                <_>
                  11 9 1 4 -1.</_>
                <_>
                  11 11 1 2 2.</_></rects>
              <tilted>0</tilted></feature>
            <threshold>-2.6325791259296238e-004</threshold>
            <left_val>4.1274911165237427e-001</left_val>
            <right_val>-4.4945940375328064e-001</right_val></_></_>
        <_>
          <!-- tree 5 -->
          <_>
            <!-- root node -->
            <feature>
              <rects>
                <_>
                  9 12 14 12 -1.</_>
                <_>
                  9 18 14 6 2.</_></rects>
              <tilted>0</tilted></feature>
            <threshold>-7.0475846529006958e-002</threshold>
            <left_val>2.6481148600578308e-001</left_val>
            <right_val>-4.4063109159469604e-001</right_val></_></_>
        <_>
          <!-- tree 6 -->
          <_>
            <!-- root node -->
            <feature>
              <rects>
                <_>
                  6 11 12 4 -1.</_>
                <_>
                  12 11 6 4 2.</_></rects>
              <tilted>0</tilted></feature>
            <threshold>-1.4243880286812782e-002</threshold>
            <left_val>1.6536490619182587e-001</left_val>
            <right_val>-8.7820827960968018e-001</right_val></_></_>
        <_>
          <!-- tree 7 -->
          <_>
            <!-- root node -->
            <feature>
              <rects>
                <_>
                  7 12 12 3 -1.</_>
                <_>
                  7 12 6 3 2.</_></rects>
              <tilted>0</tilted></feature>
            <threshold>3.8464728742837906e-002</threshold>
            <left_val>2.3914709687232971e-002</left_val>
            <right_val>-7.6432341337203979e-001</right_val></_></_>
        <_>
          <!-- tree 8 -->
          <_>
            <!-- root node -->
            <feature>
              <rects>
                <_>
                  0 7 16 4 -1.</_>
                <_>
                  0 7 8 2 2.</_>
                <_>
                  8 9 8 2 2.</_></rects>
              <tilted>0</tilted></feature>
            <threshold>-4.4138380326330662e-003</threshold>
            <left_val>3.4425380825996399e-001</left_val>
            <right_val>-3.9811858534812927e-001</right_val></_></_>
        <_>
          <!-- tree 9 -->
          <_>
            <!-- root node -->
            <feature>
              <rects>
                <_>
                  3 11 18 4 -1.</_>
                <_>
                  9 11 6 4 3.</_></rects>
              <tilted>0</tilted></feature>
            <threshold>-7.5914179906249046e-003</threshold>
            <left_val>-7.7646857500076294e-001</left_val>
            <right_val>1.7677929997444153e-001</right_val></_></_>
        <_>
          <!-- tree 10 -->
          <_>
            <!-- root node -->
            <feature>
              <rects>
                <_>
                  10 11 2 2 -1.</_>
                <_>
                  11 11 1 2 2.</_></rects>
              <tilted>0</tilted></feature>
            <threshold>-8.8282278738915920e-004</threshold>
            <left_val>-8.5871738195419312e-001</left_val>
            <right_val>1.1684600263834000e-001</right_val></_></_>
        <_>
          <!-- tree 11 -->
          <_>
            <!-- root node -->
            <feature>
              <rects>
                <_>
                  22 6 2 12 -1.</_>
                <_>
                  22 6 1 12 2.</_></rects>
              <tilted>0</tilted></feature>
            <threshold>3.5340620670467615e-003</threshold>
            <left_val>-2.4072410166263580e-001</left_val>
            <right_val>3.5242030024528503e-001</right_val></_></_>
        <_>
          <!-- tree 12 -->
          <_>
            <!-- root node -->
            <feature>
              <rects>
                <_>
                  0 6 2 12 -1.</_>
                <_>
                  1 6 1 12 2.</_></rects>
              <tilted>0</tilted></feature>
            <threshold>6.1689419671893120e-003</threshold>
            <left_val>-2.6415029168128967e-001</left_val>
            <right_val>5.0092577934265137e-001</right_val></_></_></trees>
      <stage_threshold>-1.5916689634323120e+000</stage_threshold>
      <parent>5</parent>
      <next>-1</next></_>
    <_>
      <!-- stage 7 -->
      <trees>
        <_>
          <!-- tree 0 -->
          <_>
            <!-- root node -->
            <feature>
              <rects>
                <_>
                  9 3 4 6 -1.</_>
                <_>
                  9 6 4 3 2.</_></rects>
              <tilted>0</tilted></feature>
            <threshold>1.3951039873063564e-002</threshold>
            <left_val>-7.2964507341384888e-001</left_val>
            <right_val>-6.7992389202117920e-002</right_val></_></_>
        <_>
          <!-- tree 1 -->
          <_>
            <!-- root node -->
            <feature>
              <rects>
                <_>
                  7 8 17 9 -1.</_>
                <_>
                  7 11 17 3 3.</_></rects>
              <tilted>0</tilted></feature>
            <threshold>8.0990083515644073e-003</threshold>
            <left_val>-4.9758461117744446e-001</left_val>
            <right_val>1.2904940545558929e-001</right_val></_></_>
        <_>
          <!-- tree 2 -->
          <_>
            <!-- root node -->
            <feature>
              <rects>
                <_>
                  6 10 8 6 -1.</_>
                <_>
                  10 10 4 6 2.</_></rects>
              <tilted>0</tilted></feature>
            <threshold>-3.2859209459275007e-003</threshold>
            <left_val>1.7301090061664581e-001</left_val>
            <right_val>-7.4143487215042114e-001</right_val></_></_>
        <_>
          <!-- tree 3 -->
          <_>
            <!-- root node -->
            <feature>
              <rects>
                <_>
                  10 11 6 2 -1.</_>
                <_>
                  12 11 2 2 3.</_></rects>
              <tilted>0</tilted></feature>
            <threshold>2.1152109839022160e-003</threshold>
            <left_val>8.1359088420867920e-002</left_val>
            <right_val>-8.0296802520751953e-001</right_val></_></_>
        <_>
          <!-- tree 4 -->
          <_>
            <!-- root node -->
            <feature>
              <rects>
                <_>
                  5 11 10 3 -1.</_>
                <_>
                  10 11 5 3 2.</_></rects>
              <tilted>0</tilted></feature>
            <threshold>-1.3613809831440449e-002</threshold>
            <left_val>-6.3358938694000244e-001</left_val>
            <right_val>1.9754870235919952e-001</right_val></_></_>
        <_>
          <!-- tree 5 -->
          <_>
            <!-- root node -->
            <feature>
              <rects>
                <_>
                  6 9 14 4 -1.</_>
                <_>
                  6 9 7 4 2.</_></rects>
              <tilted>0</tilted></feature>
            <threshold>1.4147840440273285e-002</threshold>
            <left_val>-9.7254270315170288e-001</left_val>
            <right_val>3.2681830227375031e-002</right_val></_></_>
        <_>
          <!-- tree 6 -->
          <_>
            <!-- root node -->
            <feature>
              <rects>
                <_>
                  0 10 24 1 -1.</_>
                <_>
                  8 10 8 1 3.</_></rects>
              <tilted>0</tilted></feature>
            <threshold>6.0668890364468098e-003</threshold>
            <left_val>2.5563049316406250e-001</left_val>
            <right_val>-4.7942671179771423e-001</right_val></_></_>
        <_>
          <!-- tree 7 -->
          <_>
            <!-- root node -->
            <feature>
              <rects>
                <_>
                  13 7 6 5 -1.</_>
                <_>
                  13 7 3 5 2.</_></rects>
              <tilted>0</tilted></feature>
            <threshold>-3.0847949907183647e-002</threshold>
            <left_val>-6.9311022758483887e-001</left_val>
            <right_val>-2.1345219574868679e-003</right_val></_></_>
        <_>
          <!-- tree 8 -->
          <_>
            <!-- root node -->
            <feature>
              <rects>
                <_>
                  5 7 6 5 -1.</_>
                <_>
                  8 7 3 5 2.</_></rects>
              <tilted>0</tilted></feature>
            <threshold>9.2133117141202092e-004</threshold>
            <left_val>-5.3935950994491577e-001</left_val>
            <right_val>2.6450881361961365e-001</right_val></_></_>
        <_>
          <!-- tree 9 -->
          <_>
            <!-- root node -->
            <feature>
              <rects>
                <_>
                  9 10 9 6 -1.</_>
                <_>
                  9 13 9 3 2.</_></rects>
              <tilted>0</tilted></feature>
            <threshold>2.2164579480886459e-002</threshold>
            <left_val>7.1925409138202667e-002</left_val>
            <right_val>-8.8930702209472656e-001</right_val></_></_>
        <_>
          <!-- tree 10 -->
          <_>
            <!-- root node -->
            <feature>
              <rects>
                <_>
                  1 12 16 12 -1.</_>
                <_>
                  1 18 16 6 2.</_></rects>
              <tilted>0</tilted></feature>
            <threshold>-1.6227759420871735e-001</threshold>
            <left_val>3.2593241333961487e-001</left_val>
            <right_val>-3.5005721449851990e-001</right_val></_></_>
        <_>
          <!-- tree 11 -->
          <_>
            <!-- root node -->
            <feature>
              <rects>
                <_>
                  11 10 2 6 -1.</_>
                <_>
                  12 10 1 3 2.</_>
                <_>
                  11 13 1 3 2.</_></rects>
              <tilted>0</tilted></feature>
            <threshold>-2.4429669138044119e-003</threshold>
            <left_val>2.8426310420036316e-001</left_val>
            <right_val>-4.8017680644989014e-001</right_val></_></_>
        <_>
          <!-- tree 12 -->
          <_>
            <!-- root node -->
            <feature>
              <rects>
                <_>
                  6 11 6 2 -1.</_>
                <_>
                  9 11 3 2 2.</_></rects>
              <tilted>0</tilted></feature>
            <threshold>2.7206640224903822e-003</threshold>
            <left_val>1.5060310065746307e-001</left_val>
            <right_val>-6.6362380981445313e-001</right_val></_></_>
        <_>
          <!-- tree 13 -->
          <_>
            <!-- root node -->
            <feature>
              <rects>
                <_>
                  11 12 3 1 -1.</_>
                <_>
                  12 12 1 1 3.</_></rects>
              <tilted>0</tilted></feature>
            <threshold>-2.9555280343629420e-004</threshold>
            <left_val>1.3141410052776337e-001</left_val>
            <right_val>-4.6964770555496216e-001</right_val></_></_></trees>
      <stage_threshold>-1.5714819431304932e+000</stage_threshold>
      <parent>6</parent>
      <next>-1</next></_>
    <_>
      <!-- stage 8 -->
      <trees>
        <_>
          <!-- tree 0 -->
          <_>
            <!-- root node -->
            <feature>
              <rects>
                <_>
                  0 0 24 24 -1.</_>
                <_>
                  0 8 24 8 3.</_></rects>
              <tilted>0</tilted></feature>
            <threshold>7.1361929178237915e-001</threshold>
            <left_val>-5.8816057443618774e-001</left_val>
            <right_val>1.5540190041065216e-001</right_val></_></_>
        <_>
          <!-- tree 1 -->
          <_>
            <!-- root node -->
            <feature>
              <rects>
                <_>
                  7 8 10 8 -1.</_>
                <_>
                  12 8 5 4 2.</_>
                <_>
                  7 12 5 4 2.</_></rects>
              <tilted>0</tilted></feature>
            <threshold>-7.6747830025851727e-003</threshold>
            <left_val>1.3598980009555817e-001</left_val>
            <right_val>-6.9444888830184937e-001</right_val></_></_>
        <_>
          <!-- tree 2 -->
          <_>
            <!-- root node -->
            <feature>
              <rects>
                <_>
                  3 7 15 11 -1.</_>
                <_>
                  8 7 5 11 3.</_></rects>
              <tilted>0</tilted></feature>
            <threshold>3.9901018142700195e-002</threshold>
            <left_val>-7.1880638599395752e-001</left_val>
            <right_val>1.4110629260540009e-001</right_val></_></_>
        <_>
          <!-- tree 3 -->
          <_>
            <!-- root node -->
            <feature>
              <rects>
                <_>
                  7 9 13 6 -1.</_>
                <_>
                  7 12 13 3 2.</_></rects>
              <tilted>0</tilted></feature>
            <threshold>-9.1598741710186005e-003</threshold>
            <left_val>-6.4556282758712769e-001</left_val>
            <right_val>1.3482980430126190e-001</right_val></_></_>
        <_>
          <!-- tree 4 -->
          <_>
            <!-- root node -->
            <feature>
              <rects>
                <_>
                  1 5 18 8 -1.</_>
                <_>
                  1 5 9 4 2.</_>
                <_>
                  10 9 9 4 2.</_></rects>
              <tilted>0</tilted></feature>
            <threshold>-9.0531045570969582e-003</threshold>
            <left_val>2.8964221477508545e-001</left_val>
            <right_val>-4.5324641466140747e-001</right_val></_></_>
        <_>
          <!-- tree 5 -->
          <_>
            <!-- root node -->
            <feature>
              <rects>
                <_>
                  0 9 24 5 -1.</_>
                <_>
                  0 9 12 5 2.</_></rects>
              <tilted>0</tilted></feature>
            <threshold>1.0433670133352280e-001</threshold>
            <left_val>1.3991190493106842e-001</left_val>
            <right_val>-7.2459608316421509e-001</right_val></_></_>
        <_>
          <!-- tree 6 -->
          <_>
            <!-- root node -->
            <feature>
              <rects>
                <_>
                  1 12 18 2 -1.</_>
                <_>
                  10 12 9 2 2.</_></rects>
              <tilted>0</tilted></feature>
            <threshold>-2.0828570704907179e-003</threshold>
            <left_val>1.7717500030994415e-001</left_val>
            <right_val>-6.4719837903976440e-001</right_val></_></_>
        <_>
          <!-- tree 7 -->
          <_>
            <!-- root node -->
            <feature>
              <rects>
                <_>
                  11 12 2 1 -1.</_>
                <_>
                  11 12 1 1 2.</_></rects>
              <tilted>0</tilted></feature>
            <threshold>4.2185498750768602e-004</threshold>
            <left_val>-8.3291292190551758e-001</left_val>
            <right_val>1.1038549989461899e-001</right_val></_></_>
        <_>
          <!-- tree 8 -->
          <_>
            <!-- root node -->
            <feature>
              <rects>
                <_>
                  6 12 10 2 -1.</_>
                <_>
                  11 12 5 2 2.</_></rects>
              <tilted>0</tilted></feature>
            <threshold>-1.4012860134243965e-002</threshold>
            <left_val>-7.2948718070983887e-001</left_val>
            <right_val>1.1374399811029434e-001</right_val></_></_>
        <_>
          <!-- tree 9 -->
          <_>
            <!-- root node -->
            <feature>
              <rects>
                <_>
                  12 10 1 4 -1.</_>
                <_>
                  12 12 1 2 2.</_></rects>
              <tilted>0</tilted></feature>
            <threshold>1.6038879984989762e-003</threshold>
            <left_val>-1.4076389372348785e-001</left_val>
            <right_val>1.5019330382347107e-001</right_val></_></_>
        <_>
          <!-- tree 10 -->
          <_>
            <!-- root node -->
            <feature>
              <rects>
                <_>
                  11 10 1 4 -1.</_>
                <_>
                  11 12 1 2 2.</_></rects>
              <tilted>0</tilted></feature>
            <threshold>-2.9323328635655344e-004</threshold>
            <left_val>3.2337209582328796e-001</left_val>
            <right_val>-5.0982201099395752e-001</right_val></_></_>
        <_>
          <!-- tree 11 -->
          <_>
            <!-- root node -->
            <feature>
              <rects>
                <_>
                  10 15 4 6 -1.</_>
                <_>
                  10 17 4 2 3.</_></rects>
              <tilted>0</tilted></feature>
            <threshold>1.3687489554286003e-002</threshold>
            <left_val>-2.4023079872131348e-001</left_val>
            <right_val>4.7577250003814697e-001</right_val></_></_>
        <_>
          <!-- tree 12 -->
          <_>
            <!-- root node -->
            <feature>
              <rects>
                <_>
                  6 8 9 9 -1.</_>
                <_>
                  6 11 9 3 3.</_></rects>
              <tilted>0</tilted></feature>
            <threshold>-3.6777940113097429e-003</threshold>
            <left_val>-7.5376349687576294e-001</left_val>
            <right_val>1.6259659826755524e-001</right_val></_></_></trees>
      <stage_threshold>-1.6408580541610718e+000</stage_threshold>
      <parent>7</parent>
      <next>-1</next></_>
    <_>
      <!-- stage 9 -->
      <trees>
        <_>
          <!-- tree 0 -->
          <_>
            <!-- root node -->
            <feature>
              <rects>
                <_>
                  10 3 3 4 -1.</_>
                <_>
                  10 5 3 2 2.</_></rects>
              <tilted>0</tilted></feature>
            <threshold>1.7751699313521385e-002</threshold>
            <left_val>-4.9383029341697693e-001</left_val>
            <right_val>5.6440508365631104e-001</right_val></_></_>
        <_>
          <!-- tree 1 -->
          <_>
            <!-- root node -->
            <feature>
              <rects>
                <_>
                  0 12 24 10 -1.</_>
                <_>
                  0 17 24 5 2.</_></rects>
              <tilted>0</tilted></feature>
            <threshold>-1.6412760317325592e-001</threshold>
            <left_val>3.1951919198036194e-001</left_val>
            <right_val>-4.3360710144042969e-001</right_val></_></_>
        <_>
          <!-- tree 2 -->
          <_>
            <!-- root node -->
            <feature>
              <rects>
                <_>
                  9 10 6 2 -1.</_>
                <_>
                  9 10 3 1 2.</_>
                <_>
                  12 11 3 1 2.</_></rects>
              <tilted>0</tilted></feature>
            <threshold>4.2843590490520000e-003</threshold>
            <left_val>-1.8526610732078552e-001</left_val>
            <right_val>5.5651360750198364e-001</right_val></_></_>
        <_>
          <!-- tree 3 -->
          <_>
            <!-- root node -->
            <feature>
              <rects>
                <_>
                  10 11 6 2 -1.</_>
                <_>
                  12 11 2 2 3.</_></rects>
              <tilted>0</tilted></feature>
            <threshold>6.8816757993772626e-004</threshold>
            <left_val>5.5864199995994568e-002</left_val>
            <right_val>-5.8580398559570313e-001</right_val></_></_>
        <_>
          <!-- tree 4 -->
          <_>
            <!-- root node -->
            <feature>
              <rects>
                <_>
                  4 11 16 3 -1.</_>
                <_>
                  12 11 8 3 2.</_></rects>
              <tilted>0</tilted></feature>
            <threshold>-1.7491640523076057e-002</threshold>
            <left_val>1.3658930361270905e-001</left_val>
            <right_val>-7.9244560003280640e-001</right_val></_></_>
        <_>
          <!-- tree 5 -->
          <_>
            <!-- root node -->
            <feature>
              <rects>
                <_>
                  13 4 2 9 -1.</_>
                <_>
                  13 7 2 3 3.</_></rects>
              <tilted>0</tilted></feature>
            <threshold>1.2239299714565277e-002</threshold>
            <left_val>-1.0302379727363586e-001</left_val>
            <right_val>3.5275900363922119e-001</right_val></_></_>
        <_>
          <!-- tree 6 -->
          <_>
            <!-- root node -->
            <feature>
              <rects>
                <_>
                  6 4 12 6 -1.</_>
                <_>
                  6 4 6 3 2.</_>
                <_>
                  12 7 6 3 2.</_></rects>
              <tilted>0</tilted></feature>
            <threshold>-3.9938610047101974e-002</threshold>
            <left_val>5.1873111724853516e-001</left_val>
            <right_val>-2.2709479928016663e-001</right_val></_></_>
        <_>
          <!-- tree 7 -->
          <_>
            <!-- root node -->
            <feature>
              <rects>
                <_>
                  9 11 8 2 -1.</_>
                <_>
                  9 11 4 2 2.</_></rects>
              <tilted>0</tilted></feature>
            <threshold>6.8909898400306702e-003</threshold>
            <left_val>2.7646338939666748e-001</left_val>
            <right_val>-1.4905199408531189e-001</right_val></_></_>
        <_>
          <!-- tree 8 -->
          <_>
            <!-- root node -->
            <feature>
              <rects>
                <_>
                  11 8 2 10 -1.</_>
                <_>
                  12 8 1 10 2.</_></rects>
              <tilted>0</tilted></feature>
            <threshold>-1.6639439854770899e-004</threshold>
            <left_val>-2.2163690626621246e-001</left_val>
            <right_val>5.8842802047729492e-001</right_val></_></_>
        <_>
          <!-- tree 9 -->
          <_>
            <!-- root node -->
            <feature>
              <rects>
                <_>
                  12 11 1 2 -1.</_>
                <_>
                  12 12 1 1 2.</_></rects>
              <tilted>0</tilted></feature>
            <threshold>-2.9418331105262041e-003</threshold>
            <left_val>-9.1604417562484741e-001</left_val>
            <right_val>3.9562661200761795e-002</right_val></_></_>
        <_>
          <!-- tree 10 -->
          <_>
            <!-- root node -->
            <feature>
              <rects>
                <_>
                  11 11 1 2 -1.</_>
                <_>
                  11 12 1 1 2.</_></rects>
              <tilted>0</tilted></feature>
            <threshold>8.9723622659221292e-004</threshold>
            <left_val>1.0258480161428452e-001</left_val>
            <right_val>-9.9408578872680664e-001</right_val></_></_>
        <_>
          <!-- tree 11 -->
          <_>
            <!-- root node -->
            <feature>
              <rects>
                <_>
                  12 7 8 10 -1.</_>
                <_>
                  12 7 4 10 2.</_></rects>
              <tilted>0</tilted></feature>
            <threshold>6.1065848916769028e-002</threshold>
            <left_val>3.2358329743146896e-002</left_val>
            <right_val>-9.6288037300109863e-001</right_val></_></_>
        <_>
          <!-- tree 12 -->
          <_>
            <!-- root node -->
            <feature>
              <rects>
                <_>
                  4 7 8 10 -1.</_>
                <_>
                  8 7 4 10 2.</_></rects>
              <tilted>0</tilted></feature>
            <threshold>-6.9177742116153240e-003</threshold>
            <left_val>-8.3842569589614868e-001</left_val>
            <right_val>1.1802770197391510e-001</right_val></_></_>
        <_>
          <!-- tree 13 -->
          <_>
            <!-- root node -->
            <feature>
              <rects>
                <_>
                  9 11 12 3 -1.</_>
                <_>
                  13 11 4 3 3.</_></rects>
              <tilted>0</tilted></feature>
            <threshold>-4.6403441578149796e-002</threshold>
            <left_val>-9.8372852802276611e-001</left_val>
            <right_val>5.7220389135181904e-004</right_val></_></_>
        <_>
          <!-- tree 14 -->
          <_>
            <!-- root node -->
            <feature>
              <rects>
                <_>
                  3 10 10 5 -1.</_>
                <_>
                  8 10 5 5 2.</_></rects>
              <tilted>0</tilted></feature>
            <threshold>9.9913720041513443e-003</threshold>
            <left_val>1.8659919500350952e-001</left_val>
            <right_val>-5.5087757110595703e-001</right_val></_></_></trees>
      <stage_threshold>-1.1413530111312866e+000</stage_threshold>
      <parent>8</parent>
      <next>-1</next></_>
    <_>
      <!-- stage 10 -->
      <trees>
        <_>
          <!-- tree 0 -->
          <_>
            <!-- root node -->
            <feature>
              <rects>
                <_>
                  1 0 22 10 -1.</_>
                <_>
                  1 5 22 5 2.</_></rects>
              <tilted>0</tilted></feature>
            <threshold>1.2066560238599777e-001</threshold>
            <left_val>-7.0319348573684692e-001</left_val>
            <right_val>1.2365830130875111e-002</right_val></_></_>
        <_>
          <!-- tree 1 -->
          <_>
            <!-- root node -->
            <feature>
              <rects>
                <_>
                  13 11 3 3 -1.</_>
                <_>
                  14 11 1 3 3.</_></rects>
              <tilted>0</tilted></feature>
            <threshold>9.0353022096678615e-004</threshold>
            <left_val>-3.1520849466323853e-001</left_val>
            <right_val>1.0541520267724991e-001</right_val></_></_>
        <_>
          <!-- tree 2 -->
          <_>
            <!-- root node -->
            <feature>
              <rects>
                <_>
                  11 9 1 4 -1.</_>
                <_>
                  11 11 1 2 2.</_></rects>
              <tilted>0</tilted></feature>
            <threshold>-1.0038859909400344e-004</threshold>
            <left_val>2.7009311318397522e-001</left_val>
            <right_val>-4.2395880818367004e-001</right_val></_></_>
        <_>
          <!-- tree 3 -->
          <_>
            <!-- root node -->
            <feature>
              <rects>
                <_>
                  11 9 6 12 -1.</_>
                <_>
                  11 13 6 4 3.</_></rects>
              <tilted>0</tilted></feature>
            <threshold>2.6148360222578049e-002</threshold>
            <left_val>-3.3240181207656860e-001</left_val>
            <right_val>3.0434548854827881e-001</right_val></_></_>
        <_>
          <!-- tree 4 -->
          <_>
            <!-- root node -->
            <feature>
              <rects>
                <_>
                  5 11 10 6 -1.</_>
                <_>
                  5 11 5 3 2.</_>
                <_>
                  10 14 5 3 2.</_></rects>
              <tilted>0</tilted></feature>
            <threshold>-8.5619947640225291e-005</threshold>
            <left_val>3.2974070310592651e-001</left_val>
            <right_val>-3.6483469605445862e-001</right_val></_></_>
        <_>
          <!-- tree 5 -->
          <_>
            <!-- root node -->
            <feature>
              <rects>
                <_>
                  12 9 12 5 -1.</_>
                <_>
                  12 9 6 5 2.</_></rects>
              <tilted>0</tilted></feature>
            <threshold>-8.6029935628175735e-003</threshold>
            <left_val>3.2244008779525757e-001</left_val>
            <right_val>-3.4728270769119263e-001</right_val></_></_>
        <_>
          <!-- tree 6 -->
          <_>
            <!-- root node -->
            <feature>
              <rects>
                <_>
                  0 9 12 5 -1.</_>
                <_>
                  6 9 6 5 2.</_></rects>
              <tilted>0</tilted></feature>
            <threshold>-1.6628720331937075e-003</threshold>
            <left_val>-8.6965131759643555e-001</left_val>
            <right_val>1.5155670046806335e-001</right_val></_></_>
        <_>
          <!-- tree 7 -->
          <_>
            <!-- root node -->
            <feature>
              <rects>
                <_>
                  13 11 3 2 -1.</_>
                <_>
                  14 11 1 2 3.</_></rects>
              <tilted>0</tilted></feature>
            <threshold>7.2814221493899822e-003</threshold>
            <left_val>-1.0800530202686787e-002</left_val>
            <right_val>-4.0872159600257874e-001</right_val></_></_>
        <_>
          <!-- tree 8 -->
          <_>
            <!-- root node -->
            <feature>
              <rects>
                <_>
                  8 11 3 2 -1.</_>
                <_>
                  9 11 1 2 3.</_></rects>
              <tilted>0</tilted></feature>
            <threshold>-2.3893280886113644e-003</threshold>
            <left_val>5.5631428956985474e-001</left_val>
            <right_val>-2.1338990330696106e-001</right_val></_></_>
        <_>
          <!-- tree 9 -->
          <_>
            <!-- root node -->
            <feature>
              <rects>
                <_>
                  12 11 1 2 -1.</_>
                <_>
                  12 12 1 1 2.</_></rects>
              <tilted>0</tilted></feature>
            <threshold>2.9744659550487995e-003</threshold>
            <left_val>2.5076659396290779e-002</left_val>
            <right_val>-9.3119221925735474e-001</right_val></_></_>
        <_>
          <!-- tree 10 -->
          <_>
            <!-- root node -->
            <feature>
              <rects>
                <_>
                  11 11 1 2 -1.</_>
                <_>
                  11 12 1 1 2.</_></rects>
              <tilted>0</tilted></feature>
            <threshold>-1.0386450449004769e-003</threshold>
            <left_val>-9.1238480806350708e-001</left_val>
            <right_val>1.2859970331192017e-001</right_val></_></_>
        <_>
          <!-- tree 11 -->
          <_>
            <!-- root node -->
            <feature>
              <rects>
                <_>
                  5 11 15 4 -1.</_>
                <_>
                  10 11 5 4 3.</_></rects>
              <tilted>0</tilted></feature>
            <threshold>-1.0698280297219753e-002</threshold>
            <left_val>-7.7319031953811646e-001</left_val>
            <right_val>8.8412843644618988e-002</right_val></_></_>
        <_>
          <!-- tree 12 -->
          <_>
            <!-- root node -->
            <feature>
              <rects>
                <_>
                  7 4 10 4 -1.</_>
                <_>
                  7 4 5 2 2.</_>
                <_>
                  12 6 5 2 2.</_></rects>
              <tilted>0</tilted></feature>
            <threshold>-2.7952959761023521e-002</threshold>
            <left_val>6.0462898015975952e-001</left_val>
            <right_val>-1.6025079786777496e-001</right_val></_></_>
        <_>
          <!-- tree 13 -->
          <_>
            <!-- root node -->
            <feature>
              <rects>
                <_>
                  8 9 11 3 -1.</_>
                <_>
                  8 10 11 1 3.</_></rects>
              <tilted>0</tilted></feature>
            <threshold>-9.7039500251412392e-003</threshold>
            <left_val>4.8793280124664307e-001</left_val>
            <right_val>-1.3087989389896393e-001</right_val></_></_>
        <_>
          <!-- tree 14 -->
          <_>
            <!-- root node -->
            <feature>
              <rects>
                <_>
                  10 9 4 8 -1.</_>
                <_>
                  10 9 2 4 2.</_>
                <_>
                  12 13 2 4 2.</_></rects>
              <tilted>0</tilted></feature>
            <threshold>1.8250849097967148e-002</threshold>
            <left_val>1.3874199986457825e-001</left_val>
            <right_val>-6.8381237983703613e-001</right_val></_></_></trees>
      <stage_threshold>-1.3905179500579834e+000</stage_threshold>
      <parent>9</parent>
      <next>-1</next></_>
    <_>
      <!-- stage 11 -->
      <trees>
        <_>
          <!-- tree 0 -->
          <_>
            <!-- root node -->
            <feature>
              <rects>
                <_>
                  10 10 4 3 -1.</_>
                <_>
                  10 11 4 1 3.</_></rects>
              <tilted>0</tilted></feature>
            <threshold>1.4475219650194049e-003</threshold>
            <left_val>-6.2255257368087769e-001</left_val>
            <right_val>-4.8097010701894760e-002</right_val></_></_>
        <_>
          <!-- tree 1 -->
          <_>
            <!-- root node -->
            <feature>
              <rects>
                <_>
                  13 6 1 14 -1.</_>
                <_>
                  13 13 1 7 2.</_></rects>
              <tilted>0</tilted></feature>
            <threshold>-1.0824879631400108e-002</threshold>
            <left_val>-7.2219258546829224e-001</left_val>
            <right_val>1.4681819826364517e-002</right_val></_></_>
        <_>
          <!-- tree 2 -->
          <_>
            <!-- root node -->
            <feature>
              <rects>
                <_>
                  10 6 1 16 -1.</_>
                <_>
                  10 14 1 8 2.</_></rects>
              <tilted>0</tilted></feature>
            <threshold>-1.0924220085144043e-002</threshold>
            <left_val>3.4446349740028381e-001</left_val>
            <right_val>-4.5924729108810425e-001</right_val></_></_>
        <_>
          <!-- tree 3 -->
          <_>
            <!-- root node -->
            <feature>
              <rects>
                <_>
                  7 9 12 6 -1.</_>
                <_>
                  13 9 6 3 2.</_>
                <_>
                  7 12 6 3 2.</_></rects>
              <tilted>0</tilted></feature>
            <threshold>-1.9007179886102676e-002</threshold>
            <left_val>1.3795480132102966e-001</left_val>
            <right_val>-1.8325079977512360e-001</right_val></_></_>
        <_>
          <!-- tree 4 -->
          <_>
            <!-- root node -->
            <feature>
              <rects>
                <_>
                  11 7 1 6 -1.</_>
                <_>
                  11 10 1 3 2.</_></rects>
              <tilted>0</tilted></feature>
            <threshold>-2.7799159288406372e-003</threshold>
            <left_val>-9.7735977172851563e-001</left_val>
            <right_val>1.0039260238409042e-001</right_val></_></_>
        <_>
          <!-- tree 5 -->
          <_>
            <!-- root node -->
            <feature>
              <rects>
                <_>
                  11 12 2 2 -1.</_>
                <_>
                  11 13 2 1 2.</_></rects>
              <tilted>0</tilted></feature>
            <threshold>1.1196500054211356e-005</threshold>
            <left_val>-4.1718220710754395e-001</left_val>
            <right_val>2.3551400005817413e-001</right_val></_></_>
        <_>
          <!-- tree 6 -->
          <_>
            <!-- root node -->
            <feature>
              <rects>
                <_>
                  8 10 7 6 -1.</_>
                <_>
                  8 13 7 3 2.</_></rects>
              <tilted>0</tilted></feature>
            <threshold>6.9143348373472691e-003</threshold>
            <left_val>1.4581759274005890e-001</left_val>
            <right_val>-7.6126968860626221e-001</right_val></_></_>
        <_>
          <!-- tree 7 -->
          <_>
            <!-- root node -->
            <feature>
              <rects>
                <_>
                  10 8 14 4 -1.</_>
                <_>
                  17 8 7 2 2.</_>
                <_>
                  10 10 7 2 2.</_></rects>
              <tilted>0</tilted></feature>
            <threshold>-2.3012539371848106e-002</threshold>
            <left_val>6.5246927738189697e-001</left_val>
            <right_val>-1.1773110181093216e-001</right_val></_></_>
        <_>
          <!-- tree 8 -->
          <_>
            <!-- root node -->
            <feature>
              <rects>
                <_>
                  6 9 10 4 -1.</_>
                <_>
                  6 9 5 2 2.</_>
                <_>
                  11 11 5 2 2.</_></rects>
              <tilted>0</tilted></feature>
            <threshold>5.5551310069859028e-003</threshold>
            <left_val>-3.4085330367088318e-001</left_val>
            <right_val>2.7201470732688904e-001</right_val></_></_>
        <_>
          <!-- tree 9 -->
          <_>
            <!-- root node -->
            <feature>
              <rects>
                <_>
                  11 7 4 8 -1.</_>
                <_>
                  13 7 2 4 2.</_>
                <_>
                  11 11 2 4 2.</_></rects>
              <tilted>0</tilted></feature>
            <threshold>-6.8123689852654934e-003</threshold>
            <left_val>1.9317629933357239e-001</left_val>
            <right_val>-1.8121449649333954e-001</right_val></_></_>
        <_>
          <!-- tree 10 -->
          <_>
            <!-- root node -->
            <feature>
              <rects>
                <_>
                  4 7 16 8 -1.</_>
                <_>
                  4 7 8 4 2.</_>
                <_>
                  12 11 8 4 2.</_></rects>
              <tilted>0</tilted></feature>
            <threshold>4.8972878605127335e-002</threshold>
            <left_val>1.3078540563583374e-001</left_val>
            <right_val>-8.1900429725646973e-001</right_val></_></_>
        <_>
          <!-- tree 11 -->
          <_>
            <!-- root node -->
            <feature>
              <rects>
                <_>
                  10 11 6 2 -1.</_>
                <_>
                  12 11 2 2 3.</_></rects>
              <tilted>0</tilted></feature>
            <threshold>-5.9495661407709122e-003</threshold>
            <left_val>1.3107089698314667e-001</left_val>
            <right_val>-2.4562449753284454e-001</right_val></_></_>
        <_>
          <!-- tree 12 -->
          <_>
            <!-- root node -->
            <feature>
              <rects>
                <_>
                  8 3 6 6 -1.</_>
                <_>
                  8 6 6 3 2.</_></rects>
              <tilted>0</tilted></feature>
            <threshold>1.8304880708456039e-002</threshold>
            <left_val>-3.7896129488945007e-001</left_val>
            <right_val>2.4268549680709839e-001</right_val></_></_>
        <_>
          <!-- tree 13 -->
          <_>
            <!-- root node -->
            <feature>
              <rects>
                <_>
                  14 11 3 2 -1.</_>
                <_>
                  15 11 1 2 3.</_></rects>
              <tilted>0</tilted></feature>
            <threshold>-1.0216339724138379e-003</threshold>
            <left_val>1.3468949496746063e-001</left_val>
            <right_val>-1.2183690071105957e-001</right_val></_></_>
        <_>
          <!-- tree 14 -->
          <_>
            <!-- root node -->
            <feature>
              <rects>
                <_>
                  10 11 3 2 -1.</_>
                <_>
                  11 11 1 2 3.</_></rects>
              <tilted>0</tilted></feature>
            <threshold>7.3292158776894212e-004</threshold>
            <left_val>-8.7356978654861450e-001</left_val>
            <right_val>1.0583779960870743e-001</right_val></_></_>
        <_>
          <!-- tree 15 -->
          <_>
            <!-- root node -->
            <feature>
              <rects>
                <_>
                  12 11 2 1 -1.</_>
                <_>
                  12 11 1 1 2.</_></rects>
              <tilted>0</tilted></feature>
            <threshold>-8.8483421131968498e-004</threshold>
            <left_val>1.2456580251455307e-001</left_val>
            <right_val>-9.1493062674999237e-002</right_val></_></_>
        <_>
          <!-- tree 16 -->
          <_>
            <!-- root node -->
            <feature>
              <rects>
                <_>
                  10 11 2 1 -1.</_>
                <_>
                  11 11 1 1 2.</_></rects>
              <tilted>0</tilted></feature>
            <threshold>3.9881400880403817e-004</threshold>
            <left_val>1.5200939774513245e-001</left_val>
            <right_val>-6.4981210231781006e-001</right_val></_></_>
        <_>
          <!-- tree 17 -->
          <_>
            <!-- root node -->
            <feature>
              <rects>
                <_>
                  11 8 2 2 -1.</_>
                <_>
                  11 8 1 2 2.</_></rects>
              <tilted>0</tilted></feature>
            <threshold>6.3848728314042091e-004</threshold>
            <left_val>3.2202479243278503e-001</left_val>
            <right_val>-2.7713069319725037e-001</right_val></_></_>
        <_>
          <!-- tree 18 -->
          <_>
            <!-- root node -->
            <feature>
              <rects>
                <_>
                  8 8 8 4 -1.</_>
                <_>
                  8 8 4 2 2.</_>
                <_>
                  12 10 4 2 2.</_></rects>
              <tilted>0</tilted></feature>
            <threshold>8.0508049577474594e-003</threshold>
            <left_val>-2.3120960593223572e-001</left_val>
            <right_val>5.2048462629318237e-001</right_val></_></_></trees>
      <stage_threshold>-1.5878750085830688e+000</stage_threshold>
      <parent>10</parent>
      <next>-1</next></_>
    <_>
      <!-- stage 12 -->
      <trees>
        <_>
          <!-- tree 0 -->
          <_>
            <!-- root node -->
            <feature>
              <rects>
                <_>
                  8 12 3 1 -1.</_>
                <_>
                  9 12 1 1 3.</_></rects>
              <tilted>0</tilted></feature>
            <threshold>-6.4237290062010288e-003</threshold>
            <left_val>7.0454549789428711e-001</left_val>
            <right_val>-4.5341831445693970e-001</right_val></_></_>
        <_>
          <!-- tree 1 -->
          <_>
            <!-- root node -->
            <feature>
              <rects>
                <_>
                  14 11 7 9 -1.</_>
                <_>
                  14 14 7 3 3.</_></rects>
              <tilted>0</tilted></feature>
            <threshold>4.3029990047216415e-003</threshold>
            <left_val>-2.4695870280265808e-001</left_val>
            <right_val>7.5967088341712952e-002</right_val></_></_>
        <_>
          <!-- tree 2 -->
          <_>
            <!-- root node -->
            <feature>
              <rects>
                <_>
                  9 10 6 2 -1.</_>
                <_>
                  9 10 3 1 2.</_>
                <_>
                  12 11 3 1 2.</_></rects>
              <tilted>0</tilted></feature>
            <threshold>5.7786637917160988e-003</threshold>
            <left_val>-1.8310770392417908e-001</left_val>
            <right_val>5.5231457948684692e-001</right_val></_></_>
        <_>
          <!-- tree 3 -->
          <_>
            <!-- root node -->
            <feature>
              <rects>
                <_>
                  9 9 10 3 -1.</_>
                <_>
                  9 9 5 3 2.</_></rects>
              <tilted>0</tilted></feature>
            <threshold>-7.9049752093851566e-004</threshold>
            <left_val>-9.7713428735733032e-001</left_val>
            <right_val>6.7195028066635132e-002</right_val></_></_>
        <_>
          <!-- tree 4 -->
          <_>
            <!-- root node -->
            <feature>
              <rects>
                <_>
                  5 9 10 3 -1.</_>
                <_>
                  10 9 5 3 2.</_></rects>
              <tilted>0</tilted></feature>
            <threshold>-2.1086109336465597e-003</threshold>
            <left_val>1.0410170257091522e-001</left_val>
            <right_val>-9.0852499008178711e-001</right_val></_></_>
        <_>
          <!-- tree 5 -->
          <_>
            <!-- root node -->
            <feature>
              <rects>
                <_>
                  14 9 7 12 -1.</_>
                <_>
                  14 13 7 4 3.</_></rects>
              <tilted>0</tilted></feature>
            <threshold>1.0684719681739807e-001</threshold>
            <left_val>3.1689029186964035e-002</left_val>
            <right_val>-8.7477427721023560e-001</right_val></_></_>
        <_>
          <!-- tree 6 -->
          <_>
            <!-- root node -->
            <feature>
              <rects>
                <_>
                  3 9 7 12 -1.</_>
                <_>
                  3 13 7 4 3.</_></rects>
              <tilted>0</tilted></feature>
            <threshold>2.3263089358806610e-002</threshold>
            <left_val>-3.3992791175842285e-001</left_val>
            <right_val>3.2493281364440918e-001</right_val></_></_>
        <_>
          <!-- tree 7 -->
          <_>
            <!-- root node -->
            <feature>
              <rects>
                <_>
                  10 11 6 2 -1.</_>
                <_>
                  12 11 2 2 3.</_></rects>
              <tilted>0</tilted></feature>
            <threshold>-6.2351771630346775e-003</threshold>
            <left_val>1.1356350034475327e-001</left_val>
            <right_val>-2.2243960201740265e-001</right_val></_></_>
        <_>
          <!-- tree 8 -->
          <_>
            <!-- root node -->
            <feature>
              <rects>
                <_>
                  6 5 8 12 -1.</_>
                <_>
                  10 5 4 12 2.</_></rects>
              <tilted>0</tilted></feature>
            <threshold>-4.0605869144201279e-002</threshold>
            <left_val>-5.8443051576614380e-001</left_val>
            <right_val>1.9099830090999603e-001</right_val></_></_>
        <_>
          <!-- tree 9 -->
          <_>
            <!-- root node -->
            <feature>
              <rects>
                <_>
                  1 0 22 8 -1.</_>
                <_>
                  1 4 22 4 2.</_></rects>
              <tilted>0</tilted></feature>
            <threshold>1.0385929793119431e-001</threshold>
            <left_val>-2.4780750274658203e-001</left_val>
            <right_val>3.8336360454559326e-001</right_val></_></_>
        <_>
          <!-- tree 10 -->
          <_>
            <!-- root node -->
            <feature>
              <rects>
                <_>
                  5 9 12 6 -1.</_>
                <_>
                  5 9 6 3 2.</_>
                <_>
                  11 12 6 3 2.</_></rects>
              <tilted>0</tilted></feature>
            <threshold>8.3788409829139709e-003</threshold>
            <left_val>-4.6492698788642883e-001</left_val>
            <right_val>1.9131560623645782e-001</right_val></_></_>
        <_>
          <!-- tree 11 -->
          <_>
            <!-- root node -->
            <feature>
              <rects>
                <_>
                  5 12 14 2 -1.</_>
                <_>
                  5 12 7 2 2.</_></rects>
              <tilted>0</tilted></feature>
            <threshold>7.7896299771964550e-003</threshold>
            <left_val>-7.6902747154235840e-001</left_val>
            <right_val>1.0856959968805313e-001</right_val></_></_>
        <_>
          <!-- tree 12 -->
          <_>
            <!-- root node -->
            <feature>
              <rects>
                <_>
                  2 9 20 5 -1.</_>
                <_>
                  12 9 10 5 2.</_></rects>
              <tilted>0</tilted></feature>
            <threshold>-8.0785349011421204e-002</threshold>
            <left_val>-5.0477099418640137e-001</left_val>
            <right_val>1.8203589320182800e-001</right_val></_></_>
        <_>
          <!-- tree 13 -->
          <_>
            <!-- root node -->
            <feature>
              <rects>
                <_>
                  6 4 12 6 -1.</_>
                <_>
                  12 4 6 3 2.</_>
                <_>
                  6 7 6 3 2.</_></rects>
              <tilted>0</tilted></feature>
            <threshold>5.7411450892686844e-002</threshold>
            <left_val>-1.5809419751167297e-001</left_val>
            <right_val>6.6533648967742920e-001</right_val></_></_>
        <_>
          <!-- tree 14 -->
          <_>
            <!-- root node -->
            <feature>
              <rects>
                <_>
                  10 11 4 6 -1.</_>
                <_>
                  10 14 4 3 2.</_></rects>
              <tilted>0</tilted></feature>
            <threshold>-2.8658630326390266e-003</threshold>
            <left_val>2.2775490581989288e-001</left_val>
            <right_val>-4.3906581401824951e-001</right_val></_></_>
        <_>
          <!-- tree 15 -->
          <_>
            <!-- root node -->
            <feature>
              <rects>
                <_>
                  8 10 9 6 -1.</_>
                <_>
                  8 13 9 3 2.</_></rects>
              <tilted>0</tilted></feature>
            <threshold>-1.4925809577107430e-002</threshold>
            <left_val>-7.2831308841705322e-001</left_val>
            <right_val>1.0447750240564346e-001</right_val></_></_>
        <_>
          <!-- tree 16 -->
          <_>
            <!-- root node -->
            <feature>
              <rects>
                <_>
                  5 1 6 10 -1.</_>
                <_>
                  5 1 3 5 2.</_>
                <_>
                  8 6 3 5 2.</_></rects>
              <tilted>0</tilted></feature>
            <threshold>3.2287719659507275e-003</threshold>
            <left_val>-4.1101199388504028e-001</left_val>
            <right_val>2.0586310327053070e-001</right_val></_></_>
        <_>
          <!-- tree 17 -->
          <_>
            <!-- root node -->
            <feature>
              <rects>
                <_>
                  11 11 3 2 -1.</_>
                <_>
                  12 11 1 2 3.</_></rects>
              <tilted>0</tilted></feature>
            <threshold>-6.3141208374872804e-004</threshold>
            <left_val>5.4931469261646271e-002</left_val>
            <right_val>-2.2891940176486969e-001</right_val></_></_>
        <_>
          <!-- tree 18 -->
          <_>
            <!-- root node -->
            <feature>
              <rects>
                <_>
                  0 9 3 10 -1.</_>
                <_>
                  0 14 3 5 2.</_></rects>
              <tilted>0</tilted></feature>
            <threshold>-1.2910899706184864e-002</threshold>
            <left_val>2.9551771283149719e-001</left_val>
            <right_val>-2.7480539679527283e-001</right_val></_></_>
        <_>
          <!-- tree 19 -->
          <_>
            <!-- root node -->
            <feature>
              <rects>
                <_>
                  12 11 2 1 -1.</_>
                <_>
                  12 11 1 1 2.</_></rects>
              <tilted>0</tilted></feature>
            <threshold>3.2272809185087681e-003</threshold>
            <left_val>-3.3313091844320297e-002</left_val>
            <right_val>6.1020737886428833e-001</right_val></_></_>
        <_>
          <!-- tree 20 -->
          <_>
            <!-- root node -->
            <feature>
              <rects>
                <_>
                  10 11 2 1 -1.</_>
                <_>
                  11 11 1 1 2.</_></rects>
              <tilted>0</tilted></feature>
            <threshold>-8.6525297956541181e-004</threshold>
            <left_val>-9.9622619152069092e-001</left_val>
            <right_val>8.3160601556301117e-002</right_val></_></_>
        <_>
          <!-- tree 21 -->
          <_>
            <!-- root node -->
            <feature>
              <rects>
                <_>
                  11 16 3 1 -1.</_>
                <_>
                  12 16 1 1 3.</_></rects>
              <tilted>0</tilted></feature>
            <threshold>4.7112959437072277e-003</threshold>
            <left_val>-8.4498032927513123e-002</left_val>
            <right_val>8.1964248418807983e-001</right_val></_></_>
        <_>
          <!-- tree 22 -->
          <_>
            <!-- root node -->
            <feature>
              <rects>
                <_>
                  11 9 1 4 -1.</_>
                <_>
                  11 11 1 2 2.</_></rects>
              <tilted>0</tilted></feature>
            <threshold>-5.4867187282070518e-004</threshold>
            <left_val>3.4587779641151428e-001</left_val>
            <right_val>-2.4910369515419006e-001</right_val></_></_></trees>
      <stage_threshold>-1.6303880214691162e+000</stage_threshold>
      <parent>11</parent>
      <next>-1</next></_>
    <_>
      <!-- stage 13 -->
      <trees>
        <_>
          <!-- tree 0 -->
          <_>
            <!-- root node -->
            <feature>
              <rects>
                <_>
                  8 11 3 3 -1.</_>
                <_>
                  9 11 1 3 3.</_></rects>
              <tilted>0</tilted></feature>
            <threshold>-4.9024168401956558e-003</threshold>
            <left_val>2.0499110221862793e-001</left_val>
            <right_val>-5.2447772026062012e-001</right_val></_></_>
        <_>
          <!-- tree 1 -->
          <_>
            <!-- root node -->
            <feature>
              <rects>
                <_>
                  11 15 6 6 -1.</_>
                <_>
                  11 18 6 3 2.</_></rects>
              <tilted>0</tilted></feature>
            <threshold>-3.4380499273538589e-002</threshold>
            <left_val>2.9239681363105774e-001</left_val>
            <right_val>-1.7144720256328583e-001</right_val></_></_>
        <_>
          <!-- tree 2 -->
          <_>
            <!-- root node -->
            <feature>
              <rects>
                <_>
                  5 9 10 3 -1.</_>
                <_>
                  10 9 5 3 2.</_></rects>
              <tilted>0</tilted></feature>
            <threshold>-2.1086109336465597e-003</threshold>
            <left_val>1.0656169801950455e-001</left_val>
            <right_val>-9.1822910308837891e-001</right_val></_></_>
        <_>
          <!-- tree 3 -->
          <_>
            <!-- root node -->
            <feature>
              <rects>
                <_>
                  0 0 24 12 -1.</_>
                <_>
                  0 6 24 6 2.</_></rects>
              <tilted>0</tilted></feature>
            <threshold>1.7040510475635529e-001</threshold>
            <left_val>-3.7982800602912903e-001</left_val>
            <right_val>2.6993981003761292e-001</right_val></_></_>
        <_>
          <!-- tree 4 -->
          <_>
            <!-- root node -->
            <feature>
              <rects>
                <_>
                  9 6 6 5 -1.</_>
                <_>
                  11 6 2 5 3.</_></rects>
              <tilted>0</tilted></feature>
            <threshold>4.7776098363101482e-003</threshold>
            <left_val>-3.7358981370925903e-001</left_val>
            <right_val>2.6947969198226929e-001</right_val></_></_>
        <_>
          <!-- tree 5 -->
          <_>
            <!-- root node -->
            <feature>
              <rects>
                <_>
                  9 10 6 2 -1.</_>
                <_>
                  11 10 2 2 3.</_></rects>
              <tilted>0</tilted></feature>
            <threshold>-1.6106039984151721e-003</threshold>
            <left_val>4.1548478603363037e-001</left_val>
            <right_val>-2.8302270174026489e-001</right_val></_></_>
        <_>
          <!-- tree 6 -->
          <_>
            <!-- root node -->
            <feature>
              <rects>
                <_>
                  9 10 6 1 -1.</_>
                <_>
                  11 10 2 1 3.</_></rects>
              <tilted>0</tilted></feature>
            <threshold>5.6470190174877644e-003</threshold>
            <left_val>-1.9907470047473907e-001</left_val>
            <right_val>5.4981940984725952e-001</right_val></_></_>
        <_>
          <!-- tree 7 -->
          <_>
            <!-- root node -->
            <feature>
              <rects>
                <_>
                  11 8 11 15 -1.</_>
                <_>
                  11 13 11 5 3.</_></rects>
              <tilted>0</tilted></feature>
            <threshold>3.3706031739711761e-002</threshold>
            <left_val>-1.7276670038700104e-001</left_val>
            <right_val>1.2426079809665680e-001</right_val></_></_>
        <_>
          <!-- tree 8 -->
          <_>
            <!-- root node -->
            <feature>
              <rects>
                <_>
                  10 13 2 4 -1.</_>
                <_>
                  10 13 1 2 2.</_>
                <_>
                  11 15 1 2 2.</_></rects>
              <tilted>0</tilted></feature>
            <threshold>-2.5804869364947081e-003</threshold>
            <left_val>5.3446698188781738e-001</left_val>
            <right_val>-1.6822159290313721e-001</right_val></_></_>
        <_>
          <!-- tree 9 -->
          <_>
            <!-- root node -->
            <feature>
              <rects>
                <_>
                  12 11 2 2 -1.</_>
                <_>
                  12 11 1 2 2.</_></rects>
              <tilted>0</tilted></feature>
            <threshold>-5.5466759949922562e-003</threshold>
            <left_val>-6.4689791202545166e-001</left_val>
            <right_val>4.0446829050779343e-002</right_val></_></_>
        <_>
          <!-- tree 10 -->
          <_>
            <!-- root node -->
            <feature>
              <rects>
                <_>
                  10 11 2 2 -1.</_>
                <_>
                  11 11 1 2 2.</_></rects>
              <tilted>0</tilted></feature>
            <threshold>-9.8773161880671978e-004</threshold>
            <left_val>-8.8879257440567017e-001</left_val>
            <right_val>9.0914092957973480e-002</right_val></_></_>
        <_>
          <!-- tree 11 -->
          <_>
            <!-- root node -->
            <feature>
              <rects>
                <_>
                  11 10 4 1 -1.</_>
                <_>
                  11 10 2 1 2.</_></rects>
              <tilted>0</tilted></feature>
            <threshold>-1.8756319768726826e-003</threshold>
            <left_val>5.7925331592559814e-001</left_val>
            <right_val>-1.2702870368957520e-001</right_val></_></_>
        <_>
          <!-- tree 12 -->
          <_>
            <!-- root node -->
            <feature>
              <rects>
                <_>
                  9 7 6 16 -1.</_>
                <_>
                  9 7 3 8 2.</_>
                <_>
                  12 15 3 8 2.</_></rects>
              <tilted>0</tilted></feature>
            <threshold>7.5828521512448788e-003</threshold>
            <left_val>-6.1012911796569824e-001</left_val>
            <right_val>1.7549780011177063e-001</right_val></_></_>
        <_>
          <!-- tree 13 -->
          <_>
            <!-- root node -->
            <feature>
              <rects>
                <_>
                  3 11 18 6 -1.</_>
                <_>
                  12 11 9 3 2.</_>
                <_>
                  3 14 9 3 2.</_></rects>
              <tilted>0</tilted></feature>
            <threshold>5.5407639592885971e-003</threshold>
            <left_val>-2.0054750144481659e-001</left_val>
            <right_val>4.6824368834495544e-001</right_val></_></_>
        <_>
          <!-- tree 14 -->
          <_>
            <!-- root node -->
            <feature>
              <rects>
                <_>
                  11 8 2 1 -1.</_>
                <_>
                  12 8 1 1 2.</_></rects>
              <tilted>0</tilted></feature>
            <threshold>-6.0062151169404387e-004</threshold>
            <left_val>-4.0777361392974854e-001</left_val>
            <right_val>2.5594809651374817e-001</right_val></_></_>
        <_>
          <!-- tree 15 -->
          <_>
            <!-- root node -->
            <feature>
              <rects>
                <_>
                  6 12 12 2 -1.</_>
                <_>
                  6 12 6 2 2.</_></rects>
              <tilted>0</tilted></feature>
            <threshold>4.6722791157662868e-003</threshold>
            <left_val>-8.9264112710952759e-001</left_val>
            <right_val>1.0654719918966293e-001</right_val></_></_>
        <_>
          <!-- tree 16 -->
          <_>
            <!-- root node -->
            <feature>
              <rects>
                <_>
                  8 16 3 3 -1.</_>
                <_>
                  8 17 3 1 3.</_></rects>
              <tilted>0</tilted></feature>
            <threshold>5.5155749432742596e-003</threshold>
            <left_val>-1.6290000081062317e-001</left_val>
            <right_val>5.9410822391510010e-001</right_val></_></_>
        <_>
          <!-- tree 17 -->
          <_>
            <!-- root node -->
            <feature>
              <rects>
                <_>
                  12 11 2 2 -1.</_>
                <_>
                  12 12 2 1 2.</_></rects>
              <tilted>0</tilted></feature>
            <threshold>-8.0598198110237718e-004</threshold>
            <left_val>2.0655399560928345e-001</left_val>
            <right_val>-8.2629762589931488e-002</right_val></_></_>
        <_>
          <!-- tree 18 -->
          <_>
            <!-- root node -->
            <feature>
              <rects>
                <_>
                  8 11 6 1 -1.</_>
                <_>
                  10 11 2 1 3.</_></rects>
              <tilted>0</tilted></feature>
            <threshold>1.0570910526439548e-003</threshold>
            <left_val>-8.0108630657196045e-001</left_val>
            <right_val>1.2245590239763260e-001</right_val></_></_></trees>
      <stage_threshold>-1.3749049901962280e+000</stage_threshold>
      <parent>12</parent>
      <next>-1</next></_></stages></cascade>
</opencv_storage>
