<?xml version="1.0"?>
<opencv_storage>
<cascade type_id="opencv-haar-classifier">
  <size>
    24 24</size>
  <stages>
    <_>
      <!-- stage 0 -->
      <trees>
        <_>
          <!-- tree 0 -->
          <_>
            <!-- root node -->
            <feature>
              <rects>
                <_>
                  10 1 3 18 -1.</_>
                <_>
                  10 7 3 6 3.</_></rects>
              <tilted>0</tilted></feature>
            <threshold>4.8613969236612320e-002</threshold>
            <left_val>-9.0753149986267090e-001</left_val>
            <right_val>5.6355881690979004e-001</right_val></_></_>
        <_>
          <!-- tree 1 -->
          <_>
            <!-- root node -->
            <feature>
              <rects>
                <_>
                  12 9 1 4 -1.</_>
                <_>
                  12 11 1 2 2.</_></rects>
              <tilted>0</tilted></feature>
            <threshold>-5.3658452816307545e-004</threshold>
            <left_val>1.4087720215320587e-001</left_val>
            <right_val>-7.0132952928543091e-001</right_val></_></_>
        <_>
          <!-- tree 2 -->
          <_>
            <!-- root node -->
            <feature>
              <rects>
                <_>
                  1 8 18 4 -1.</_>
                <_>
                  7 8 6 4 3.</_></rects>
              <tilted>0</tilted></feature>
            <threshold>2.1943179890513420e-002</threshold>
            <left_val>-8.7841737270355225e-001</left_val>
            <right_val>3.8010779023170471e-001</right_val></_></_>
        <_>
          <!-- tree 3 -->
          <_>
            <!-- root node -->
            <feature>
              <rects>
                <_>
                  17 10 4 10 -1.</_>
                <_>
                  17 15 4 5 2.</_></rects>
              <tilted>0</tilted></feature>
            <threshold>-2.4509120732545853e-002</threshold>
            <left_val>2.0296959578990936e-001</left_val>
            <right_val>-2.1301630139350891e-001</right_val></_></_>
        <_>
          <!-- tree 4 -->
          <_>
            <!-- root node -->
            <feature>
              <rects>
                <_>
                  11 9 1 4 -1.</_>
                <_>
                  11 11 1 2 2.</_></rects>
              <tilted>0</tilted></feature>
            <threshold>-9.7636261489242315e-004</threshold>
            <left_val>3.8814660906791687e-001</left_val>
            <right_val>-8.0891698598861694e-001</right_val></_></_></trees>
      <stage_threshold>-1.4699410200119019e+000</stage_threshold>
      <parent>-1</parent>
      <next>-1</next></_>
    <_>
      <!-- stage 1 -->
      <trees>
        <_>
          <!-- tree 0 -->
          <_>
            <!-- root node -->
            <feature>
              <rects>
                <_>
                  1 0 22 24 -1.</_>
                <_>
                  1 8 22 8 3.</_></rects>
              <tilted>0</tilted></feature>
            <threshold>4.0119159221649170e-001</threshold>
            <left_val>-8.0990982055664063e-001</left_val>
            <right_val>6.0738128423690796e-001</right_val></_></_>
        <_>
          <!-- tree 1 -->
          <_>
            <!-- root node -->
            <feature>
              <rects>
                <_>
                  8 9 9 4 -1.</_>
                <_>
                  11 9 3 4 3.</_></rects>
              <tilted>0</tilted></feature>
            <threshold>1.7319109290838242e-002</threshold>
            <left_val>-3.5933411121368408e-001</left_val>
            <right_val>2.4154059588909149e-001</right_val></_></_>
        <_>
          <!-- tree 2 -->
          <_>
            <!-- root node -->
            <feature>
              <rects>
                <_>
                  5 9 12 4 -1.</_>
                <_>
                  9 9 4 4 3.</_></rects>
              <tilted>0</tilted></feature>
            <threshold>1.3226740062236786e-002</threshold>
            <left_val>-8.4021532535552979e-001</left_val>
            <right_val>3.1521460413932800e-001</right_val></_></_>
        <_>
          <!-- tree 3 -->
          <_>
            <!-- root node -->
            <feature>
              <rects>
                <_>
                  12 9 3 6 -1.</_>
                <_>
                  12 12 3 3 2.</_></rects>
              <tilted>0</tilted></feature>
            <threshold>-1.4886629767715931e-002</threshold>
            <left_val>-6.0470378398895264e-001</left_val>
            <right_val>3.1444121152162552e-002</right_val></_></_>
        <_>
          <!-- tree 4 -->
          <_>
            <!-- root node -->
            <feature>
              <rects>
                <_>
                  9 10 4 4 -1.</_>
                <_>
                  9 12 4 2 2.</_></rects>
              <tilted>0</tilted></feature>
            <threshold>-3.8748339284211397e-003</threshold>
            <left_val>3.2262951135635376e-001</left_val>
            <right_val>-8.2335382699966431e-001</right_val></_></_>
        <_>
          <!-- tree 5 -->
          <_>
            <!-- root node -->
            <feature>
              <rects>
                <_>
                  6 10 14 3 -1.</_>
                <_>
                  6 10 7 3 2.</_></rects>
              <tilted>0</tilted></feature>
            <threshold>-4.5839510858058929e-003</threshold>
            <left_val>-8.6180722713470459e-001</left_val>
            <right_val>1.3059179484844208e-001</right_val></_></_>
        <_>
          <!-- tree 6 -->
          <_>
            <!-- root node -->
            <feature>
              <rects>
                <_>
                  2 10 20 4 -1.</_>
                <_>
                  12 10 10 4 2.</_></rects>
              <tilted>0</tilted></feature>
            <threshold>-5.4273530840873718e-002</threshold>
            <left_val>-8.5496568679809570e-001</left_val>
            <right_val>1.9344510138034821e-001</right_val></_></_></trees>
      <stage_threshold>-1.3313490152359009e+000</stage_threshold>
      <parent>0</parent>
      <next>-1</next></_>
    <_>
      <!-- stage 2 -->
      <trees>
        <_>
          <!-- tree 0 -->
          <_>
            <!-- root node -->
            <feature>
              <rects>
                <_>
                  0 0 23 21 -1.</_>
                <_>
                  0 7 23 7 3.</_></rects>
              <tilted>0</tilted></feature>
            <threshold>3.8312670588493347e-001</threshold>
            <left_val>-7.8524518013000488e-001</left_val>
            <right_val>4.3399280309677124e-001</right_val></_></_>
        <_>
          <!-- tree 1 -->
          <_>
            <!-- root node -->
            <feature>
              <rects>
                <_>
                  8 9 9 4 -1.</_>
                <_>
                  11 9 3 4 3.</_></rects>
              <tilted>0</tilted></feature>
            <threshold>1.8018549308180809e-002</threshold>
            <left_val>-3.1105759739875793e-001</left_val>
            <right_val>1.2018880248069763e-001</right_val></_></_>
        <_>
          <!-- tree 2 -->
          <_>
            <!-- root node -->
            <feature>
              <rects>
                <_>
                  3 13 11 6 -1.</_>
                <_>
                  3 16 11 3 2.</_></rects>
              <tilted>0</tilted></feature>
            <threshold>-2.3188630118966103e-002</threshold>
            <left_val>3.9876610040664673e-001</left_val>
            <right_val>-4.9127921462059021e-001</right_val></_></_>
        <_>
          <!-- tree 3 -->
          <_>
            <!-- root node -->
            <feature>
              <rects>
                <_>
                  12 8 2 6 -1.</_>
                <_>
                  12 11 2 3 2.</_></rects>
              <tilted>0</tilted></feature>
            <threshold>-4.4662728905677795e-003</threshold>
            <left_val>2.0887400209903717e-001</left_val>
            <right_val>-2.6283851265907288e-001</right_val></_></_>
        <_>
          <!-- tree 4 -->
          <_>
            <!-- root node -->
            <feature>
              <rects>
                <_>
                  10 9 2 4 -1.</_>
                <_>
                  10 11 2 2 2.</_></rects>
              <tilted>0</tilted></feature>
            <threshold>-8.9198502246290445e-004</threshold>
            <left_val>2.4492989480495453e-001</left_val>
            <right_val>-9.0024971961975098e-001</right_val></_></_>
        <_>
          <!-- tree 5 -->
          <_>
            <!-- root node -->
            <feature>
              <rects>
                <_>
                  8 8 9 8 -1.</_>
                <_>
                  11 8 3 8 3.</_></rects>
              <tilted>0</tilted></feature>
            <threshold>-2.1779770031571388e-002</threshold>
            <left_val>-8.2766991853713989e-001</left_val>
            <right_val>9.8778260871767998e-003</right_val></_></_>
        <_>
          <!-- tree 6 -->
          <_>
            <!-- root node -->
            <feature>
              <rects>
                <_>
                  1 8 18 7 -1.</_>
                <_>
                  7 8 6 7 3.</_></rects>
              <tilted>0</tilted></feature>
            <threshold>2.3954199627041817e-002</threshold>
            <left_val>-9.0983617305755615e-001</left_val>
            <right_val>1.8670259416103363e-001</right_val></_></_>
        <_>
          <!-- tree 7 -->
          <_>
            <!-- root node -->
            <feature>
              <rects>
                <_>
                  7 8 10 8 -1.</_>
                <_>
                  12 8 5 4 2.</_>
                <_>
                  7 12 5 4 2.</_></rects>
              <tilted>0</tilted></feature>
            <threshold>-7.0947362110018730e-003</threshold>
            <left_val>2.3006010055541992e-001</left_val>
            <right_val>-6.2700647115707397e-001</right_val></_></_>
        <_>
          <!-- tree 8 -->
          <_>
            <!-- root node -->
            <feature>
              <rects>
                <_>
                  7 6 6 6 -1.</_>
                <_>
                  10 6 3 6 2.</_></rects>
              <tilted>0</tilted></feature>
            <threshold>1.9603329710662365e-003</threshold>
            <left_val>-6.3373541831970215e-001</left_val>
            <right_val>2.4603240191936493e-001</right_val></_></_>
        <_>
          <!-- tree 9 -->
          <_>
            <!-- root node -->
            <feature>
              <rects>
                <_>
                  11 10 8 4 -1.</_>
                <_>
                  11 10 4 4 2.</_></rects>
              <tilted>0</tilted></feature>
            <threshold>-9.6291173249483109e-003</threshold>
            <left_val>-9.4815641641616821e-001</left_val>
            <right_val>4.3337880633771420e-003</right_val></_></_>
        <_>
          <!-- tree 10 -->
          <_>
            <!-- root node -->
            <feature>
              <rects>
                <_>
                  5 10 8 4 -1.</_>
                <_>
                  9 10 4 4 2.</_></rects>
              <tilted>0</tilted></feature>
            <threshold>1.6563329845666885e-002</threshold>
            <left_val>2.8645059466362000e-001</left_val>
            <right_val>-8.1360757350921631e-001</right_val></_></_></trees>
      <stage_threshold>-1.4990999698638916e+000</stage_threshold>
      <parent>1</parent>
      <next>-1</next></_>
    <_>
      <!-- stage 3 -->
      <trees>
        <_>
          <!-- tree 0 -->
          <_>
            <!-- root node -->
            <feature>
              <rects>
                <_>
                  1 0 22 24 -1.</_>
                <_>
                  1 8 22 8 3.</_></rects>
              <tilted>0</tilted></feature>
            <threshold>4.9868351221084595e-001</threshold>
            <left_val>-7.1503180265426636e-001</left_val>
            <right_val>2.9886418581008911e-001</right_val></_></_>
        <_>
          <!-- tree 1 -->
          <_>
            <!-- root node -->
            <feature>
              <rects>
                <_>
                  11 10 3 3 -1.</_>
                <_>
                  12 10 1 3 3.</_></rects>
              <tilted>0</tilted></feature>
            <threshold>2.0660609006881714e-003</threshold>
            <left_val>-6.5736061334609985e-001</left_val>
            <right_val>3.9337238669395447e-001</right_val></_></_>
        <_>
          <!-- tree 2 -->
          <_>
            <!-- root node -->
            <feature>
              <rects>
                <_>
                  10 11 2 2 -1.</_>
                <_>
                  11 11 1 2 2.</_></rects>
              <tilted>0</tilted></feature>
            <threshold>-1.9006989896297455e-004</threshold>
            <left_val>2.8583168983459473e-001</left_val>
            <right_val>-5.3236532211303711e-001</right_val></_></_>
        <_>
          <!-- tree 3 -->
          <_>
            <!-- root node -->
            <feature>
              <rects>
                <_>
                  11 6 8 9 -1.</_>
                <_>
                  11 6 4 9 2.</_></rects>
              <tilted>0</tilted></feature>
            <threshold>9.3720778822898865e-002</threshold>
            <left_val>1.9812799990177155e-002</left_val>
            <right_val>-8.0359870195388794e-001</right_val></_></_>
        <_>
          <!-- tree 4 -->
          <_>
            <!-- root node -->
            <feature>
              <rects>
                <_>
                  5 6 8 9 -1.</_>
                <_>
                  9 6 4 9 2.</_></rects>
              <tilted>0</tilted></feature>
            <threshold>2.1938800346106291e-003</threshold>
            <left_val>-7.6625108718872070e-001</left_val>
            <right_val>2.2297349572181702e-001</right_val></_></_>
        <_>
          <!-- tree 5 -->
          <_>
            <!-- root node -->
            <feature>
              <rects>
                <_>
                  9 1 15 8 -1.</_>
                <_>
                  9 5 15 4 2.</_></rects>
              <tilted>0</tilted></feature>
            <threshold>8.2098677754402161e-002</threshold>
            <left_val>-2.1110829710960388e-001</left_val>
            <right_val>3.8428258895874023e-001</right_val></_></_>
        <_>
          <!-- tree 6 -->
          <_>
            <!-- root node -->
            <feature>
              <rects>
                <_>
                  8 10 3 6 -1.</_>
                <_>
                  8 13 3 3 2.</_></rects>
              <tilted>0</tilted></feature>
            <threshold>-4.5864558778703213e-003</threshold>
            <left_val>2.2156929969787598e-001</left_val>
            <right_val>-7.6401317119598389e-001</right_val></_></_>
        <_>
          <!-- tree 7 -->
          <_>
            <!-- root node -->
            <feature>
              <rects>
                <_>
                  12 10 2 4 -1.</_>
                <_>
                  12 12 2 2 2.</_></rects>
              <tilted>0</tilted></feature>
            <threshold>-1.3768780045211315e-002</threshold>
            <left_val>-8.5002201795578003e-001</left_val>
            <right_val>-9.7702238708734512e-003</right_val></_></_>
        <_>
          <!-- tree 8 -->
          <_>
            <!-- root node -->
            <feature>
              <rects>
                <_>
                  5 6 12 8 -1.</_>
                <_>
                  11 6 6 8 2.</_></rects>
              <tilted>0</tilted></feature>
            <threshold>1.6281979158520699e-002</threshold>
            <left_val>2.0344120264053345e-001</left_val>
            <right_val>-7.3086518049240112e-001</right_val></_></_></trees>
      <stage_threshold>-1.5087980031967163e+000</stage_threshold>
      <parent>2</parent>
      <next>-1</next></_>
    <_>
      <!-- stage 4 -->
      <trees>
        <_>
          <!-- tree 0 -->
          <_>
            <!-- root node -->
            <feature>
              <rects>
                <_>
                  9 2 5 8 -1.</_>
                <_>
                  9 6 5 4 2.</_></rects>
              <tilted>0</tilted></feature>
            <threshold>4.2883049696683884e-002</threshold>
            <left_val>-7.0635497570037842e-001</left_val>
            <right_val>1.2334690243005753e-001</right_val></_></_>
        <_>
          <!-- tree 1 -->
          <_>
            <!-- root node -->
            <feature>
              <rects>
                <_>
                  7 10 10 9 -1.</_>
                <_>
                  7 13 10 3 3.</_></rects>
              <tilted>0</tilted></feature>
            <threshold>8.2463249564170837e-003</threshold>
            <left_val>-5.2105748653411865e-001</left_val>
            <right_val>3.2666918635368347e-001</right_val></_></_>
        <_>
          <!-- tree 2 -->
          <_>
            <!-- root node -->
            <feature>
              <rects>
                <_>
                  11 10 2 4 -1.</_>
                <_>
                  11 12 2 2 2.</_></rects>
              <tilted>0</tilted></feature>
            <threshold>-1.9081720383837819e-003</threshold>
            <left_val>1.9226549565792084e-001</left_val>
            <right_val>-8.7852877378463745e-001</right_val></_></_>
        <_>
          <!-- tree 3 -->
          <_>
            <!-- root node -->
            <feature>
              <rects>
                <_>
                  11 10 3 3 -1.</_>
                <_>
                  12 10 1 3 3.</_></rects>
              <tilted>0</tilted></feature>
            <threshold>1.1984299635514617e-003</threshold>
            <left_val>-6.2203162908554077e-001</left_val>
            <right_val>2.3319840431213379e-001</right_val></_></_>
        <_>
          <!-- tree 4 -->
          <_>
            <!-- root node -->
            <feature>
              <rects>
                <_>
                  10 11 2 2 -1.</_>
                <_>
                  11 11 1 2 2.</_></rects>
              <tilted>0</tilted></feature>
            <threshold>4.0794789674691856e-004</threshold>
            <left_val>1.7540889978408813e-001</left_val>
            <right_val>-8.2945567369461060e-001</right_val></_></_>
        <_>
          <!-- tree 5 -->
          <_>
            <!-- root node -->
            <feature>
              <rects>
                <_>
                  3 4 18 13 -1.</_>
                <_>
                  3 4 9 13 2.</_></rects>
              <tilted>0</tilted></feature>
            <threshold>1.4284069836139679e-001</threshold>
            <left_val>1.3066969811916351e-001</left_val>
            <right_val>-9.4012492895126343e-001</right_val></_></_>
        <_>
          <!-- tree 6 -->
          <_>
            <!-- root node -->
            <feature>
              <rects>
                <_>
                  5 9 14 3 -1.</_>
                <_>
                  12 9 7 3 2.</_></rects>
              <tilted>0</tilted></feature>
            <threshold>-1.2344979681074619e-002</threshold>
            <left_val>2.1355520188808441e-001</left_val>
            <right_val>-5.9386140108108521e-001</right_val></_></_>
        <_>
          <!-- tree 7 -->
          <_>
            <!-- root node -->
            <feature>
              <rects>
                <_>
                  12 8 2 9 -1.</_>
                <_>
                  12 11 2 3 3.</_></rects>
              <tilted>0</tilted></feature>
            <threshold>-2.1158950403332710e-002</threshold>
            <left_val>-8.9478808641433716e-001</left_val>
            <right_val>1.4230939559638500e-002</right_val></_></_>
        <_>
          <!-- tree 8 -->
          <_>
            <!-- root node -->
            <feature>
              <rects>
                <_>
                  10 8 2 9 -1.</_>
                <_>
                  10 11 2 3 3.</_></rects>
              <tilted>0</tilted></feature>
            <threshold>-9.0889427810907364e-003</threshold>
            <left_val>-8.9655137062072754e-001</left_val>
            <right_val>1.5077820420265198e-001</right_val></_></_></trees>
      <stage_threshold>-1.1880999803543091e+000</stage_threshold>
      <parent>3</parent>
      <next>-1</next></_>
    <_>
      <!-- stage 5 -->
      <trees>
        <_>
          <!-- tree 0 -->
          <_>
            <!-- root node -->
            <feature>
              <rects>
                <_>
                  1 13 22 10 -1.</_>
                <_>
                  1 18 22 5 2.</_></rects>
              <tilted>0</tilted></feature>
            <threshold>-1.5814070403575897e-001</threshold>
            <left_val>1.8706570565700531e-001</left_val>
            <right_val>-6.2668651342391968e-001</right_val></_></_>
        <_>
          <!-- tree 1 -->
          <_>
            <!-- root node -->
            <feature>
              <rects>
                <_>
                  10 2 6 8 -1.</_>
                <_>
                  10 6 6 4 2.</_></rects>
              <tilted>0</tilted></feature>
            <threshold>2.2285740822553635e-002</threshold>
            <left_val>-4.8270180821418762e-001</left_val>
            <right_val>1.6647909581661224e-001</right_val></_></_>
        <_>
          <!-- tree 2 -->
          <_>
            <!-- root node -->
            <feature>
              <rects>
                <_>
                  10 9 3 4 -1.</_>
                <_>
                  10 11 3 2 2.</_></rects>
              <tilted>0</tilted></feature>
            <threshold>-3.0737828928977251e-003</threshold>
            <left_val>2.3146709799766541e-001</left_val>
            <right_val>-6.6482722759246826e-001</right_val></_></_>
        <_>
          <!-- tree 3 -->
          <_>
            <!-- root node -->
            <feature>
              <rects>
                <_>
                  8 8 9 8 -1.</_>
                <_>
                  11 8 3 8 3.</_></rects>
              <tilted>0</tilted></feature>
            <threshold>9.9392272531986237e-003</threshold>
            <left_val>-1.9650499522686005e-001</left_val>
            <right_val>1.1836609989404678e-001</right_val></_></_>
        <_>
          <!-- tree 4 -->
          <_>
            <!-- root node -->
            <feature>
              <rects>
                <_>
                  4 11 12 3 -1.</_>
                <_>
                  8 11 4 3 3.</_></rects>
              <tilted>0</tilted></feature>
            <threshold>2.5217039510607719e-002</threshold>
            <left_val>1.9305339455604553e-001</left_val>
            <right_val>-8.1858330965042114e-001</right_val></_></_>
        <_>
          <!-- tree 5 -->
          <_>
            <!-- root node -->
            <feature>
              <rects>
                <_>
                  6 9 12 4 -1.</_>
                <_>
                  6 9 6 4 2.</_></rects>
              <tilted>0</tilted></feature>
            <threshold>1.3806919567286968e-002</threshold>
            <left_val>-6.6687750816345215e-001</left_val>
            <right_val>2.2634740173816681e-001</right_val></_></_>
        <_>
          <!-- tree 6 -->
          <_>
            <!-- root node -->
            <feature>
              <rects>
                <_>
                  5 9 12 9 -1.</_>
                <_>
                  5 12 12 3 3.</_></rects>
              <tilted>0</tilted></feature>
            <threshold>6.3161831349134445e-003</threshold>
            <left_val>-4.4689950346946716e-001</left_val>
            <right_val>2.8994509577751160e-001</right_val></_></_>
        <_>
          <!-- tree 7 -->
          <_>
            <!-- root node -->
            <feature>
              <rects>
                <_>
                  12 11 3 2 -1.</_>
                <_>
                  12 12 3 1 2.</_></rects>
              <tilted>0</tilted></feature>
            <threshold>-2.5897019077092409e-003</threshold>
            <left_val>2.0714730024337769e-001</left_val>
            <right_val>-1.0391169786453247e-001</right_val></_></_>
        <_>
          <!-- tree 8 -->
          <_>
            <!-- root node -->
            <feature>
              <rects>
                <_>
                  5 10 6 4 -1.</_>
                <_>
                  8 10 3 4 2.</_></rects>
              <tilted>0</tilted></feature>
            <threshold>-2.3203360615298152e-004</threshold>
            <left_val>-6.2628531455993652e-001</left_val>
            <right_val>1.7362070083618164e-001</right_val></_></_>
        <_>
          <!-- tree 9 -->
          <_>
            <!-- root node -->
            <feature>
              <rects>
                <_>
                  0 9 24 4 -1.</_>
                <_>
                  8 9 8 4 3.</_></rects>
              <tilted>0</tilted></feature>
            <threshold>1.0620660334825516e-001</threshold>
            <left_val>1.3089959323406219e-001</left_val>
            <right_val>-7.8510832786560059e-001</right_val></_></_>
        <_>
          <!-- tree 10 -->
          <_>
            <!-- root node -->
            <feature>
              <rects>
                <_>
                  9 12 6 3 -1.</_>
                <_>
                  12 12 3 3 2.</_></rects>
              <tilted>0</tilted></feature>
            <threshold>-7.9639460891485214e-003</threshold>
            <left_val>-8.5458481311798096e-001</left_val>
            <right_val>1.1450540274381638e-001</right_val></_></_>
        <_>
          <!-- tree 11 -->
          <_>
            <!-- root node -->
            <feature>
              <rects>
                <_>
                  8 5 9 8 -1.</_>
                <_>
                  11 5 3 8 3.</_></rects>
              <tilted>0</tilted></feature>
            <threshold>2.0784549415111542e-002</threshold>
            <left_val>-3.0681559443473816e-001</left_val>
            <right_val>2.0998780429363251e-001</right_val></_></_></trees>
      <stage_threshold>-1.4135359525680542e+000</stage_threshold>
      <parent>4</parent>
      <next>-1</next></_>
    <_>
      <!-- stage 6 -->
      <trees>
        <_>
          <!-- tree 0 -->
          <_>
            <!-- root node -->
            <feature>
              <rects>
                <_>
                  1 0 22 10 -1.</_>
                <_>
                  1 5 22 5 2.</_></rects>
              <tilted>0</tilted></feature>
            <threshold>1.1519909650087357e-001</threshold>
            <left_val>-7.3063582181930542e-001</left_val>
            <right_val>-1.5648569911718369e-002</right_val></_></_>
        <_>
          <!-- tree 1 -->
          <_>
            <!-- root node -->
            <feature>
              <rects>
                <_>
                  8 9 9 4 -1.</_>
                <_>
                  11 9 3 4 3.</_></rects>
              <tilted>0</tilted></feature>
            <threshold>4.6080019325017929e-002</threshold>
            <left_val>-5.2362449467182159e-002</left_val>
            <right_val>-7.0140278339385986e-001</right_val></_></_>
        <_>
          <!-- tree 2 -->
          <_>
            <!-- root node -->
            <feature>
              <rects>
                <_>
                  7 9 9 4 -1.</_>
                <_>
                  10 9 3 4 3.</_></rects>
              <tilted>0</tilted></feature>
            <threshold>8.0660581588745117e-003</threshold>
            <left_val>-8.6252272129058838e-001</left_val>
            <right_val>2.3474809527397156e-001</right_val></_></_>
        <_>
          <!-- tree 3 -->
          <_>
            <!-- root node -->
            <feature>
              <rects>
                <_>
                  10 11 4 4 -1.</_>
                <_>
                  10 13 4 2 2.</_></rects>
              <tilted>0</tilted></feature>
            <threshold>-8.2666240632534027e-003</threshold>
            <left_val>-7.2345721721649170e-001</left_val>
            <right_val>1.7748050391674042e-001</right_val></_></_>
        <_>
          <!-- tree 4 -->
          <_>
            <!-- root node -->
            <feature>
              <rects>
                <_>
                  9 10 2 4 -1.</_>
                <_>
                  9 12 2 2 2.</_></rects>
              <tilted>0</tilted></feature>
            <threshold>-8.6171447765082121e-004</threshold>
            <left_val>1.5567359328269958e-001</left_val>
            <right_val>-8.6682140827178955e-001</right_val></_></_>
        <_>
          <!-- tree 5 -->
          <_>
            <!-- root node -->
            <feature>
              <rects>
                <_>
                  0 11 24 10 -1.</_>
                <_>
                  0 16 24 5 2.</_></rects>
              <tilted>0</tilted></feature>
            <threshold>-1.0586459934711456e-001</threshold>
            <left_val>2.3063699901103973e-001</left_val>
            <right_val>-5.4808861017227173e-001</right_val></_></_>
        <_>
          <!-- tree 6 -->
          <_>
            <!-- root node -->
            <feature>
              <rects>
                <_>
                  10 10 3 3 -1.</_>
                <_>
                  11 10 1 3 3.</_></rects>
              <tilted>0</tilted></feature>
            <threshold>-1.3507190160453320e-003</threshold>
            <left_val>3.6319059133529663e-001</left_val>
            <right_val>-3.7147280573844910e-001</right_val></_></_>
        <_>
          <!-- tree 7 -->
          <_>
            <!-- root node -->
            <feature>
              <rects>
                <_>
                  5 5 14 4 -1.</_>
                <_>
                  12 5 7 2 2.</_>
                <_>
                  5 7 7 2 2.</_></rects>
              <tilted>0</tilted></feature>
            <threshold>2.8236750513315201e-002</threshold>
            <left_val>-1.9459280371665955e-001</left_val>
            <right_val>6.8442791700363159e-001</right_val></_></_>
        <_>
          <!-- tree 8 -->
          <_>
            <!-- root node -->
            <feature>
              <rects>
                <_>
                  10 9 3 6 -1.</_>
                <_>
                  10 11 3 2 3.</_></rects>
              <tilted>0</tilted></feature>
            <threshold>-8.1370100378990173e-003</threshold>
            <left_val>-9.3802952766418457e-001</left_val>
            <right_val>1.4770820736885071e-001</right_val></_></_>
        <_>
          <!-- tree 9 -->
          <_>
            <!-- root node -->
            <feature>
              <rects>
                <_>
                  8 11 12 6 -1.</_>
                <_>
                  12 11 4 6 3.</_></rects>
              <tilted>0</tilted></feature>
            <threshold>4.9714248627424240e-002</threshold>
            <left_val>3.0533539131283760e-002</left_val>
            <right_val>-9.1963607072830200e-001</right_val></_></_>
        <_>
          <!-- tree 10 -->
          <_>
            <!-- root node -->
            <feature>
              <rects>
                <_>
                  7 7 6 7 -1.</_>
                <_>
                  10 7 3 7 2.</_></rects>
              <tilted>0</tilted></feature>
            <threshold>1.4629679499194026e-003</threshold>
            <left_val>-5.8684927225112915e-001</left_val>
            <right_val>2.1681159734725952e-001</right_val></_></_>
        <_>
          <!-- tree 11 -->
          <_>
            <!-- root node -->
            <feature>
              <rects>
                <_>
                  10 12 12 2 -1.</_>
                <_>
                  14 12 4 2 3.</_></rects>
              <tilted>0</tilted></feature>
            <threshold>-5.8412938378751278e-003</threshold>
            <left_val>-2.3885799944400787e-001</left_val>
            <right_val>1.0647179931402206e-001</right_val></_></_>
        <_>
          <!-- tree 12 -->
          <_>
            <!-- root node -->
            <feature>
              <rects>
                <_>
                  1 6 12 11 -1.</_>
                <_>
                  5 6 4 11 3.</_></rects>
              <tilted>0</tilted></feature>
            <threshold>-4.8881649971008301e-002</threshold>
            <left_val>-8.4694248437881470e-001</left_val>
            <right_val>1.3812249898910522e-001</right_val></_></_></trees>
      <stage_threshold>-1.7115139961242676e+000</stage_threshold>
      <parent>5</parent>
      <next>-1</next></_>
    <_>
      <!-- stage 7 -->
      <trees>
        <_>
          <!-- tree 0 -->
          <_>
            <!-- root node -->
            <feature>
              <rects>
                <_>
                  1 9 18 8 -1.</_>
                <_>
                  1 9 9 4 2.</_>
                <_>
                  10 13 9 4 2.</_></rects>
              <tilted>0</tilted></feature>
            <threshold>2.5050409138202667e-002</threshold>
            <left_val>-6.4495968818664551e-001</left_val>
            <right_val>1.0381519794464111e-002</right_val></_></_>
        <_>
          <!-- tree 1 -->
          <_>
            <!-- root node -->
            <feature>
              <rects>
                <_>
                  10 12 4 1 -1.</_>
                <_>
                  10 12 2 1 2.</_></rects>
              <tilted>0</tilted></feature>
            <threshold>8.6533068679273129e-004</threshold>
            <left_val>-4.7474288940429688e-001</left_val>
            <right_val>3.2430830597877502e-001</right_val></_></_>
        <_>
          <!-- tree 2 -->
          <_>
            <!-- root node -->
            <feature>
              <rects>
                <_>
                  7 8 9 8 -1.</_>
                <_>
                  10 8 3 8 3.</_></rects>
              <tilted>0</tilted></feature>
            <threshold>1.2861049734055996e-002</threshold>
            <left_val>-6.9786077737808228e-001</left_val>
            <right_val>1.5543079376220703e-001</right_val></_></_>
        <_>
          <!-- tree 3 -->
          <_>
            <!-- root node -->
            <feature>
              <rects>
                <_>
                  1 11 22 2 -1.</_>
                <_>
                  1 11 11 2 2.</_></rects>
              <tilted>0</tilted></feature>
            <threshold>2.8793979436159134e-002</threshold>
            <left_val>2.0026889443397522e-001</left_val>
            <right_val>-7.2482341527938843e-001</right_val></_></_>
        <_>
          <!-- tree 4 -->
          <_>
            <!-- root node -->
            <feature>
              <rects>
                <_>
                  0 0 24 16 -1.</_>
                <_>
                  0 8 24 8 2.</_></rects>
              <tilted>0</tilted></feature>
            <threshold>1.3800680637359619e-001</threshold>
            <left_val>-4.7110459208488464e-001</left_val>
            <right_val>2.0906320214271545e-001</right_val></_></_>
        <_>
          <!-- tree 5 -->
          <_>
            <!-- root node -->
            <feature>
              <rects>
                <_>
                  11 8 2 6 -1.</_>
                <_>
                  11 11 2 3 2.</_></rects>
              <tilted>0</tilted></feature>
            <threshold>-3.7009851075708866e-003</threshold>
            <left_val>2.1719439327716827e-001</left_val>
            <right_val>-7.0698851346969604e-001</right_val></_></_>
        <_>
          <!-- tree 6 -->
          <_>
            <!-- root node -->
            <feature>
              <rects>
                <_>
                  9 12 6 6 -1.</_>
                <_>
                  9 15 6 3 2.</_></rects>
              <tilted>0</tilted></feature>
            <threshold>-5.2217910997569561e-003</threshold>
            <left_val>1.4743760228157043e-001</left_val>
            <right_val>-7.5331562757492065e-001</right_val></_></_>
        <_>
          <!-- tree 7 -->
          <_>
            <!-- root node -->
            <feature>
              <rects>
                <_>
                  7 7 11 10 -1.</_>
                <_>
                  7 12 11 5 2.</_></rects>
              <tilted>0</tilted></feature>
            <threshold>-7.0438817143440247e-002</threshold>
            <left_val>-5.6142282485961914e-001</left_val>
            <right_val>1.6551899909973145e-001</right_val></_></_>
        <_>
          <!-- tree 8 -->
          <_>
            <!-- root node -->
            <feature>
              <rects>
                <_>
                  10 11 3 4 -1.</_>
                <_>
                  10 13 3 2 2.</_></rects>
              <tilted>0</tilted></feature>
            <threshold>-6.3110690098255873e-004</threshold>
            <left_val>1.3327939808368683e-001</left_val>
            <right_val>-8.3909237384796143e-001</right_val></_></_>
        <_>
          <!-- tree 9 -->
          <_>
            <!-- root node -->
            <feature>
              <rects>
                <_>
                  12 9 1 6 -1.</_>
                <_>
                  12 11 1 2 3.</_></rects>
              <tilted>0</tilted></feature>
            <threshold>7.8496327623724937e-003</threshold>
            <left_val>-1.6746800392866135e-002</left_val>
            <right_val>-9.9997711181640625e-001</right_val></_></_>
        <_>
          <!-- tree 10 -->
          <_>
            <!-- root node -->
            <feature>
              <rects>
                <_>
                  10 12 3 1 -1.</_>
                <_>
                  11 12 1 1 3.</_></rects>
              <tilted>0</tilted></feature>
            <threshold>-4.2812171159312129e-004</threshold>
            <left_val>3.0429700016975403e-001</left_val>
            <right_val>-3.8775789737701416e-001</right_val></_></_>
        <_>
          <!-- tree 11 -->
          <_>
            <!-- root node -->
            <feature>
              <rects>
                <_>
                  3 12 18 2 -1.</_>
                <_>
                  9 12 6 2 3.</_></rects>
              <tilted>0</tilted></feature>
            <threshold>-1.4056130312383175e-002</threshold>
            <left_val>-9.2211759090423584e-001</left_val>
            <right_val>1.1167129874229431e-001</right_val></_></_>
        <_>
          <!-- tree 12 -->
          <_>
            <!-- root node -->
            <feature>
              <rects>
                <_>
                  9 11 5 3 -1.</_>
                <_>
                  9 12 5 1 3.</_></rects>
              <tilted>0</tilted></feature>
            <threshold>-3.9394429768435657e-004</threshold>
            <left_val>1.9138379395008087e-001</left_val>
            <right_val>-4.8262968659400940e-001</right_val></_></_></trees>
      <stage_threshold>-1.6281199455261230e+000</stage_threshold>
      <parent>6</parent>
      <next>-1</next></_>
    <_>
      <!-- stage 8 -->
      <trees>
        <_>
          <!-- tree 0 -->
          <_>
            <!-- root node -->
            <feature>
              <rects>
                <_>
                  10 3 4 9 -1.</_>
                <_>
                  10 6 4 3 3.</_></rects>
              <tilted>0</tilted></feature>
            <threshold>2.5728030130267143e-002</threshold>
            <left_val>-6.0196512937545776e-001</left_val>
            <right_val>1.4658470451831818e-001</right_val></_></_>
        <_>
          <!-- tree 1 -->
          <_>
            <!-- root node -->
            <feature>
              <rects>
                <_>
                  5 10 14 4 -1.</_>
                <_>
                  5 10 7 4 2.</_></rects>
              <tilted>0</tilted></feature>
            <threshold>9.9873021245002747e-003</threshold>
            <left_val>-6.2759298086166382e-001</left_val>
            <right_val>1.5821999311447144e-001</right_val></_></_>
        <_>
          <!-- tree 2 -->
          <_>
            <!-- root node -->
            <feature>
              <rects>
                <_>
                  0 13 23 8 -1.</_>
                <_>
                  0 17 23 4 2.</_></rects>
              <tilted>0</tilted></feature>
            <threshold>-1.0694479942321777e-001</threshold>
            <left_val>3.5204321146011353e-001</left_val>
            <right_val>-3.5744950175285339e-001</right_val></_></_>
        <_>
          <!-- tree 3 -->
          <_>
            <!-- root node -->
            <feature>
              <rects>
                <_>
                  4 13 16 1 -1.</_>
                <_>
                  4 13 8 1 2.</_></rects>
              <tilted>0</tilted></feature>
            <threshold>6.8113398738205433e-003</threshold>
            <left_val>2.1874320507049561e-001</left_val>
            <right_val>-5.7764482498168945e-001</right_val></_></_>
        <_>
          <!-- tree 4 -->
          <_>
            <!-- root node -->
            <feature>
              <rects>
                <_>
                  11 10 2 1 -1.</_>
                <_>
                  12 10 1 1 2.</_></rects>
              <tilted>0</tilted></feature>
            <threshold>-3.6703518708236516e-004</threshold>
            <left_val>-6.6383802890777588e-001</left_val>
            <right_val>1.3755890727043152e-001</right_val></_></_>
        <_>
          <!-- tree 5 -->
          <_>
            <!-- root node -->
            <feature>
              <rects>
                <_>
                  12 9 1 4 -1.</_>
                <_>
                  12 11 1 2 2.</_></rects>
              <tilted>0</tilted></feature>
            <threshold>-5.6485179811716080e-003</threshold>
            <left_val>-6.3620501756668091e-001</left_val>
            <right_val>-2.3637448903173208e-003</right_val></_></_>
        <_>
          <!-- tree 6 -->
          <_>
            <!-- root node -->
            <feature>
              <rects>
                <_>
                  11 9 1 4 -1.</_>
                <_>
                  11 11 1 2 2.</_></rects>
              <tilted>0</tilted></feature>
            <threshold>-1.1210120283067226e-003</threshold>
            <left_val>1.5919029712677002e-001</left_val>
            <right_val>-6.7706048488616943e-001</right_val></_></_>
        <_>
          <!-- tree 7 -->
          <_>
            <!-- root node -->
            <feature>
              <rects>
                <_>
                  15 7 1 3 -1.</_>
                <_>
                  15 8 1 1 3.</_></rects>
              <tilted>0</tilted></feature>
            <threshold>-2.7263839729130268e-003</threshold>
            <left_val>5.0460678339004517e-001</left_val>
            <right_val>-1.2150710076093674e-001</right_val></_></_>
        <_>
          <!-- tree 8 -->
          <_>
            <!-- root node -->
            <feature>
              <rects>
                <_>
                  8 7 1 3 -1.</_>
                <_>
                  8 8 1 1 3.</_></rects>
              <tilted>0</tilted></feature>
            <threshold>3.6295740865170956e-003</threshold>
            <left_val>-1.3670669496059418e-001</left_val>
            <right_val>7.6844018697738647e-001</right_val></_></_>
        <_>
          <!-- tree 9 -->
          <_>
            <!-- root node -->
            <feature>
              <rects>
                <_>
                  7 9 15 5 -1.</_>
                <_>
                  12 9 5 5 3.</_></rects>
              <tilted>0</tilted></feature>
            <threshold>-2.3309660609811544e-003</threshold>
            <left_val>2.9056608676910400e-001</left_val>
            <right_val>-5.1990801095962524e-001</right_val></_></_>
        <_>
          <!-- tree 10 -->
          <_>
            <!-- root node -->
            <feature>
              <rects>
                <_>
                  6 11 12 1 -1.</_>
                <_>
                  10 11 4 1 3.</_></rects>
              <tilted>0</tilted></feature>
            <threshold>1.5796979889273643e-002</threshold>
            <left_val>-1.9379219412803650e-001</left_val>
            <right_val>6.3017487525939941e-001</right_val></_></_>
        <_>
          <!-- tree 11 -->
          <_>
            <!-- root node -->
            <feature>
              <rects>
                <_>
                  9 11 9 6 -1.</_>
                <_>
                  12 11 3 6 3.</_></rects>
              <tilted>0</tilted></feature>
            <threshold>-3.6452870815992355e-002</threshold>
            <left_val>-1.</left_val>
            <right_val>5.9020120650529861e-002</right_val></_></_>
        <_>
          <!-- tree 12 -->
          <_>
            <!-- root node -->
            <feature>
              <rects>
                <_>
                  3 11 9 9 -1.</_>
                <_>
                  6 11 3 9 3.</_></rects>
              <tilted>0</tilted></feature>
            <threshold>-1.0333229787647724e-002</threshold>
            <left_val>-5.7290667295455933e-001</left_val>
            <right_val>1.6450439393520355e-001</right_val></_></_>
        <_>
          <!-- tree 13 -->
          <_>
            <!-- root node -->
            <feature>
              <rects>
                <_>
                  17 11 6 6 -1.</_>
                <_>
                  17 14 6 3 2.</_></rects>
              <tilted>0</tilted></feature>
            <threshold>-2.7676280587911606e-002</threshold>
            <left_val>3.2188379764556885e-001</left_val>
            <right_val>-9.3822598457336426e-002</right_val></_></_>
        <_>
          <!-- tree 14 -->
          <_>
            <!-- root node -->
            <feature>
              <rects>
                <_>
                  2 10 12 8 -1.</_>
                <_>
                  2 10 6 4 2.</_>
                <_>
                  8 14 6 4 2.</_></rects>
              <tilted>0</tilted></feature>
            <threshold>-1.0448629967868328e-002</threshold>
            <left_val>-3.6537998914718628e-001</left_val>
            <right_val>2.8465810418128967e-001</right_val></_></_>
        <_>
          <!-- tree 15 -->
          <_>
            <!-- root node -->
            <feature>
              <rects>
                <_>
                  11 8 8 4 -1.</_>
                <_>
                  11 8 4 4 2.</_></rects>
              <tilted>0</tilted></feature>
            <threshold>5.5872388184070587e-002</threshold>
            <left_val>2.2944180294871330e-002</left_val>
            <right_val>-5.3898262977600098e-001</right_val></_></_>
        <_>
          <!-- tree 16 -->
          <_>
            <!-- root node -->
            <feature>
              <rects>
                <_>
                  5 8 8 4 -1.</_>
                <_>
                  9 8 4 4 2.</_></rects>
              <tilted>0</tilted></feature>
            <threshold>3.5063799005001783e-003</threshold>
            <left_val>-6.9958180189132690e-001</left_val>
            <right_val>1.6715329885482788e-001</right_val></_></_></trees>
      <stage_threshold>-1.4941829442977905e+000</stage_threshold>
      <parent>7</parent>
      <next>-1</next></_>
    <_>
      <!-- stage 9 -->
      <trees>
        <_>
          <!-- tree 0 -->
          <_>
            <!-- root node -->
            <feature>
              <rects>
                <_>
                  0 0 12 12 -1.</_>
                <_>
                  0 6 12 6 2.</_></rects>
              <tilted>0</tilted></feature>
            <threshold>1.1077489703893661e-001</threshold>
            <left_val>-6.9230538606643677e-001</left_val>
            <right_val>-2.6788020506501198e-002</right_val></_></_>
        <_>
          <!-- tree 1 -->
          <_>
            <!-- root node -->
            <feature>
              <rects>
                <_>
                  12 9 2 9 -1.</_>
                <_>
                  12 12 2 3 3.</_></rects>
              <tilted>0</tilted></feature>
            <threshold>-1.0658520273864269e-002</threshold>
            <left_val>-4.1592019796371460e-001</left_val>
            <right_val>-2.2423699498176575e-002</right_val></_></_>
        <_>
          <!-- tree 2 -->
          <_>
            <!-- root node -->
            <feature>
              <rects>
                <_>
                  6 10 12 6 -1.</_>
                <_>
                  12 10 6 6 2.</_></rects>
              <tilted>0</tilted></feature>
            <threshold>7.9640997573733330e-003</threshold>
            <left_val>1.5832549333572388e-001</left_val>
            <right_val>-7.4121642112731934e-001</right_val></_></_>
        <_>
          <!-- tree 3 -->
          <_>
            <!-- root node -->
            <feature>
              <rects>
                <_>
                  3 11 21 8 -1.</_>
                <_>
                  10 11 7 8 3.</_></rects>
              <tilted>0</tilted></feature>
            <threshold>-7.7802047133445740e-002</threshold>
            <left_val>-6.7410361766815186e-001</left_val>
            <right_val>5.4532211273908615e-002</right_val></_></_>
        <_>
          <!-- tree 4 -->
          <_>
            <!-- root node -->
            <feature>
              <rects>
                <_>
                  0 11 21 8 -1.</_>
                <_>
                  7 11 7 8 3.</_></rects>
              <tilted>0</tilted></feature>
            <threshold>8.0297693610191345e-002</threshold>
            <left_val>1.9635850191116333e-001</left_val>
            <right_val>-6.0097092390060425e-001</right_val></_></_>
        <_>
          <!-- tree 5 -->
          <_>
            <!-- root node -->
            <feature>
              <rects>
                <_>
                  12 9 2 9 -1.</_>
                <_>
                  12 12 2 3 3.</_></rects>
              <tilted>0</tilted></feature>
            <threshold>2.1438099443912506e-002</threshold>
            <left_val>-3.1068619340658188e-002</left_val>
            <right_val>-7.1430027484893799e-001</right_val></_></_>
        <_>
          <!-- tree 6 -->
          <_>
            <!-- root node -->
            <feature>
              <rects>
                <_>
                  10 9 2 9 -1.</_>
                <_>
                  10 12 2 3 3.</_></rects>
              <tilted>0</tilted></feature>
            <threshold>-7.0178802125155926e-003</threshold>
            <left_val>-5.8878618478775024e-001</left_val>
            <right_val>1.8748660385608673e-001</right_val></_></_>
        <_>
          <!-- tree 7 -->
          <_>
            <!-- root node -->
            <feature>
              <rects>
                <_>
                  12 11 3 2 -1.</_>
                <_>
                  12 12 3 1 2.</_></rects>
              <tilted>0</tilted></feature>
            <threshold>1.3044750085100532e-003</threshold>
            <left_val>-6.3182532787322998e-002</left_val>
            <right_val>2.7942809462547302e-001</right_val></_></_>
        <_>
          <!-- tree 8 -->
          <_>
            <!-- root node -->
            <feature>
              <rects>
                <_>
                  9 11 3 2 -1.</_>
                <_>
                  9 12 3 1 2.</_></rects>
              <tilted>0</tilted></feature>
            <threshold>-3.4070399124175310e-004</threshold>
            <left_val>1.4574569463729858e-001</left_val>
            <right_val>-7.6505970954895020e-001</right_val></_></_>
        <_>
          <!-- tree 9 -->
          <_>
            <!-- root node -->
            <feature>
              <rects>
                <_>
                  12 11 3 1 -1.</_>
                <_>
                  13 11 1 1 3.</_></rects>
              <tilted>0</tilted></feature>
            <threshold>2.9243940953165293e-003</threshold>
            <left_val>-2.1188479661941528e-001</left_val>
            <right_val>7.4107527732849121e-001</right_val></_></_>
        <_>
          <!-- tree 10 -->
          <_>
            <!-- root node -->
            <feature>
              <rects>
                <_>
                  10 12 4 1 -1.</_>
                <_>
                  12 12 2 1 2.</_></rects>
              <tilted>0</tilted></feature>
            <threshold>-9.6316699637100101e-004</threshold>
            <left_val>3.5429719090461731e-001</left_val>
            <right_val>-3.2781860232353210e-001</right_val></_></_>
        <_>
          <!-- tree 11 -->
          <_>
            <!-- root node -->
            <feature>
              <rects>
                <_>
                  11 7 2 7 -1.</_>
                <_>
                  11 7 1 7 2.</_></rects>
              <tilted>0</tilted></feature>
            <threshold>1.0182280093431473e-003</threshold>
            <left_val>2.0790010690689087e-001</left_val>
            <right_val>-5.3116667270660400e-001</right_val></_></_>
        <_>
          <!-- tree 12 -->
          <_>
            <!-- root node -->
            <feature>
              <rects>
                <_>
                  11 8 1 4 -1.</_>
                <_>
                  11 10 1 2 2.</_></rects>
              <tilted>0</tilted></feature>
            <threshold>-2.5306970928795636e-004</threshold>
            <left_val>1.9762369990348816e-001</left_val>
            <right_val>-4.9550560116767883e-001</right_val></_></_>
        <_>
          <!-- tree 13 -->
          <_>
            <!-- root node -->
            <feature>
              <rects>
                <_>
                  11 9 2 2 -1.</_>
                <_>
                  11 10 2 1 2.</_></rects>
              <tilted>0</tilted></feature>
            <threshold>-1.4923339476808906e-003</threshold>
            <left_val>-7.8062939643859863e-001</left_val>
            <right_val>1.3019900023937225e-001</right_val></_></_>
        <_>
          <!-- tree 14 -->
          <_>
            <!-- root node -->
            <feature>
              <rects>
                <_>
                  7 7 2 6 -1.</_>
                <_>
                  7 7 1 3 2.</_>
                <_>
                  8 10 1 3 2.</_></rects>
              <tilted>0</tilted></feature>
            <threshold>2.7152879629284143e-003</threshold>
            <left_val>-2.1792000532150269e-001</left_val>
            <right_val>4.8671799898147583e-001</right_val></_></_>
        <_>
          <!-- tree 15 -->
          <_>
            <!-- root node -->
            <feature>
              <rects>
                <_>
                  9 4 6 14 -1.</_>
                <_>
                  12 4 3 7 2.</_>
                <_>
                  9 11 3 7 2.</_></rects>
              <tilted>0</tilted></feature>
            <threshold>1.6225770115852356e-002</threshold>
            <left_val>1.2040179967880249e-001</left_val>
            <right_val>-7.9758858680725098e-001</right_val></_></_>
        <_>
          <!-- tree 16 -->
          <_>
            <!-- root node -->
            <feature>
              <rects>
                <_>
                  1 6 18 4 -1.</_>
                <_>
                  1 6 9 2 2.</_>
                <_>
                  10 8 9 2 2.</_></rects>
              <tilted>0</tilted></feature>
            <threshold>-1.7068710178136826e-002</threshold>
            <left_val>4.3281379342079163e-001</left_val>
            <right_val>-2.6469960808753967e-001</right_val></_></_>
        <_>
          <!-- tree 17 -->
          <_>
            <!-- root node -->
            <feature>
              <rects>
                <_>
                  12 4 2 14 -1.</_>
                <_>
                  12 11 2 7 2.</_></rects>
              <tilted>0</tilted></feature>
            <threshold>-3.0408019199967384e-002</threshold>
            <left_val>-5.1999109983444214e-001</left_val>
            <right_val>7.2629541158676147e-002</right_val></_></_></trees>
      <stage_threshold>-1.5446890592575073e+000</stage_threshold>
      <parent>8</parent>
      <next>-1</next></_>
    <_>
      <!-- stage 10 -->
      <trees>
        <_>
          <!-- tree 0 -->
          <_>
            <!-- root node -->
            <feature>
              <rects>
                <_>
                  0 3 24 21 -1.</_>
                <_>
                  0 10 24 7 3.</_></rects>
              <tilted>0</tilted></feature>
            <threshold>2.6874971389770508e-001</threshold>
            <left_val>-6.8601447343826294e-001</left_val>
            <right_val>-1.0027570277452469e-001</right_val></_></_>
        <_>
          <!-- tree 1 -->
          <_>
            <!-- root node -->
            <feature>
              <rects>
                <_>
                  8 9 9 4 -1.</_>
                <_>
                  11 9 3 4 3.</_></rects>
              <tilted>0</tilted></feature>
            <threshold>5.8250881731510162e-002</threshold>
            <left_val>-5.3648628294467926e-002</left_val>
            <right_val>-9.9992322921752930e-001</right_val></_></_>
        <_>
          <!-- tree 2 -->
          <_>
            <!-- root node -->
            <feature>
              <rects>
                <_>
                  7 9 9 4 -1.</_>
                <_>
                  10 9 3 4 3.</_></rects>
              <tilted>0</tilted></feature>
            <threshold>1.3088930398225784e-002</threshold>
            <left_val>-6.1431252956390381e-001</left_val>
            <right_val>1.6988399624824524e-001</right_val></_></_>
        <_>
          <!-- tree 3 -->
          <_>
            <!-- root node -->
            <feature>
              <rects>
                <_>
                  6 12 12 1 -1.</_>
                <_>
                  10 12 4 1 3.</_></rects>
              <tilted>0</tilted></feature>
            <threshold>-1.1683560442179441e-003</threshold>
            <left_val>4.4941261410713196e-001</left_val>
            <right_val>-2.5511270761489868e-001</right_val></_></_>
        <_>
          <!-- tree 4 -->
          <_>
            <!-- root node -->
            <feature>
              <rects>
                <_>
                  6 12 10 2 -1.</_>
                <_>
                  11 12 5 2 2.</_></rects>
              <tilted>0</tilted></feature>
            <threshold>-9.1301826760172844e-003</threshold>
            <left_val>-6.8572652339935303e-001</left_val>
            <right_val>1.3128459453582764e-001</right_val></_></_>
        <_>
          <!-- tree 5 -->
          <_>
            <!-- root node -->
            <feature>
              <rects>
                <_>
                  11 10 4 3 -1.</_>
                <_>
                  11 11 4 1 3.</_></rects>
              <tilted>0</tilted></feature>
            <threshold>-2.5042979978024960e-003</threshold>
            <left_val>2.6856300234794617e-001</left_val>
            <right_val>-1.0726819932460785e-001</right_val></_></_>
        <_>
          <!-- tree 6 -->
          <_>
            <!-- root node -->
            <feature>
              <rects>
                <_>
                  2 12 12 2 -1.</_>
                <_>
                  6 12 4 2 3.</_></rects>
              <tilted>0</tilted></feature>
            <threshold>-3.4830020740628242e-003</threshold>
            <left_val>-6.2477368116378784e-001</left_val>
            <right_val>1.4548650383949280e-001</right_val></_></_>
        <_>
          <!-- tree 7 -->
          <_>
            <!-- root node -->
            <feature>
              <rects>
                <_>
                  13 9 2 6 -1.</_>
                <_>
                  13 12 2 3 2.</_></rects>
              <tilted>0</tilted></feature>
            <threshold>6.5265879966318607e-003</threshold>
            <left_val>-1.4367499947547913e-001</left_val>
            <right_val>3.3558019995689392e-001</right_val></_></_>
        <_>
          <!-- tree 8 -->
          <_>
            <!-- root node -->
            <feature>
              <rects>
                <_>
                  9 9 2 6 -1.</_>
                <_>
                  9 12 2 3 2.</_></rects>
              <tilted>0</tilted></feature>
            <threshold>-2.8692509513348341e-003</threshold>
            <left_val>1.5464270114898682e-001</left_val>
            <right_val>-7.3458909988403320e-001</right_val></_></_>
        <_>
          <!-- tree 9 -->
          <_>
            <!-- root node -->
            <feature>
              <rects>
                <_>
                  13 11 3 1 -1.</_>
                <_>
                  14 11 1 1 3.</_></rects>
              <tilted>0</tilted></feature>
            <threshold>-3.4913041163235903e-003</threshold>
            <left_val>5.7371747493743896e-001</left_val>
            <right_val>-2.0391799509525299e-001</right_val></_></_>
        <_>
          <!-- tree 10 -->
          <_>
            <!-- root node -->
            <feature>
              <rects>
                <_>
                  8 11 3 1 -1.</_>
                <_>
                  9 11 1 1 3.</_></rects>
              <tilted>0</tilted></feature>
            <threshold>-5.9782498283311725e-004</threshold>
            <left_val>4.8181280493736267e-001</left_val>
            <right_val>-2.3177689313888550e-001</right_val></_></_>
        <_>
          <!-- tree 11 -->
          <_>
            <!-- root node -->
            <feature>
              <rects>
                <_>
                  12 10 2 4 -1.</_>
                <_>
                  12 12 2 2 2.</_></rects>
              <tilted>0</tilted></feature>
            <threshold>5.6048929691314697e-003</threshold>
            <left_val>2.4585450068116188e-002</left_val>
            <right_val>-6.3756477832794189e-001</right_val></_></_>
        <_>
          <!-- tree 12 -->
          <_>
            <!-- root node -->
            <feature>
              <rects>
                <_>
                  9 5 2 3 -1.</_>
                <_>
                  9 6 2 1 3.</_></rects>
              <tilted>0</tilted></feature>
            <threshold>4.8995348624885082e-003</threshold>
            <left_val>-1.7587220668792725e-001</left_val>
            <right_val>6.3397431373596191e-001</right_val></_></_>
        <_>
          <!-- tree 13 -->
          <_>
            <!-- root node -->
            <feature>
              <rects>
                <_>
                  12 10 2 4 -1.</_>
                <_>
                  12 12 2 2 2.</_></rects>
              <tilted>0</tilted></feature>
            <threshold>-4.2721377685666084e-003</threshold>
            <left_val>1.4020180702209473e-001</left_val>
            <right_val>-8.6159363389015198e-002</right_val></_></_>
        <_>
          <!-- tree 14 -->
          <_>
            <!-- root node -->
            <feature>
              <rects>
                <_>
                  10 10 2 4 -1.</_>
                <_>
                  10 12 2 2 2.</_></rects>
              <tilted>0</tilted></feature>
            <threshold>-6.3444757834076881e-003</threshold>
            <left_val>-6.1983817815780640e-001</left_val>
            <right_val>1.7558270692825317e-001</right_val></_></_>
        <_>
          <!-- tree 15 -->
          <_>
            <!-- root node -->
            <feature>
              <rects>
                <_>
                  12 11 1 3 -1.</_>
                <_>
                  12 12 1 1 3.</_></rects>
              <tilted>0</tilted></feature>
            <threshold>-4.7652260400354862e-003</threshold>
            <left_val>-1.</left_val>
            <right_val>-3.3487519249320030e-003</right_val></_></_>
        <_>
          <!-- tree 16 -->
          <_>
            <!-- root node -->
            <feature>
              <rects>
                <_>
                  11 11 1 3 -1.</_>
                <_>
                  11 12 1 1 3.</_></rects>
              <tilted>0</tilted></feature>
            <threshold>-1.4715299766976386e-004</threshold>
            <left_val>1.9521069526672363e-001</left_val>
            <right_val>-4.5776548981666565e-001</right_val></_></_>
        <_>
          <!-- tree 17 -->
          <_>
            <!-- root node -->
            <feature>
              <rects>
                <_>
                  10 11 6 2 -1.</_>
                <_>
                  12 11 2 2 3.</_></rects>
              <tilted>0</tilted></feature>
            <threshold>-4.8167649656534195e-003</threshold>
            <left_val>4.3307939171791077e-001</left_val>
            <right_val>-1.7786389589309692e-001</right_val></_></_>
        <_>
          <!-- tree 18 -->
          <_>
            <!-- root node -->
            <feature>
              <rects>
                <_>
                  3 3 6 4 -1.</_>
                <_>
                  6 3 3 4 2.</_></rects>
              <tilted>0</tilted></feature>
            <threshold>-1.7425599799025804e-004</threshold>
            <left_val>3.0599078536033630e-001</left_val>
            <right_val>-3.1843718886375427e-001</right_val></_></_></trees>
      <stage_threshold>-1.4096560478210449e+000</stage_threshold>
      <parent>9</parent>
      <next>-1</next></_>
    <_>
      <!-- stage 11 -->
      <trees>
        <_>
          <!-- tree 0 -->
          <_>
            <!-- root node -->
            <feature>
              <rects>
                <_>
                  0 0 24 21 -1.</_>
                <_>
                  0 7 24 7 3.</_></rects>
              <tilted>0</tilted></feature>
            <threshold>5.4654341936111450e-001</threshold>
            <left_val>-5.8857738971710205e-001</left_val>
            <right_val>2.6917429640889168e-002</right_val></_></_>
        <_>
          <!-- tree 1 -->
          <_>
            <!-- root node -->
            <feature>
              <rects>
                <_>
                  5 9 14 4 -1.</_>
                <_>
                  5 9 7 4 2.</_></rects>
              <tilted>0</tilted></feature>
            <threshold>2.7613610029220581e-002</threshold>
            <left_val>-4.1976478695869446e-001</left_val>
            <right_val>2.4279749393463135e-001</right_val></_></_>
        <_>
          <!-- tree 2 -->
          <_>
            <!-- root node -->
            <feature>
              <rects>
                <_>
                  5 7 8 9 -1.</_>
                <_>
                  9 7 4 9 2.</_></rects>
              <tilted>0</tilted></feature>
            <threshold>5.4097839165478945e-004</threshold>
            <left_val>-7.3496890068054199e-001</left_val>
            <right_val>1.1368879675865173e-001</right_val></_></_>
        <_>
          <!-- tree 3 -->
          <_>
            <!-- root node -->
            <feature>
              <rects>
                <_>
                  7 13 12 1 -1.</_>
                <_>
                  11 13 4 1 3.</_></rects>
              <tilted>0</tilted></feature>
            <threshold>-6.6562159918248653e-003</threshold>
            <left_val>-5.2573359012603760e-001</left_val>
            <right_val>3.7771489471197128e-002</right_val></_></_>
        <_>
          <!-- tree 4 -->
          <_>
            <!-- root node -->
            <feature>
              <rects>
                <_>
                  5 13 12 1 -1.</_>
                <_>
                  9 13 4 1 3.</_></rects>
              <tilted>0</tilted></feature>
            <threshold>5.4009328596293926e-003</threshold>
            <left_val>1.7691980302333832e-001</left_val>
            <right_val>-6.4617437124252319e-001</right_val></_></_>
        <_>
          <!-- tree 5 -->
          <_>
            <!-- root node -->
            <feature>
              <rects>
                <_>
                  11 10 4 3 -1.</_>
                <_>
                  11 11 4 1 3.</_></rects>
              <tilted>0</tilted></feature>
            <threshold>-4.8254728317260742e-003</threshold>
            <left_val>1.9752709567546844e-001</left_val>
            <right_val>-6.0791250318288803e-002</right_val></_></_>
        <_>
          <!-- tree 6 -->
          <_>
            <!-- root node -->
            <feature>
              <rects>
                <_>
                  9 10 4 2 -1.</_>
                <_>
                  11 10 2 2 2.</_></rects>
              <tilted>0</tilted></feature>
            <threshold>-2.9944190755486488e-003</threshold>
            <left_val>-8.4089988470077515e-001</left_val>
            <right_val>9.9240817129611969e-002</right_val></_></_>
        <_>
          <!-- tree 7 -->
          <_>
            <!-- root node -->
            <feature>
              <rects>
                <_>
                  11 10 4 3 -1.</_>
                <_>
                  11 11 4 1 3.</_></rects>
              <tilted>0</tilted></feature>
            <threshold>4.5697740279138088e-003</threshold>
            <left_val>-7.8698709607124329e-002</left_val>
            <right_val>2.0228980481624603e-001</right_val></_></_>
        <_>
          <!-- tree 8 -->
          <_>
            <!-- root node -->
            <feature>
              <rects>
                <_>
                  9 10 4 3 -1.</_>
                <_>
                  9 11 4 1 3.</_></rects>
              <tilted>0</tilted></feature>
            <threshold>4.0855668485164642e-003</threshold>
            <left_val>1.2948529422283173e-001</left_val>
            <right_val>-7.9642242193222046e-001</right_val></_></_>
        <_>
          <!-- tree 9 -->
          <_>
            <!-- root node -->
            <feature>
              <rects>
                <_>
                  12 11 2 1 -1.</_>
                <_>
                  12 11 1 1 2.</_></rects>
              <tilted>0</tilted></feature>
            <threshold>-7.6386677392292768e-005</threshold>
            <left_val>3.2018780708312988e-001</left_val>
            <right_val>-1.9204519689083099e-001</right_val></_></_>
        <_>
          <!-- tree 10 -->
          <_>
            <!-- root node -->
            <feature>
              <rects>
                <_>
                  8 9 6 5 -1.</_>
                <_>
                  11 9 3 5 2.</_></rects>
              <tilted>0</tilted></feature>
            <threshold>-1.0491929948329926e-002</threshold>
            <left_val>5.5385041236877441e-001</left_val>
            <right_val>-1.4859509468078613e-001</right_val></_></_>
        <_>
          <!-- tree 11 -->
          <_>
            <!-- root node -->
            <feature>
              <rects>
                <_>
                  12 10 3 2 -1.</_>
                <_>
                  13 10 1 2 3.</_></rects>
              <tilted>0</tilted></feature>
            <threshold>3.3377041108906269e-003</threshold>
            <left_val>-1.6168330609798431e-001</left_val>
            <right_val>3.9057388901710510e-001</right_val></_></_>
        <_>
          <!-- tree 12 -->
          <_>
            <!-- root node -->
            <feature>
              <rects>
                <_>
                  7 8 3 3 -1.</_>
                <_>
                  7 9 3 1 3.</_></rects>
              <tilted>0</tilted></feature>
            <threshold>-3.9999079890549183e-003</threshold>
            <left_val>6.2520861625671387e-001</left_val>
            <right_val>-1.4037820696830750e-001</right_val></_></_>
        <_>
          <!-- tree 13 -->
          <_>
            <!-- root node -->
            <feature>
              <rects>
                <_>
                  9 15 6 2 -1.</_>
                <_>
                  12 15 3 1 2.</_>
                <_>
                  9 16 3 1 2.</_></rects>
              <tilted>0</tilted></feature>
            <threshold>3.8752281107008457e-003</threshold>
            <left_val>-1.3061599433422089e-001</left_val>
            <right_val>5.9106117486953735e-001</right_val></_></_>
        <_>
          <!-- tree 14 -->
          <_>
            <!-- root node -->
            <feature>
              <rects>
                <_>
                  9 10 3 3 -1.</_>
                <_>
                  9 11 3 1 3.</_></rects>
              <tilted>0</tilted></feature>
            <threshold>-2.6675509288907051e-003</threshold>
            <left_val>-8.0089730024337769e-001</left_val>
            <right_val>1.1207149922847748e-001</right_val></_></_>
        <_>
          <!-- tree 15 -->
          <_>
            <!-- root node -->
            <feature>
              <rects>
                <_>
                  12 9 3 4 -1.</_>
                <_>
                  12 11 3 2 2.</_></rects>
              <tilted>0</tilted></feature>
            <threshold>-4.8904190771281719e-003</threshold>
            <left_val>1.0956410318613052e-001</left_val>
            <right_val>-9.1821387410163879e-002</right_val></_></_>
        <_>
          <!-- tree 16 -->
          <_>
            <!-- root node -->
            <feature>
              <rects>
                <_>
                  4 9 15 3 -1.</_>
                <_>
                  4 10 15 1 3.</_></rects>
              <tilted>0</tilted></feature>
            <threshold>-1.1608390137553215e-002</threshold>
            <left_val>7.0354872941970825e-001</left_val>
            <right_val>-1.1987099796533585e-001</right_val></_></_>
        <_>
          <!-- tree 17 -->
          <_>
            <!-- root node -->
            <feature>
              <rects>
                <_>
                  12 9 3 4 -1.</_>
                <_>
                  12 11 3 2 2.</_></rects>
              <tilted>0</tilted></feature>
            <threshold>2.1117560099810362e-003</threshold>
            <left_val>-3.7583589553833008e-002</left_val>
            <right_val>1.8255449831485748e-001</right_val></_></_>
        <_>
          <!-- tree 18 -->
          <_>
            <!-- root node -->
            <feature>
              <rects>
                <_>
                  9 9 3 4 -1.</_>
                <_>
                  9 11 3 2 2.</_></rects>
              <tilted>0</tilted></feature>
            <threshold>-1.5939320437610149e-003</threshold>
            <left_val>1.1169900000095367e-001</left_val>
            <right_val>-7.7791637182235718e-001</right_val></_></_>
        <_>
          <!-- tree 19 -->
          <_>
            <!-- root node -->
            <feature>
              <rects>
                <_>
                  8 5 8 2 -1.</_>
                <_>
                  12 5 4 1 2.</_>
                <_>
                  8 6 4 1 2.</_></rects>
              <tilted>0</tilted></feature>
            <threshold>-8.1249158829450607e-003</threshold>
            <left_val>6.9028228521347046e-001</left_val>
            <right_val>-1.4936590194702148e-001</right_val></_></_>
        <_>
          <!-- tree 20 -->
          <_>
            <!-- root node -->
            <feature>
              <rects>
                <_>
                  2 4 18 9 -1.</_>
                <_>
                  8 4 6 9 3.</_></rects>
              <tilted>0</tilted></feature>
            <threshold>1.4686439931392670e-001</threshold>
            <left_val>1.6045999526977539e-001</left_val>
            <right_val>-6.3820981979370117e-001</right_val></_></_></trees>
      <stage_threshold>-1.4685219526290894e+000</stage_threshold>
      <parent>10</parent>
      <next>-1</next></_>
    <_>
      <!-- stage 12 -->
      <trees>
        <_>
          <!-- tree 0 -->
          <_>
            <!-- root node -->
            <feature>
              <rects>
                <_>
                  7 14 8 6 -1.</_>
                <_>
                  7 17 8 3 2.</_></rects>
              <tilted>0</tilted></feature>
            <threshold>-2.8733789920806885e-002</threshold>
            <left_val>-7.6804623007774353e-002</left_val>
            <right_val>-6.3835841417312622e-001</right_val></_></_>
        <_>
          <!-- tree 1 -->
          <_>
            <!-- root node -->
            <feature>
              <rects>
                <_>
                  7 9 12 4 -1.</_>
                <_>
                  11 9 4 4 3.</_></rects>
              <tilted>0</tilted></feature>
            <threshold>3.1294438987970352e-002</threshold>
            <left_val>-1.4465840160846710e-001</left_val>
            <right_val>2.4839140474796295e-001</right_val></_></_>
        <_>
          <!-- tree 2 -->
          <_>
            <!-- root node -->
            <feature>
              <rects>
                <_>
                  8 12 6 1 -1.</_>
                <_>
                  11 12 3 1 2.</_></rects>
              <tilted>0</tilted></feature>
            <threshold>-3.9086988545022905e-004</threshold>
            <left_val>2.4979209899902344e-001</left_val>
            <right_val>-5.1610171794891357e-001</right_val></_></_>
        <_>
          <!-- tree 3 -->
          <_>
            <!-- root node -->
            <feature>
              <rects>
                <_>
                  9 10 6 3 -1.</_>
                <_>
                  11 10 2 3 3.</_></rects>
              <tilted>0</tilted></feature>
            <threshold>1.8680880311876535e-003</threshold>
            <left_val>-5.0514411926269531e-001</left_val>
            <right_val>2.4077869951725006e-001</right_val></_></_>
        <_>
          <!-- tree 4 -->
          <_>
            <!-- root node -->
            <feature>
              <rects>
                <_>
                  11 8 1 2 -1.</_>
                <_>
                  11 9 1 1 2.</_></rects>
              <tilted>0</tilted></feature>
            <threshold>8.7092048488557339e-004</threshold>
            <left_val>9.5194652676582336e-002</left_val>
            <right_val>-6.9295448064804077e-001</right_val></_></_>
        <_>
          <!-- tree 5 -->
          <_>
            <!-- root node -->
            <feature>
              <rects>
                <_>
                  11 10 3 3 -1.</_>
                <_>
                  12 10 1 3 3.</_></rects>
              <tilted>0</tilted></feature>
            <threshold>2.0707501098513603e-003</threshold>
            <left_val>-3.3187299966812134e-001</left_val>
            <right_val>1.6100980341434479e-001</right_val></_></_>
        <_>
          <!-- tree 6 -->
          <_>
            <!-- root node -->
            <feature>
              <rects>
                <_>
                  0 1 24 18 -1.</_>
                <_>
                  0 10 24 9 2.</_></rects>
              <tilted>0</tilted></feature>
            <threshold>-5.8799769729375839e-002</threshold>
            <left_val>-4.6343329548835754e-001</left_val>
            <right_val>1.9797469675540924e-001</right_val></_></_>
        <_>
          <!-- tree 7 -->
          <_>
            <!-- root node -->
            <feature>
              <rects>
                <_>
                  9 11 8 6 -1.</_>
                <_>
                  9 14 8 3 2.</_></rects>
              <tilted>0</tilted></feature>
            <threshold>1.4148590154945850e-002</threshold>
            <left_val>4.3402191251516342e-002</left_val>
            <right_val>-8.5757422447204590e-001</right_val></_></_>
        <_>
          <!-- tree 8 -->
          <_>
            <!-- root node -->
            <feature>
              <rects>
                <_>
                  7 7 6 10 -1.</_>
                <_>
                  7 12 6 5 2.</_></rects>
              <tilted>0</tilted></feature>
            <threshold>-1.9188260659575462e-002</threshold>
            <left_val>1.2605090439319611e-001</left_val>
            <right_val>-6.4364051818847656e-001</right_val></_></_>
        <_>
          <!-- tree 9 -->
          <_>
            <!-- root node -->
            <feature>
              <rects>
                <_>
                  3 5 20 11 -1.</_>
                <_>
                  3 5 10 11 2.</_></rects>
              <tilted>0</tilted></feature>
            <threshold>1.2907539308071136e-001</threshold>
            <left_val>8.2943670451641083e-002</left_val>
            <right_val>-5.1690977811813354e-001</right_val></_></_>
        <_>
          <!-- tree 10 -->
          <_>
            <!-- root node -->
            <feature>
              <rects>
                <_>
                  1 9 18 8 -1.</_>
                <_>
                  7 9 6 8 3.</_></rects>
              <tilted>0</tilted></feature>
            <threshold>1.0565780103206635e-002</threshold>
            <left_val>-8.5829138755798340e-001</left_val>
            <right_val>9.4752982258796692e-002</right_val></_></_>
        <_>
          <!-- tree 11 -->
          <_>
            <!-- root node -->
            <feature>
              <rects>
                <_>
                  15 7 3 3 -1.</_>
                <_>
                  16 7 1 3 3.</_></rects>
              <tilted>0</tilted></feature>
            <threshold>-1.8825649749487638e-003</threshold>
            <left_val>1.2519930303096771e-001</left_val>
            <right_val>-1.2383499741554260e-001</right_val></_></_>
        <_>
          <!-- tree 12 -->
          <_>
            <!-- root node -->
            <feature>
              <rects>
                <_>
                  10 11 4 4 -1.</_>
                <_>
                  10 13 4 2 2.</_></rects>
              <tilted>0</tilted></feature>
            <threshold>-1.1945189908146858e-002</threshold>
            <left_val>-9.3711709976196289e-001</left_val>
            <right_val>8.4224216639995575e-002</right_val></_></_>
        <_>
          <!-- tree 13 -->
          <_>
            <!-- root node -->
            <feature>
              <rects>
                <_>
                  13 4 8 12 -1.</_>
                <_>
                  13 4 4 12 2.</_></rects>
              <tilted>0</tilted></feature>
            <threshold>-6.1976239085197449e-003</threshold>
            <left_val>1.4239899814128876e-001</left_val>
            <right_val>-2.0335330069065094e-001</right_val></_></_>
        <_>
          <!-- tree 14 -->
          <_>
            <!-- root node -->
            <feature>
              <rects>
                <_>
                  3 3 12 12 -1.</_>
                <_>
                  7 3 4 12 3.</_></rects>
              <tilted>0</tilted></feature>
            <threshold>6.3523873686790466e-002</threshold>
            <left_val>1.5061749517917633e-001</left_val>
            <right_val>-6.2122321128845215e-001</right_val></_></_>
        <_>
          <!-- tree 15 -->
          <_>
            <!-- root node -->
            <feature>
              <rects>
                <_>
                  15 7 3 3 -1.</_>
                <_>
                  16 7 1 3 3.</_></rects>
              <tilted>0</tilted></feature>
            <threshold>2.9399909544736147e-003</threshold>
            <left_val>-1.0617329925298691e-001</left_val>
            <right_val>3.2038688659667969e-001</right_val></_></_>
        <_>
          <!-- tree 16 -->
          <_>
            <!-- root node -->
            <feature>
              <rects>
                <_>
                  6 7 3 3 -1.</_>
                <_>
                  7 7 1 3 3.</_></rects>
              <tilted>0</tilted></feature>
            <threshold>2.2034801077097654e-003</threshold>
            <left_val>-1.9693690538406372e-001</left_val>
            <right_val>4.7184869647026062e-001</right_val></_></_>
        <_>
          <!-- tree 17 -->
          <_>
            <!-- root node -->
            <feature>
              <rects>
                <_>
                  15 6 3 6 -1.</_>
                <_>
                  16 6 1 6 3.</_></rects>
              <tilted>0</tilted></feature>
            <threshold>-3.7129970733076334e-003</threshold>
            <left_val>1.6466669738292694e-001</left_val>
            <right_val>-1.0859309881925583e-001</right_val></_></_>
        <_>
          <!-- tree 18 -->
          <_>
            <!-- root node -->
            <feature>
              <rects>
                <_>
                  7 7 3 2 -1.</_>
                <_>
                  8 7 1 2 3.</_></rects>
              <tilted>0</tilted></feature>
            <threshold>1.9372010137885809e-003</threshold>
            <left_val>-1.9689440727233887e-001</left_val>
            <right_val>5.1624357700347900e-001</right_val></_></_>
        <_>
          <!-- tree 19 -->
          <_>
            <!-- root node -->
            <feature>
              <rects>
                <_>
                  7 3 12 13 -1.</_>
                <_>
                  7 3 6 13 2.</_></rects>
              <tilted>0</tilted></feature>
            <threshold>-1.3785379938781261e-002</threshold>
            <left_val>-5.9718942642211914e-001</left_val>
            <right_val>7.0834897458553314e-002</right_val></_></_>
        <_>
          <!-- tree 20 -->
          <_>
            <!-- root node -->
            <feature>
              <rects>
                <_>
                  9 7 4 9 -1.</_>
                <_>
                  9 10 4 3 3.</_></rects>
              <tilted>0</tilted></feature>
            <threshold>-2.6414669118821621e-003</threshold>
            <left_val>-7.8019511699676514e-001</left_val>
            <right_val>1.0559429973363876e-001</right_val></_></_></trees>
      <stage_threshold>-1.4174610376358032e+000</stage_threshold>
      <parent>11</parent>
      <next>-1</next></_>
    <_>
      <!-- stage 13 -->
      <trees>
        <_>
          <!-- tree 0 -->
          <_>
            <!-- root node -->
            <feature>
              <rects>
                <_>
                  1 5 18 6 -1.</_>
                <_>
                  1 5 9 3 2.</_>
                <_>
                  10 8 9 3 2.</_></rects>
              <tilted>0</tilted></feature>
            <threshold>-4.7114849090576172e-002</threshold>
            <left_val>2.6380369067192078e-001</left_val>
            <right_val>-5.1458477973937988e-001</right_val></_></_>
        <_>
          <!-- tree 1 -->
          <_>
            <!-- root node -->
            <feature>
              <rects>
                <_>
                  1 5 22 4 -1.</_>
                <_>
                  12 5 11 2 2.</_>
                <_>
                  1 7 11 2 2.</_></rects>
              <tilted>0</tilted></feature>
            <threshold>-2.2064190357923508e-002</threshold>
            <left_val>5.7216519117355347e-001</left_val>
            <right_val>-2.2896760702133179e-001</right_val></_></_>
        <_>
          <!-- tree 2 -->
          <_>
            <!-- root node -->
            <feature>
              <rects>
                <_>
                  3 13 16 8 -1.</_>
                <_>
                  3 17 16 4 2.</_></rects>
              <tilted>0</tilted></feature>
            <threshold>-8.9146606624126434e-002</threshold>
            <left_val>3.4684321284294128e-001</left_val>
            <right_val>-3.0894330143928528e-001</right_val></_></_>
        <_>
          <!-- tree 3 -->
          <_>
            <!-- root node -->
            <feature>
              <rects>
                <_>
                  12 11 3 1 -1.</_>
                <_>
                  13 11 1 1 3.</_></rects>
              <tilted>0</tilted></feature>
            <threshold>3.0687670223414898e-003</threshold>
            <left_val>-1.3332790136337280e-001</left_val>
            <right_val>4.2088019847869873e-001</right_val></_></_>
        <_>
          <!-- tree 4 -->
          <_>
            <!-- root node -->
            <feature>
              <rects>
                <_>
                  8 12 6 1 -1.</_>
                <_>
                  11 12 3 1 2.</_></rects>
              <tilted>0</tilted></feature>
            <threshold>-1.1884220293723047e-004</threshold>
            <left_val>2.0654749870300293e-001</left_val>
            <right_val>-5.1067477464675903e-001</right_val></_></_>
        <_>
          <!-- tree 5 -->
          <_>
            <!-- root node -->
            <feature>
              <rects>
                <_>
                  6 8 12 3 -1.</_>
                <_>
                  10 8 4 3 3.</_></rects>
              <tilted>0</tilted></feature>
            <threshold>2.4670399725437164e-002</threshold>
            <left_val>-3.5369831323623657e-001</left_val>
            <right_val>2.8359660506248474e-001</right_val></_></_>
        <_>
          <!-- tree 6 -->
          <_>
            <!-- root node -->
            <feature>
              <rects>
                <_>
                  9 10 4 4 -1.</_>
                <_>
                  11 10 2 4 2.</_></rects>
              <tilted>0</tilted></feature>
            <threshold>-4.9782730638980865e-003</threshold>
            <left_val>-7.8073251247406006e-001</left_val>
            <right_val>1.0980950295925140e-001</right_val></_></_>
        <_>
          <!-- tree 7 -->
          <_>
            <!-- root node -->
            <feature>
              <rects>
                <_>
                  5 5 14 4 -1.</_>
                <_>
                  12 5 7 2 2.</_>
                <_>
                  5 7 7 2 2.</_></rects>
              <tilted>0</tilted></feature>
            <threshold>2.6797959581017494e-002</threshold>
            <left_val>-2.1890230476856232e-001</left_val>
            <right_val>4.5639631152153015e-001</right_val></_></_>
        <_>
          <!-- tree 8 -->
          <_>
            <!-- root node -->
            <feature>
              <rects>
                <_>
                  10 11 3 1 -1.</_>
                <_>
                  11 11 1 1 3.</_></rects>
              <tilted>0</tilted></feature>
            <threshold>-5.2244501421228051e-004</threshold>
            <left_val>3.4037908911705017e-001</left_val>
            <right_val>-2.3729780316352844e-001</right_val></_></_>
        <_>
          <!-- tree 9 -->
          <_>
            <!-- root node -->
            <feature>
              <rects>
                <_>
                  10 11 6 2 -1.</_>
                <_>
                  12 11 2 2 3.</_></rects>
              <tilted>0</tilted></feature>
            <threshold>-4.6981070190668106e-003</threshold>
            <left_val>4.3990629911422729e-001</left_val>
            <right_val>-1.7770920693874359e-001</right_val></_></_>
        <_>
          <!-- tree 10 -->
          <_>
            <!-- root node -->
            <feature>
              <rects>
                <_>
                  2 1 7 12 -1.</_>
                <_>
                  2 5 7 4 3.</_></rects>
              <tilted>0</tilted></feature>
            <threshold>4.2646091431379318e-002</threshold>
            <left_val>-2.4366369843482971e-001</left_val>
            <right_val>3.7170419096946716e-001</right_val></_></_>
        <_>
          <!-- tree 11 -->
          <_>
            <!-- root node -->
            <feature>
              <rects>
                <_>
                  12 10 3 6 -1.</_>
                <_>
                  12 12 3 2 3.</_></rects>
              <tilted>0</tilted></feature>
            <threshold>1.6962159425020218e-003</threshold>
            <left_val>-1.4344990253448486e-001</left_val>
            <right_val>1.7975880205631256e-001</right_val></_></_>
        <_>
          <!-- tree 12 -->
          <_>
            <!-- root node -->
            <feature>
              <rects>
                <_>
                  10 10 3 2 -1.</_>
                <_>
                  10 11 3 1 2.</_></rects>
              <tilted>0</tilted></feature>
            <threshold>-3.3982701133936644e-003</threshold>
            <left_val>-6.4635437726974487e-001</left_val>
            <right_val>1.4176820218563080e-001</right_val></_></_>
        <_>
          <!-- tree 13 -->
          <_>
            <!-- root node -->
            <feature>
              <rects>
                <_>
                  6 9 12 2 -1.</_>
                <_>
                  6 10 12 1 2.</_></rects>
              <tilted>0</tilted></feature>
            <threshold>8.2036908715963364e-003</threshold>
            <left_val>-1.5791779756546021e-001</left_val>
            <right_val>6.7027401924133301e-001</right_val></_></_>
        <_>
          <!-- tree 14 -->
          <_>
            <!-- root node -->
            <feature>
              <rects>
                <_>
                  11 8 2 8 -1.</_>
                <_>
                  11 12 2 4 2.</_></rects>
              <tilted>0</tilted></feature>
            <threshold>-6.1767320148646832e-003</threshold>
            <left_val>1.5795260667800903e-001</left_val>
            <right_val>-6.3980108499526978e-001</right_val></_></_>
        <_>
          <!-- tree 15 -->
          <_>
            <!-- root node -->
            <feature>
              <rects>
                <_>
                  10 12 5 6 -1.</_>
                <_>
                  10 14 5 2 3.</_></rects>
              <tilted>0</tilted></feature>
            <threshold>1.4415739569813013e-003</threshold>
            <left_val>-2.5991261005401611e-001</left_val>
            <right_val>1.7783169448375702e-001</right_val></_></_>
        <_>
          <!-- tree 16 -->
          <_>
            <!-- root node -->
            <feature>
              <rects>
                <_>
                  11 12 2 2 -1.</_>
                <_>
                  11 12 1 1 2.</_>
                <_>
                  12 13 1 1 2.</_></rects>
              <tilted>0</tilted></feature>
            <threshold>-8.7840802734717727e-004</threshold>
            <left_val>3.8040518760681152e-001</left_val>
            <right_val>-2.1297200024127960e-001</right_val></_></_>
        <_>
          <!-- tree 17 -->
          <_>
            <!-- root node -->
            <feature>
              <rects>
                <_>
                  10 10 6 3 -1.</_>
                <_>
                  12 10 2 3 3.</_></rects>
              <tilted>0</tilted></feature>
            <threshold>-9.3423109501600266e-003</threshold>
            <left_val>5.1431548595428467e-001</left_val>
            <right_val>-9.1506011784076691e-002</right_val></_></_>
        <_>
          <!-- tree 18 -->
          <_>
            <!-- root node -->
            <feature>
              <rects>
                <_>
                  6 3 8 11 -1.</_>
                <_>
                  10 3 4 11 2.</_></rects>
              <tilted>0</tilted></feature>
            <threshold>3.5754390060901642e-002</threshold>
            <left_val>1.1936260014772415e-001</left_val>
            <right_val>-7.0727980136871338e-001</right_val></_></_>
        <_>
          <!-- tree 19 -->
          <_>
            <!-- root node -->
            <feature>
              <rects>
                <_>
                  10 8 4 4 -1.</_>
                <_>
                  10 8 2 4 2.</_></rects>
              <tilted>0</tilted></feature>
            <threshold>-2.7853230130858719e-004</threshold>
            <left_val>3.8608780503273010e-001</left_val>
            <right_val>-2.3274180293083191e-001</right_val></_></_>
        <_>
          <!-- tree 20 -->
          <_>
            <!-- root node -->
            <feature>
              <rects>
                <_>
                  8 10 6 3 -1.</_>
                <_>
                  10 10 2 3 3.</_></rects>
              <tilted>0</tilted></feature>
            <threshold>-3.5564249847084284e-003</threshold>
            <left_val>-8.8075882196426392e-001</left_val>
            <right_val>1.2744830548763275e-001</right_val></_></_>
        <_>
          <!-- tree 21 -->
          <_>
            <!-- root node -->
            <feature>
              <rects>
                <_>
                  7 9 12 8 -1.</_>
                <_>
                  11 9 4 8 3.</_></rects>
              <tilted>0</tilted></feature>
            <threshold>-5.1656179130077362e-002</threshold>
            <left_val>-9.5749342441558838e-001</left_val>
            <right_val>-2.2473949939012527e-002</right_val></_></_>
        <_>
          <!-- tree 22 -->
          <_>
            <!-- root node -->
            <feature>
              <rects>
                <_>
                  5 9 12 8 -1.</_>
                <_>
                  9 9 4 8 3.</_></rects>
              <tilted>0</tilted></feature>
            <threshold>8.8578900322318077e-003</threshold>
            <left_val>-7.5913292169570923e-001</left_val>
            <right_val>1.1953590065240860e-001</right_val></_></_></trees>
      <stage_threshold>-1.4958590269088745e+000</stage_threshold>
      <parent>12</parent>
      <next>-1</next></_></stages></cascade>
</opencv_storage>
